tree
version=v3
num_class=8
num_tree_per_iteration=8
label_index=0
max_feature_idx=5116
objective=multiclass num_class:8
feature_names=Column_0 Column_1 Column_2 Column_3 Column_4 Column_5 Column_6 Column_7 Column_8 Column_9 Column_10 Column_11 Column_12 Column_13 Column_14 Column_15 Column_16 Column_17 Column_18 Column_19 Column_20 Column_21 Column_22 Column_23 Column_24 Column_25 Column_26 Column_27 Column_28 Column_29 Column_30 Column_31 Column_32 Column_33 Column_34 Column_35 Column_36 Column_37 Column_38 Column_39 Column_40 Column_41 Column_42 Column_43 Column_44 Column_45 Column_46 Column_47 Column_48 Column_49 Column_50 Column_51 Column_52 Column_53 Column_54 Column_55 Column_56 Column_57 Column_58 Column_59 Column_60 Column_61 Column_62 Column_63 Column_64 Column_65 Column_66 Column_67 Column_68 Column_69 Column_70 Column_71 Column_72 Column_73 Column_74 Column_75 Column_76 Column_77 Column_78 Column_79 Column_80 Column_81 Column_82 Column_83 Column_84 Column_85 Column_86 Column_87 Column_88 Column_89 Column_90 Column_91 Column_92 Column_93 Column_94 Column_95 Column_96 Column_97 Column_98 Column_99 Column_100 Column_101 Column_102 Column_103 Column_104 Column_105 Column_106 Column_107 Column_108 Column_109 Column_110 Column_111 Column_112 Column_113 Column_114 Column_115 Column_116 Column_117 Column_118 Column_119 Column_120 Column_121 Column_122 Column_123 Column_124 Column_125 Column_126 Column_127 Column_128 Column_129 Column_130 Column_131 Column_132 Column_133 Column_134 Column_135 Column_136 Column_137 Column_138 Column_139 Column_140 Column_141 Column_142 Column_143 Column_144 Column_145 Column_146 Column_147 Column_148 Column_149 Column_150 Column_151 Column_152 Column_153 Column_154 Column_155 Column_156 Column_157 Column_158 Column_159 Column_160 Column_161 Column_162 Column_163 Column_164 Column_165 Column_166 Column_167 Column_168 Column_169 Column_170 Column_171 Column_172 Column_173 Column_174 Column_175 Column_176 Column_177 Column_178 Column_179 Column_180 Column_181 Column_182 Column_183 Column_184 Column_185 Column_186 Column_187 Column_188 Column_189 Column_190 Column_191 Column_192 Column_193 Column_194 Column_195 Column_196 Column_197 Column_198 Column_199 Column_200 Column_201 Column_202 Column_203 Column_204 Column_205 Column_206 Column_207 Column_208 Column_209 Column_210 Column_211 Column_212 Column_213 Column_214 Column_215 Column_216 Column_217 Column_218 Column_219 Column_220 Column_221 Column_222 Column_223 Column_224 Column_225 Column_226 Column_227 Column_228 Column_229 Column_230 Column_231 Column_232 Column_233 Column_234 Column_235 Column_236 Column_237 Column_238 Column_239 Column_240 Column_241 Column_242 Column_243 Column_244 Column_245 Column_246 Column_247 Column_248 Column_249 Column_250 Column_251 Column_252 Column_253 Column_254 Column_255 Column_256 Column_257 Column_258 Column_259 Column_260 Column_261 Column_262 Column_263 Column_264 Column_265 Column_266 Column_267 Column_268 Column_269 Column_270 Column_271 Column_272 Column_273 Column_274 Column_275 Column_276 Column_277 Column_278 Column_279 Column_280 Column_281 Column_282 Column_283 Column_284 Column_285 Column_286 Column_287 Column_288 Column_289 Column_290 Column_291 Column_292 Column_293 Column_294 Column_295 Column_296 Column_297 Column_298 Column_299 Column_300 Column_301 Column_302 Column_303 Column_304 Column_305 Column_306 Column_307 Column_308 Column_309 Column_310 Column_311 Column_312 Column_313 Column_314 Column_315 Column_316 Column_317 Column_318 Column_319 Column_320 Column_321 Column_322 Column_323 Column_324 Column_325 Column_326 Column_327 Column_328 Column_329 Column_330 Column_331 Column_332 Column_333 Column_334 Column_335 Column_336 Column_337 Column_338 Column_339 Column_340 Column_341 Column_342 Column_343 Column_344 Column_345 Column_346 Column_347 Column_348 Column_349 Column_350 Column_351 Column_352 Column_353 Column_354 Column_355 Column_356 Column_357 Column_358 Column_359 Column_360 Column_361 Column_362 Column_363 Column_364 Column_365 Column_366 Column_367 Column_368 Column_369 Column_370 Column_371 Column_372 Column_373 Column_374 Column_375 Column_376 Column_377 Column_378 Column_379 Column_380 Column_381 Column_382 Column_383 Column_384 Column_385 Column_386 Column_387 Column_388 Column_389 Column_390 Column_391 Column_392 Column_393 Column_394 Column_395 Column_396 Column_397 Column_398 Column_399 Column_400 Column_401 Column_402 Column_403 Column_404 Column_405 Column_406 Column_407 Column_408 Column_409 Column_410 Column_411 Column_412 Column_413 Column_414 Column_415 Column_416 Column_417 Column_418 Column_419 Column_420 Column_421 Column_422 Column_423 Column_424 Column_425 Column_426 Column_427 Column_428 Column_429 Column_430 Column_431 Column_432 Column_433 Column_434 Column_435 Column_436 Column_437 Column_438 Column_439 Column_440 Column_441 Column_442 Column_443 Column_444 Column_445 Column_446 Column_447 Column_448 Column_449 Column_450 Column_451 Column_452 Column_453 Column_454 Column_455 Column_456 Column_457 Column_458 Column_459 Column_460 Column_461 Column_462 Column_463 Column_464 Column_465 Column_466 Column_467 Column_468 Column_469 Column_470 Column_471 Column_472 Column_473 Column_474 Column_475 Column_476 Column_477 Column_478 Column_479 Column_480 Column_481 Column_482 Column_483 Column_484 Column_485 Column_486 Column_487 Column_488 Column_489 Column_490 Column_491 Column_492 Column_493 Column_494 Column_495 Column_496 Column_497 Column_498 Column_499 Column_500 Column_501 Column_502 Column_503 Column_504 Column_505 Column_506 Column_507 Column_508 Column_509 Column_510 Column_511 Column_512 Column_513 Column_514 Column_515 Column_516 Column_517 Column_518 Column_519 Column_520 Column_521 Column_522 Column_523 Column_524 Column_525 Column_526 Column_527 Column_528 Column_529 Column_530 Column_531 Column_532 Column_533 Column_534 Column_535 Column_536 Column_537 Column_538 Column_539 Column_540 Column_541 Column_542 Column_543 Column_544 Column_545 Column_546 Column_547 Column_548 Column_549 Column_550 Column_551 Column_552 Column_553 Column_554 Column_555 Column_556 Column_557 Column_558 Column_559 Column_560 Column_561 Column_562 Column_563 Column_564 Column_565 Column_566 Column_567 Column_568 Column_569 Column_570 Column_571 Column_572 Column_573 Column_574 Column_575 Column_576 Column_577 Column_578 Column_579 Column_580 Column_581 Column_582 Column_583 Column_584 Column_585 Column_586 Column_587 Column_588 Column_589 Column_590 Column_591 Column_592 Column_593 Column_594 Column_595 Column_596 Column_597 Column_598 Column_599 Column_600 Column_601 Column_602 Column_603 Column_604 Column_605 Column_606 Column_607 Column_608 Column_609 Column_610 Column_611 Column_612 Column_613 Column_614 Column_615 Column_616 Column_617 Column_618 Column_619 Column_620 Column_621 Column_622 Column_623 Column_624 Column_625 Column_626 Column_627 Column_628 Column_629 Column_630 Column_631 Column_632 Column_633 Column_634 Column_635 Column_636 Column_637 Column_638 Column_639 Column_640 Column_641 Column_642 Column_643 Column_644 Column_645 Column_646 Column_647 Column_648 Column_649 Column_650 Column_651 Column_652 Column_653 Column_654 Column_655 Column_656 Column_657 Column_658 Column_659 Column_660 Column_661 Column_662 Column_663 Column_664 Column_665 Column_666 Column_667 Column_668 Column_669 Column_670 Column_671 Column_672 Column_673 Column_674 Column_675 Column_676 Column_677 Column_678 Column_679 Column_680 Column_681 Column_682 Column_683 Column_684 Column_685 Column_686 Column_687 Column_688 Column_689 Column_690 Column_691 Column_692 Column_693 Column_694 Column_695 Column_696 Column_697 Column_698 Column_699 Column_700 Column_701 Column_702 Column_703 Column_704 Column_705 Column_706 Column_707 Column_708 Column_709 Column_710 Column_711 Column_712 Column_713 Column_714 Column_715 Column_716 Column_717 Column_718 Column_719 Column_720 Column_721 Column_722 Column_723 Column_724 Column_725 Column_726 Column_727 Column_728 Column_729 Column_730 Column_731 Column_732 Column_733 Column_734 Column_735 Column_736 Column_737 Column_738 Column_739 Column_740 Column_741 Column_742 Column_743 Column_744 Column_745 Column_746 Column_747 Column_748 Column_749 Column_750 Column_751 Column_752 Column_753 Column_754 Column_755 Column_756 Column_757 Column_758 Column_759 Column_760 Column_761 Column_762 Column_763 Column_764 Column_765 Column_766 Column_767 Column_768 Column_769 Column_770 Column_771 Column_772 Column_773 Column_774 Column_775 Column_776 Column_777 Column_778 Column_779 Column_780 Column_781 Column_782 Column_783 Column_784 Column_785 Column_786 Column_787 Column_788 Column_789 Column_790 Column_791 Column_792 Column_793 Column_794 Column_795 Column_796 Column_797 Column_798 Column_799 Column_800 Column_801 Column_802 Column_803 Column_804 Column_805 Column_806 Column_807 Column_808 Column_809 Column_810 Column_811 Column_812 Column_813 Column_814 Column_815 Column_816 Column_817 Column_818 Column_819 Column_820 Column_821 Column_822 Column_823 Column_824 Column_825 Column_826 Column_827 Column_828 Column_829 Column_830 Column_831 Column_832 Column_833 Column_834 Column_835 Column_836 Column_837 Column_838 Column_839 Column_840 Column_841 Column_842 Column_843 Column_844 Column_845 Column_846 Column_847 Column_848 Column_849 Column_850 Column_851 Column_852 Column_853 Column_854 Column_855 Column_856 Column_857 Column_858 Column_859 Column_860 Column_861 Column_862 Column_863 Column_864 Column_865 Column_866 Column_867 Column_868 Column_869 Column_870 Column_871 Column_872 Column_873 Column_874 Column_875 Column_876 Column_877 Column_878 Column_879 Column_880 Column_881 Column_882 Column_883 Column_884 Column_885 Column_886 Column_887 Column_888 Column_889 Column_890 Column_891 Column_892 Column_893 Column_894 Column_895 Column_896 Column_897 Column_898 Column_899 Column_900 Column_901 Column_902 Column_903 Column_904 Column_905 Column_906 Column_907 Column_908 Column_909 Column_910 Column_911 Column_912 Column_913 Column_914 Column_915 Column_916 Column_917 Column_918 Column_919 Column_920 Column_921 Column_922 Column_923 Column_924 Column_925 Column_926 Column_927 Column_928 Column_929 Column_930 Column_931 Column_932 Column_933 Column_934 Column_935 Column_936 Column_937 Column_938 Column_939 Column_940 Column_941 Column_942 Column_943 Column_944 Column_945 Column_946 Column_947 Column_948 Column_949 Column_950 Column_951 Column_952 Column_953 Column_954 Column_955 Column_956 Column_957 Column_958 Column_959 Column_960 Column_961 Column_962 Column_963 Column_964 Column_965 Column_966 Column_967 Column_968 Column_969 Column_970 Column_971 Column_972 Column_973 Column_974 Column_975 Column_976 Column_977 Column_978 Column_979 Column_980 Column_981 Column_982 Column_983 Column_984 Column_985 Column_986 Column_987 Column_988 Column_989 Column_990 Column_991 Column_992 Column_993 Column_994 Column_995 Column_996 Column_997 Column_998 Column_999 Column_1000 Column_1001 Column_1002 Column_1003 Column_1004 Column_1005 Column_1006 Column_1007 Column_1008 Column_1009 Column_1010 Column_1011 Column_1012 Column_1013 Column_1014 Column_1015 Column_1016 Column_1017 Column_1018 Column_1019 Column_1020 Column_1021 Column_1022 Column_1023 Column_1024 Column_1025 Column_1026 Column_1027 Column_1028 Column_1029 Column_1030 Column_1031 Column_1032 Column_1033 Column_1034 Column_1035 Column_1036 Column_1037 Column_1038 Column_1039 Column_1040 Column_1041 Column_1042 Column_1043 Column_1044 Column_1045 Column_1046 Column_1047 Column_1048 Column_1049 Column_1050 Column_1051 Column_1052 Column_1053 Column_1054 Column_1055 Column_1056 Column_1057 Column_1058 Column_1059 Column_1060 Column_1061 Column_1062 Column_1063 Column_1064 Column_1065 Column_1066 Column_1067 Column_1068 Column_1069 Column_1070 Column_1071 Column_1072 Column_1073 Column_1074 Column_1075 Column_1076 Column_1077 Column_1078 Column_1079 Column_1080 Column_1081 Column_1082 Column_1083 Column_1084 Column_1085 Column_1086 Column_1087 Column_1088 Column_1089 Column_1090 Column_1091 Column_1092 Column_1093 Column_1094 Column_1095 Column_1096 Column_1097 Column_1098 Column_1099 Column_1100 Column_1101 Column_1102 Column_1103 Column_1104 Column_1105 Column_1106 Column_1107 Column_1108 Column_1109 Column_1110 Column_1111 Column_1112 Column_1113 Column_1114 Column_1115 Column_1116 Column_1117 Column_1118 Column_1119 Column_1120 Column_1121 Column_1122 Column_1123 Column_1124 Column_1125 Column_1126 Column_1127 Column_1128 Column_1129 Column_1130 Column_1131 Column_1132 Column_1133 Column_1134 Column_1135 Column_1136 Column_1137 Column_1138 Column_1139 Column_1140 Column_1141 Column_1142 Column_1143 Column_1144 Column_1145 Column_1146 Column_1147 Column_1148 Column_1149 Column_1150 Column_1151 Column_1152 Column_1153 Column_1154 Column_1155 Column_1156 Column_1157 Column_1158 Column_1159 Column_1160 Column_1161 Column_1162 Column_1163 Column_1164 Column_1165 Column_1166 Column_1167 Column_1168 Column_1169 Column_1170 Column_1171 Column_1172 Column_1173 Column_1174 Column_1175 Column_1176 Column_1177 Column_1178 Column_1179 Column_1180 Column_1181 Column_1182 Column_1183 Column_1184 Column_1185 Column_1186 Column_1187 Column_1188 Column_1189 Column_1190 Column_1191 Column_1192 Column_1193 Column_1194 Column_1195 Column_1196 Column_1197 Column_1198 Column_1199 Column_1200 Column_1201 Column_1202 Column_1203 Column_1204 Column_1205 Column_1206 Column_1207 Column_1208 Column_1209 Column_1210 Column_1211 Column_1212 Column_1213 Column_1214 Column_1215 Column_1216 Column_1217 Column_1218 Column_1219 Column_1220 Column_1221 Column_1222 Column_1223 Column_1224 Column_1225 Column_1226 Column_1227 Column_1228 Column_1229 Column_1230 Column_1231 Column_1232 Column_1233 Column_1234 Column_1235 Column_1236 Column_1237 Column_1238 Column_1239 Column_1240 Column_1241 Column_1242 Column_1243 Column_1244 Column_1245 Column_1246 Column_1247 Column_1248 Column_1249 Column_1250 Column_1251 Column_1252 Column_1253 Column_1254 Column_1255 Column_1256 Column_1257 Column_1258 Column_1259 Column_1260 Column_1261 Column_1262 Column_1263 Column_1264 Column_1265 Column_1266 Column_1267 Column_1268 Column_1269 Column_1270 Column_1271 Column_1272 Column_1273 Column_1274 Column_1275 Column_1276 Column_1277 Column_1278 Column_1279 Column_1280 Column_1281 Column_1282 Column_1283 Column_1284 Column_1285 Column_1286 Column_1287 Column_1288 Column_1289 Column_1290 Column_1291 Column_1292 Column_1293 Column_1294 Column_1295 Column_1296 Column_1297 Column_1298 Column_1299 Column_1300 Column_1301 Column_1302 Column_1303 Column_1304 Column_1305 Column_1306 Column_1307 Column_1308 Column_1309 Column_1310 Column_1311 Column_1312 Column_1313 Column_1314 Column_1315 Column_1316 Column_1317 Column_1318 Column_1319 Column_1320 Column_1321 Column_1322 Column_1323 Column_1324 Column_1325 Column_1326 Column_1327 Column_1328 Column_1329 Column_1330 Column_1331 Column_1332 Column_1333 Column_1334 Column_1335 Column_1336 Column_1337 Column_1338 Column_1339 Column_1340 Column_1341 Column_1342 Column_1343 Column_1344 Column_1345 Column_1346 Column_1347 Column_1348 Column_1349 Column_1350 Column_1351 Column_1352 Column_1353 Column_1354 Column_1355 Column_1356 Column_1357 Column_1358 Column_1359 Column_1360 Column_1361 Column_1362 Column_1363 Column_1364 Column_1365 Column_1366 Column_1367 Column_1368 Column_1369 Column_1370 Column_1371 Column_1372 Column_1373 Column_1374 Column_1375 Column_1376 Column_1377 Column_1378 Column_1379 Column_1380 Column_1381 Column_1382 Column_1383 Column_1384 Column_1385 Column_1386 Column_1387 Column_1388 Column_1389 Column_1390 Column_1391 Column_1392 Column_1393 Column_1394 Column_1395 Column_1396 Column_1397 Column_1398 Column_1399 Column_1400 Column_1401 Column_1402 Column_1403 Column_1404 Column_1405 Column_1406 Column_1407 Column_1408 Column_1409 Column_1410 Column_1411 Column_1412 Column_1413 Column_1414 Column_1415 Column_1416 Column_1417 Column_1418 Column_1419 Column_1420 Column_1421 Column_1422 Column_1423 Column_1424 Column_1425 Column_1426 Column_1427 Column_1428 Column_1429 Column_1430 Column_1431 Column_1432 Column_1433 Column_1434 Column_1435 Column_1436 Column_1437 Column_1438 Column_1439 Column_1440 Column_1441 Column_1442 Column_1443 Column_1444 Column_1445 Column_1446 Column_1447 Column_1448 Column_1449 Column_1450 Column_1451 Column_1452 Column_1453 Column_1454 Column_1455 Column_1456 Column_1457 Column_1458 Column_1459 Column_1460 Column_1461 Column_1462 Column_1463 Column_1464 Column_1465 Column_1466 Column_1467 Column_1468 Column_1469 Column_1470 Column_1471 Column_1472 Column_1473 Column_1474 Column_1475 Column_1476 Column_1477 Column_1478 Column_1479 Column_1480 Column_1481 Column_1482 Column_1483 Column_1484 Column_1485 Column_1486 Column_1487 Column_1488 Column_1489 Column_1490 Column_1491 Column_1492 Column_1493 Column_1494 Column_1495 Column_1496 Column_1497 Column_1498 Column_1499 Column_1500 Column_1501 Column_1502 Column_1503 Column_1504 Column_1505 Column_1506 Column_1507 Column_1508 Column_1509 Column_1510 Column_1511 Column_1512 Column_1513 Column_1514 Column_1515 Column_1516 Column_1517 Column_1518 Column_1519 Column_1520 Column_1521 Column_1522 Column_1523 Column_1524 Column_1525 Column_1526 Column_1527 Column_1528 Column_1529 Column_1530 Column_1531 Column_1532 Column_1533 Column_1534 Column_1535 Column_1536 Column_1537 Column_1538 Column_1539 Column_1540 Column_1541 Column_1542 Column_1543 Column_1544 Column_1545 Column_1546 Column_1547 Column_1548 Column_1549 Column_1550 Column_1551 Column_1552 Column_1553 Column_1554 Column_1555 Column_1556 Column_1557 Column_1558 Column_1559 Column_1560 Column_1561 Column_1562 Column_1563 Column_1564 Column_1565 Column_1566 Column_1567 Column_1568 Column_1569 Column_1570 Column_1571 Column_1572 Column_1573 Column_1574 Column_1575 Column_1576 Column_1577 Column_1578 Column_1579 Column_1580 Column_1581 Column_1582 Column_1583 Column_1584 Column_1585 Column_1586 Column_1587 Column_1588 Column_1589 Column_1590 Column_1591 Column_1592 Column_1593 Column_1594 Column_1595 Column_1596 Column_1597 Column_1598 Column_1599 Column_1600 Column_1601 Column_1602 Column_1603 Column_1604 Column_1605 Column_1606 Column_1607 Column_1608 Column_1609 Column_1610 Column_1611 Column_1612 Column_1613 Column_1614 Column_1615 Column_1616 Column_1617 Column_1618 Column_1619 Column_1620 Column_1621 Column_1622 Column_1623 Column_1624 Column_1625 Column_1626 Column_1627 Column_1628 Column_1629 Column_1630 Column_1631 Column_1632 Column_1633 Column_1634 Column_1635 Column_1636 Column_1637 Column_1638 Column_1639 Column_1640 Column_1641 Column_1642 Column_1643 Column_1644 Column_1645 Column_1646 Column_1647 Column_1648 Column_1649 Column_1650 Column_1651 Column_1652 Column_1653 Column_1654 Column_1655 Column_1656 Column_1657 Column_1658 Column_1659 Column_1660 Column_1661 Column_1662 Column_1663 Column_1664 Column_1665 Column_1666 Column_1667 Column_1668 Column_1669 Column_1670 Column_1671 Column_1672 Column_1673 Column_1674 Column_1675 Column_1676 Column_1677 Column_1678 Column_1679 Column_1680 Column_1681 Column_1682 Column_1683 Column_1684 Column_1685 Column_1686 Column_1687 Column_1688 Column_1689 Column_1690 Column_1691 Column_1692 Column_1693 Column_1694 Column_1695 Column_1696 Column_1697 Column_1698 Column_1699 Column_1700 Column_1701 Column_1702 Column_1703 Column_1704 Column_1705 Column_1706 Column_1707 Column_1708 Column_1709 Column_1710 Column_1711 Column_1712 Column_1713 Column_1714 Column_1715 Column_1716 Column_1717 Column_1718 Column_1719 Column_1720 Column_1721 Column_1722 Column_1723 Column_1724 Column_1725 Column_1726 Column_1727 Column_1728 Column_1729 Column_1730 Column_1731 Column_1732 Column_1733 Column_1734 Column_1735 Column_1736 Column_1737 Column_1738 Column_1739 Column_1740 Column_1741 Column_1742 Column_1743 Column_1744 Column_1745 Column_1746 Column_1747 Column_1748 Column_1749 Column_1750 Column_1751 Column_1752 Column_1753 Column_1754 Column_1755 Column_1756 Column_1757 Column_1758 Column_1759 Column_1760 Column_1761 Column_1762 Column_1763 Column_1764 Column_1765 Column_1766 Column_1767 Column_1768 Column_1769 Column_1770 Column_1771 Column_1772 Column_1773 Column_1774 Column_1775 Column_1776 Column_1777 Column_1778 Column_1779 Column_1780 Column_1781 Column_1782 Column_1783 Column_1784 Column_1785 Column_1786 Column_1787 Column_1788 Column_1789 Column_1790 Column_1791 Column_1792 Column_1793 Column_1794 Column_1795 Column_1796 Column_1797 Column_1798 Column_1799 Column_1800 Column_1801 Column_1802 Column_1803 Column_1804 Column_1805 Column_1806 Column_1807 Column_1808 Column_1809 Column_1810 Column_1811 Column_1812 Column_1813 Column_1814 Column_1815 Column_1816 Column_1817 Column_1818 Column_1819 Column_1820 Column_1821 Column_1822 Column_1823 Column_1824 Column_1825 Column_1826 Column_1827 Column_1828 Column_1829 Column_1830 Column_1831 Column_1832 Column_1833 Column_1834 Column_1835 Column_1836 Column_1837 Column_1838 Column_1839 Column_1840 Column_1841 Column_1842 Column_1843 Column_1844 Column_1845 Column_1846 Column_1847 Column_1848 Column_1849 Column_1850 Column_1851 Column_1852 Column_1853 Column_1854 Column_1855 Column_1856 Column_1857 Column_1858 Column_1859 Column_1860 Column_1861 Column_1862 Column_1863 Column_1864 Column_1865 Column_1866 Column_1867 Column_1868 Column_1869 Column_1870 Column_1871 Column_1872 Column_1873 Column_1874 Column_1875 Column_1876 Column_1877 Column_1878 Column_1879 Column_1880 Column_1881 Column_1882 Column_1883 Column_1884 Column_1885 Column_1886 Column_1887 Column_1888 Column_1889 Column_1890 Column_1891 Column_1892 Column_1893 Column_1894 Column_1895 Column_1896 Column_1897 Column_1898 Column_1899 Column_1900 Column_1901 Column_1902 Column_1903 Column_1904 Column_1905 Column_1906 Column_1907 Column_1908 Column_1909 Column_1910 Column_1911 Column_1912 Column_1913 Column_1914 Column_1915 Column_1916 Column_1917 Column_1918 Column_1919 Column_1920 Column_1921 Column_1922 Column_1923 Column_1924 Column_1925 Column_1926 Column_1927 Column_1928 Column_1929 Column_1930 Column_1931 Column_1932 Column_1933 Column_1934 Column_1935 Column_1936 Column_1937 Column_1938 Column_1939 Column_1940 Column_1941 Column_1942 Column_1943 Column_1944 Column_1945 Column_1946 Column_1947 Column_1948 Column_1949 Column_1950 Column_1951 Column_1952 Column_1953 Column_1954 Column_1955 Column_1956 Column_1957 Column_1958 Column_1959 Column_1960 Column_1961 Column_1962 Column_1963 Column_1964 Column_1965 Column_1966 Column_1967 Column_1968 Column_1969 Column_1970 Column_1971 Column_1972 Column_1973 Column_1974 Column_1975 Column_1976 Column_1977 Column_1978 Column_1979 Column_1980 Column_1981 Column_1982 Column_1983 Column_1984 Column_1985 Column_1986 Column_1987 Column_1988 Column_1989 Column_1990 Column_1991 Column_1992 Column_1993 Column_1994 Column_1995 Column_1996 Column_1997 Column_1998 Column_1999 Column_2000 Column_2001 Column_2002 Column_2003 Column_2004 Column_2005 Column_2006 Column_2007 Column_2008 Column_2009 Column_2010 Column_2011 Column_2012 Column_2013 Column_2014 Column_2015 Column_2016 Column_2017 Column_2018 Column_2019 Column_2020 Column_2021 Column_2022 Column_2023 Column_2024 Column_2025 Column_2026 Column_2027 Column_2028 Column_2029 Column_2030 Column_2031 Column_2032 Column_2033 Column_2034 Column_2035 Column_2036 Column_2037 Column_2038 Column_2039 Column_2040 Column_2041 Column_2042 Column_2043 Column_2044 Column_2045 Column_2046 Column_2047 Column_2048 Column_2049 Column_2050 Column_2051 Column_2052 Column_2053 Column_2054 Column_2055 Column_2056 Column_2057 Column_2058 Column_2059 Column_2060 Column_2061 Column_2062 Column_2063 Column_2064 Column_2065 Column_2066 Column_2067 Column_2068 Column_2069 Column_2070 Column_2071 Column_2072 Column_2073 Column_2074 Column_2075 Column_2076 Column_2077 Column_2078 Column_2079 Column_2080 Column_2081 Column_2082 Column_2083 Column_2084 Column_2085 Column_2086 Column_2087 Column_2088 Column_2089 Column_2090 Column_2091 Column_2092 Column_2093 Column_2094 Column_2095 Column_2096 Column_2097 Column_2098 Column_2099 Column_2100 Column_2101 Column_2102 Column_2103 Column_2104 Column_2105 Column_2106 Column_2107 Column_2108 Column_2109 Column_2110 Column_2111 Column_2112 Column_2113 Column_2114 Column_2115 Column_2116 Column_2117 Column_2118 Column_2119 Column_2120 Column_2121 Column_2122 Column_2123 Column_2124 Column_2125 Column_2126 Column_2127 Column_2128 Column_2129 Column_2130 Column_2131 Column_2132 Column_2133 Column_2134 Column_2135 Column_2136 Column_2137 Column_2138 Column_2139 Column_2140 Column_2141 Column_2142 Column_2143 Column_2144 Column_2145 Column_2146 Column_2147 Column_2148 Column_2149 Column_2150 Column_2151 Column_2152 Column_2153 Column_2154 Column_2155 Column_2156 Column_2157 Column_2158 Column_2159 Column_2160 Column_2161 Column_2162 Column_2163 Column_2164 Column_2165 Column_2166 Column_2167 Column_2168 Column_2169 Column_2170 Column_2171 Column_2172 Column_2173 Column_2174 Column_2175 Column_2176 Column_2177 Column_2178 Column_2179 Column_2180 Column_2181 Column_2182 Column_2183 Column_2184 Column_2185 Column_2186 Column_2187 Column_2188 Column_2189 Column_2190 Column_2191 Column_2192 Column_2193 Column_2194 Column_2195 Column_2196 Column_2197 Column_2198 Column_2199 Column_2200 Column_2201 Column_2202 Column_2203 Column_2204 Column_2205 Column_2206 Column_2207 Column_2208 Column_2209 Column_2210 Column_2211 Column_2212 Column_2213 Column_2214 Column_2215 Column_2216 Column_2217 Column_2218 Column_2219 Column_2220 Column_2221 Column_2222 Column_2223 Column_2224 Column_2225 Column_2226 Column_2227 Column_2228 Column_2229 Column_2230 Column_2231 Column_2232 Column_2233 Column_2234 Column_2235 Column_2236 Column_2237 Column_2238 Column_2239 Column_2240 Column_2241 Column_2242 Column_2243 Column_2244 Column_2245 Column_2246 Column_2247 Column_2248 Column_2249 Column_2250 Column_2251 Column_2252 Column_2253 Column_2254 Column_2255 Column_2256 Column_2257 Column_2258 Column_2259 Column_2260 Column_2261 Column_2262 Column_2263 Column_2264 Column_2265 Column_2266 Column_2267 Column_2268 Column_2269 Column_2270 Column_2271 Column_2272 Column_2273 Column_2274 Column_2275 Column_2276 Column_2277 Column_2278 Column_2279 Column_2280 Column_2281 Column_2282 Column_2283 Column_2284 Column_2285 Column_2286 Column_2287 Column_2288 Column_2289 Column_2290 Column_2291 Column_2292 Column_2293 Column_2294 Column_2295 Column_2296 Column_2297 Column_2298 Column_2299 Column_2300 Column_2301 Column_2302 Column_2303 Column_2304 Column_2305 Column_2306 Column_2307 Column_2308 Column_2309 Column_2310 Column_2311 Column_2312 Column_2313 Column_2314 Column_2315 Column_2316 Column_2317 Column_2318 Column_2319 Column_2320 Column_2321 Column_2322 Column_2323 Column_2324 Column_2325 Column_2326 Column_2327 Column_2328 Column_2329 Column_2330 Column_2331 Column_2332 Column_2333 Column_2334 Column_2335 Column_2336 Column_2337 Column_2338 Column_2339 Column_2340 Column_2341 Column_2342 Column_2343 Column_2344 Column_2345 Column_2346 Column_2347 Column_2348 Column_2349 Column_2350 Column_2351 Column_2352 Column_2353 Column_2354 Column_2355 Column_2356 Column_2357 Column_2358 Column_2359 Column_2360 Column_2361 Column_2362 Column_2363 Column_2364 Column_2365 Column_2366 Column_2367 Column_2368 Column_2369 Column_2370 Column_2371 Column_2372 Column_2373 Column_2374 Column_2375 Column_2376 Column_2377 Column_2378 Column_2379 Column_2380 Column_2381 Column_2382 Column_2383 Column_2384 Column_2385 Column_2386 Column_2387 Column_2388 Column_2389 Column_2390 Column_2391 Column_2392 Column_2393 Column_2394 Column_2395 Column_2396 Column_2397 Column_2398 Column_2399 Column_2400 Column_2401 Column_2402 Column_2403 Column_2404 Column_2405 Column_2406 Column_2407 Column_2408 Column_2409 Column_2410 Column_2411 Column_2412 Column_2413 Column_2414 Column_2415 Column_2416 Column_2417 Column_2418 Column_2419 Column_2420 Column_2421 Column_2422 Column_2423 Column_2424 Column_2425 Column_2426 Column_2427 Column_2428 Column_2429 Column_2430 Column_2431 Column_2432 Column_2433 Column_2434 Column_2435 Column_2436 Column_2437 Column_2438 Column_2439 Column_2440 Column_2441 Column_2442 Column_2443 Column_2444 Column_2445 Column_2446 Column_2447 Column_2448 Column_2449 Column_2450 Column_2451 Column_2452 Column_2453 Column_2454 Column_2455 Column_2456 Column_2457 Column_2458 Column_2459 Column_2460 Column_2461 Column_2462 Column_2463 Column_2464 Column_2465 Column_2466 Column_2467 Column_2468 Column_2469 Column_2470 Column_2471 Column_2472 Column_2473 Column_2474 Column_2475 Column_2476 Column_2477 Column_2478 Column_2479 Column_2480 Column_2481 Column_2482 Column_2483 Column_2484 Column_2485 Column_2486 Column_2487 Column_2488 Column_2489 Column_2490 Column_2491 Column_2492 Column_2493 Column_2494 Column_2495 Column_2496 Column_2497 Column_2498 Column_2499 Column_2500 Column_2501 Column_2502 Column_2503 Column_2504 Column_2505 Column_2506 Column_2507 Column_2508 Column_2509 Column_2510 Column_2511 Column_2512 Column_2513 Column_2514 Column_2515 Column_2516 Column_2517 Column_2518 Column_2519 Column_2520 Column_2521 Column_2522 Column_2523 Column_2524 Column_2525 Column_2526 Column_2527 Column_2528 Column_2529 Column_2530 Column_2531 Column_2532 Column_2533 Column_2534 Column_2535 Column_2536 Column_2537 Column_2538 Column_2539 Column_2540 Column_2541 Column_2542 Column_2543 Column_2544 Column_2545 Column_2546 Column_2547 Column_2548 Column_2549 Column_2550 Column_2551 Column_2552 Column_2553 Column_2554 Column_2555 Column_2556 Column_2557 Column_2558 Column_2559 Column_2560 Column_2561 Column_2562 Column_2563 Column_2564 Column_2565 Column_2566 Column_2567 Column_2568 Column_2569 Column_2570 Column_2571 Column_2572 Column_2573 Column_2574 Column_2575 Column_2576 Column_2577 Column_2578 Column_2579 Column_2580 Column_2581 Column_2582 Column_2583 Column_2584 Column_2585 Column_2586 Column_2587 Column_2588 Column_2589 Column_2590 Column_2591 Column_2592 Column_2593 Column_2594 Column_2595 Column_2596 Column_2597 Column_2598 Column_2599 Column_2600 Column_2601 Column_2602 Column_2603 Column_2604 Column_2605 Column_2606 Column_2607 Column_2608 Column_2609 Column_2610 Column_2611 Column_2612 Column_2613 Column_2614 Column_2615 Column_2616 Column_2617 Column_2618 Column_2619 Column_2620 Column_2621 Column_2622 Column_2623 Column_2624 Column_2625 Column_2626 Column_2627 Column_2628 Column_2629 Column_2630 Column_2631 Column_2632 Column_2633 Column_2634 Column_2635 Column_2636 Column_2637 Column_2638 Column_2639 Column_2640 Column_2641 Column_2642 Column_2643 Column_2644 Column_2645 Column_2646 Column_2647 Column_2648 Column_2649 Column_2650 Column_2651 Column_2652 Column_2653 Column_2654 Column_2655 Column_2656 Column_2657 Column_2658 Column_2659 Column_2660 Column_2661 Column_2662 Column_2663 Column_2664 Column_2665 Column_2666 Column_2667 Column_2668 Column_2669 Column_2670 Column_2671 Column_2672 Column_2673 Column_2674 Column_2675 Column_2676 Column_2677 Column_2678 Column_2679 Column_2680 Column_2681 Column_2682 Column_2683 Column_2684 Column_2685 Column_2686 Column_2687 Column_2688 Column_2689 Column_2690 Column_2691 Column_2692 Column_2693 Column_2694 Column_2695 Column_2696 Column_2697 Column_2698 Column_2699 Column_2700 Column_2701 Column_2702 Column_2703 Column_2704 Column_2705 Column_2706 Column_2707 Column_2708 Column_2709 Column_2710 Column_2711 Column_2712 Column_2713 Column_2714 Column_2715 Column_2716 Column_2717 Column_2718 Column_2719 Column_2720 Column_2721 Column_2722 Column_2723 Column_2724 Column_2725 Column_2726 Column_2727 Column_2728 Column_2729 Column_2730 Column_2731 Column_2732 Column_2733 Column_2734 Column_2735 Column_2736 Column_2737 Column_2738 Column_2739 Column_2740 Column_2741 Column_2742 Column_2743 Column_2744 Column_2745 Column_2746 Column_2747 Column_2748 Column_2749 Column_2750 Column_2751 Column_2752 Column_2753 Column_2754 Column_2755 Column_2756 Column_2757 Column_2758 Column_2759 Column_2760 Column_2761 Column_2762 Column_2763 Column_2764 Column_2765 Column_2766 Column_2767 Column_2768 Column_2769 Column_2770 Column_2771 Column_2772 Column_2773 Column_2774 Column_2775 Column_2776 Column_2777 Column_2778 Column_2779 Column_2780 Column_2781 Column_2782 Column_2783 Column_2784 Column_2785 Column_2786 Column_2787 Column_2788 Column_2789 Column_2790 Column_2791 Column_2792 Column_2793 Column_2794 Column_2795 Column_2796 Column_2797 Column_2798 Column_2799 Column_2800 Column_2801 Column_2802 Column_2803 Column_2804 Column_2805 Column_2806 Column_2807 Column_2808 Column_2809 Column_2810 Column_2811 Column_2812 Column_2813 Column_2814 Column_2815 Column_2816 Column_2817 Column_2818 Column_2819 Column_2820 Column_2821 Column_2822 Column_2823 Column_2824 Column_2825 Column_2826 Column_2827 Column_2828 Column_2829 Column_2830 Column_2831 Column_2832 Column_2833 Column_2834 Column_2835 Column_2836 Column_2837 Column_2838 Column_2839 Column_2840 Column_2841 Column_2842 Column_2843 Column_2844 Column_2845 Column_2846 Column_2847 Column_2848 Column_2849 Column_2850 Column_2851 Column_2852 Column_2853 Column_2854 Column_2855 Column_2856 Column_2857 Column_2858 Column_2859 Column_2860 Column_2861 Column_2862 Column_2863 Column_2864 Column_2865 Column_2866 Column_2867 Column_2868 Column_2869 Column_2870 Column_2871 Column_2872 Column_2873 Column_2874 Column_2875 Column_2876 Column_2877 Column_2878 Column_2879 Column_2880 Column_2881 Column_2882 Column_2883 Column_2884 Column_2885 Column_2886 Column_2887 Column_2888 Column_2889 Column_2890 Column_2891 Column_2892 Column_2893 Column_2894 Column_2895 Column_2896 Column_2897 Column_2898 Column_2899 Column_2900 Column_2901 Column_2902 Column_2903 Column_2904 Column_2905 Column_2906 Column_2907 Column_2908 Column_2909 Column_2910 Column_2911 Column_2912 Column_2913 Column_2914 Column_2915 Column_2916 Column_2917 Column_2918 Column_2919 Column_2920 Column_2921 Column_2922 Column_2923 Column_2924 Column_2925 Column_2926 Column_2927 Column_2928 Column_2929 Column_2930 Column_2931 Column_2932 Column_2933 Column_2934 Column_2935 Column_2936 Column_2937 Column_2938 Column_2939 Column_2940 Column_2941 Column_2942 Column_2943 Column_2944 Column_2945 Column_2946 Column_2947 Column_2948 Column_2949 Column_2950 Column_2951 Column_2952 Column_2953 Column_2954 Column_2955 Column_2956 Column_2957 Column_2958 Column_2959 Column_2960 Column_2961 Column_2962 Column_2963 Column_2964 Column_2965 Column_2966 Column_2967 Column_2968 Column_2969 Column_2970 Column_2971 Column_2972 Column_2973 Column_2974 Column_2975 Column_2976 Column_2977 Column_2978 Column_2979 Column_2980 Column_2981 Column_2982 Column_2983 Column_2984 Column_2985 Column_2986 Column_2987 Column_2988 Column_2989 Column_2990 Column_2991 Column_2992 Column_2993 Column_2994 Column_2995 Column_2996 Column_2997 Column_2998 Column_2999 Column_3000 Column_3001 Column_3002 Column_3003 Column_3004 Column_3005 Column_3006 Column_3007 Column_3008 Column_3009 Column_3010 Column_3011 Column_3012 Column_3013 Column_3014 Column_3015 Column_3016 Column_3017 Column_3018 Column_3019 Column_3020 Column_3021 Column_3022 Column_3023 Column_3024 Column_3025 Column_3026 Column_3027 Column_3028 Column_3029 Column_3030 Column_3031 Column_3032 Column_3033 Column_3034 Column_3035 Column_3036 Column_3037 Column_3038 Column_3039 Column_3040 Column_3041 Column_3042 Column_3043 Column_3044 Column_3045 Column_3046 Column_3047 Column_3048 Column_3049 Column_3050 Column_3051 Column_3052 Column_3053 Column_3054 Column_3055 Column_3056 Column_3057 Column_3058 Column_3059 Column_3060 Column_3061 Column_3062 Column_3063 Column_3064 Column_3065 Column_3066 Column_3067 Column_3068 Column_3069 Column_3070 Column_3071 Column_3072 Column_3073 Column_3074 Column_3075 Column_3076 Column_3077 Column_3078 Column_3079 Column_3080 Column_3081 Column_3082 Column_3083 Column_3084 Column_3085 Column_3086 Column_3087 Column_3088 Column_3089 Column_3090 Column_3091 Column_3092 Column_3093 Column_3094 Column_3095 Column_3096 Column_3097 Column_3098 Column_3099 Column_3100 Column_3101 Column_3102 Column_3103 Column_3104 Column_3105 Column_3106 Column_3107 Column_3108 Column_3109 Column_3110 Column_3111 Column_3112 Column_3113 Column_3114 Column_3115 Column_3116 Column_3117 Column_3118 Column_3119 Column_3120 Column_3121 Column_3122 Column_3123 Column_3124 Column_3125 Column_3126 Column_3127 Column_3128 Column_3129 Column_3130 Column_3131 Column_3132 Column_3133 Column_3134 Column_3135 Column_3136 Column_3137 Column_3138 Column_3139 Column_3140 Column_3141 Column_3142 Column_3143 Column_3144 Column_3145 Column_3146 Column_3147 Column_3148 Column_3149 Column_3150 Column_3151 Column_3152 Column_3153 Column_3154 Column_3155 Column_3156 Column_3157 Column_3158 Column_3159 Column_3160 Column_3161 Column_3162 Column_3163 Column_3164 Column_3165 Column_3166 Column_3167 Column_3168 Column_3169 Column_3170 Column_3171 Column_3172 Column_3173 Column_3174 Column_3175 Column_3176 Column_3177 Column_3178 Column_3179 Column_3180 Column_3181 Column_3182 Column_3183 Column_3184 Column_3185 Column_3186 Column_3187 Column_3188 Column_3189 Column_3190 Column_3191 Column_3192 Column_3193 Column_3194 Column_3195 Column_3196 Column_3197 Column_3198 Column_3199 Column_3200 Column_3201 Column_3202 Column_3203 Column_3204 Column_3205 Column_3206 Column_3207 Column_3208 Column_3209 Column_3210 Column_3211 Column_3212 Column_3213 Column_3214 Column_3215 Column_3216 Column_3217 Column_3218 Column_3219 Column_3220 Column_3221 Column_3222 Column_3223 Column_3224 Column_3225 Column_3226 Column_3227 Column_3228 Column_3229 Column_3230 Column_3231 Column_3232 Column_3233 Column_3234 Column_3235 Column_3236 Column_3237 Column_3238 Column_3239 Column_3240 Column_3241 Column_3242 Column_3243 Column_3244 Column_3245 Column_3246 Column_3247 Column_3248 Column_3249 Column_3250 Column_3251 Column_3252 Column_3253 Column_3254 Column_3255 Column_3256 Column_3257 Column_3258 Column_3259 Column_3260 Column_3261 Column_3262 Column_3263 Column_3264 Column_3265 Column_3266 Column_3267 Column_3268 Column_3269 Column_3270 Column_3271 Column_3272 Column_3273 Column_3274 Column_3275 Column_3276 Column_3277 Column_3278 Column_3279 Column_3280 Column_3281 Column_3282 Column_3283 Column_3284 Column_3285 Column_3286 Column_3287 Column_3288 Column_3289 Column_3290 Column_3291 Column_3292 Column_3293 Column_3294 Column_3295 Column_3296 Column_3297 Column_3298 Column_3299 Column_3300 Column_3301 Column_3302 Column_3303 Column_3304 Column_3305 Column_3306 Column_3307 Column_3308 Column_3309 Column_3310 Column_3311 Column_3312 Column_3313 Column_3314 Column_3315 Column_3316 Column_3317 Column_3318 Column_3319 Column_3320 Column_3321 Column_3322 Column_3323 Column_3324 Column_3325 Column_3326 Column_3327 Column_3328 Column_3329 Column_3330 Column_3331 Column_3332 Column_3333 Column_3334 Column_3335 Column_3336 Column_3337 Column_3338 Column_3339 Column_3340 Column_3341 Column_3342 Column_3343 Column_3344 Column_3345 Column_3346 Column_3347 Column_3348 Column_3349 Column_3350 Column_3351 Column_3352 Column_3353 Column_3354 Column_3355 Column_3356 Column_3357 Column_3358 Column_3359 Column_3360 Column_3361 Column_3362 Column_3363 Column_3364 Column_3365 Column_3366 Column_3367 Column_3368 Column_3369 Column_3370 Column_3371 Column_3372 Column_3373 Column_3374 Column_3375 Column_3376 Column_3377 Column_3378 Column_3379 Column_3380 Column_3381 Column_3382 Column_3383 Column_3384 Column_3385 Column_3386 Column_3387 Column_3388 Column_3389 Column_3390 Column_3391 Column_3392 Column_3393 Column_3394 Column_3395 Column_3396 Column_3397 Column_3398 Column_3399 Column_3400 Column_3401 Column_3402 Column_3403 Column_3404 Column_3405 Column_3406 Column_3407 Column_3408 Column_3409 Column_3410 Column_3411 Column_3412 Column_3413 Column_3414 Column_3415 Column_3416 Column_3417 Column_3418 Column_3419 Column_3420 Column_3421 Column_3422 Column_3423 Column_3424 Column_3425 Column_3426 Column_3427 Column_3428 Column_3429 Column_3430 Column_3431 Column_3432 Column_3433 Column_3434 Column_3435 Column_3436 Column_3437 Column_3438 Column_3439 Column_3440 Column_3441 Column_3442 Column_3443 Column_3444 Column_3445 Column_3446 Column_3447 Column_3448 Column_3449 Column_3450 Column_3451 Column_3452 Column_3453 Column_3454 Column_3455 Column_3456 Column_3457 Column_3458 Column_3459 Column_3460 Column_3461 Column_3462 Column_3463 Column_3464 Column_3465 Column_3466 Column_3467 Column_3468 Column_3469 Column_3470 Column_3471 Column_3472 Column_3473 Column_3474 Column_3475 Column_3476 Column_3477 Column_3478 Column_3479 Column_3480 Column_3481 Column_3482 Column_3483 Column_3484 Column_3485 Column_3486 Column_3487 Column_3488 Column_3489 Column_3490 Column_3491 Column_3492 Column_3493 Column_3494 Column_3495 Column_3496 Column_3497 Column_3498 Column_3499 Column_3500 Column_3501 Column_3502 Column_3503 Column_3504 Column_3505 Column_3506 Column_3507 Column_3508 Column_3509 Column_3510 Column_3511 Column_3512 Column_3513 Column_3514 Column_3515 Column_3516 Column_3517 Column_3518 Column_3519 Column_3520 Column_3521 Column_3522 Column_3523 Column_3524 Column_3525 Column_3526 Column_3527 Column_3528 Column_3529 Column_3530 Column_3531 Column_3532 Column_3533 Column_3534 Column_3535 Column_3536 Column_3537 Column_3538 Column_3539 Column_3540 Column_3541 Column_3542 Column_3543 Column_3544 Column_3545 Column_3546 Column_3547 Column_3548 Column_3549 Column_3550 Column_3551 Column_3552 Column_3553 Column_3554 Column_3555 Column_3556 Column_3557 Column_3558 Column_3559 Column_3560 Column_3561 Column_3562 Column_3563 Column_3564 Column_3565 Column_3566 Column_3567 Column_3568 Column_3569 Column_3570 Column_3571 Column_3572 Column_3573 Column_3574 Column_3575 Column_3576 Column_3577 Column_3578 Column_3579 Column_3580 Column_3581 Column_3582 Column_3583 Column_3584 Column_3585 Column_3586 Column_3587 Column_3588 Column_3589 Column_3590 Column_3591 Column_3592 Column_3593 Column_3594 Column_3595 Column_3596 Column_3597 Column_3598 Column_3599 Column_3600 Column_3601 Column_3602 Column_3603 Column_3604 Column_3605 Column_3606 Column_3607 Column_3608 Column_3609 Column_3610 Column_3611 Column_3612 Column_3613 Column_3614 Column_3615 Column_3616 Column_3617 Column_3618 Column_3619 Column_3620 Column_3621 Column_3622 Column_3623 Column_3624 Column_3625 Column_3626 Column_3627 Column_3628 Column_3629 Column_3630 Column_3631 Column_3632 Column_3633 Column_3634 Column_3635 Column_3636 Column_3637 Column_3638 Column_3639 Column_3640 Column_3641 Column_3642 Column_3643 Column_3644 Column_3645 Column_3646 Column_3647 Column_3648 Column_3649 Column_3650 Column_3651 Column_3652 Column_3653 Column_3654 Column_3655 Column_3656 Column_3657 Column_3658 Column_3659 Column_3660 Column_3661 Column_3662 Column_3663 Column_3664 Column_3665 Column_3666 Column_3667 Column_3668 Column_3669 Column_3670 Column_3671 Column_3672 Column_3673 Column_3674 Column_3675 Column_3676 Column_3677 Column_3678 Column_3679 Column_3680 Column_3681 Column_3682 Column_3683 Column_3684 Column_3685 Column_3686 Column_3687 Column_3688 Column_3689 Column_3690 Column_3691 Column_3692 Column_3693 Column_3694 Column_3695 Column_3696 Column_3697 Column_3698 Column_3699 Column_3700 Column_3701 Column_3702 Column_3703 Column_3704 Column_3705 Column_3706 Column_3707 Column_3708 Column_3709 Column_3710 Column_3711 Column_3712 Column_3713 Column_3714 Column_3715 Column_3716 Column_3717 Column_3718 Column_3719 Column_3720 Column_3721 Column_3722 Column_3723 Column_3724 Column_3725 Column_3726 Column_3727 Column_3728 Column_3729 Column_3730 Column_3731 Column_3732 Column_3733 Column_3734 Column_3735 Column_3736 Column_3737 Column_3738 Column_3739 Column_3740 Column_3741 Column_3742 Column_3743 Column_3744 Column_3745 Column_3746 Column_3747 Column_3748 Column_3749 Column_3750 Column_3751 Column_3752 Column_3753 Column_3754 Column_3755 Column_3756 Column_3757 Column_3758 Column_3759 Column_3760 Column_3761 Column_3762 Column_3763 Column_3764 Column_3765 Column_3766 Column_3767 Column_3768 Column_3769 Column_3770 Column_3771 Column_3772 Column_3773 Column_3774 Column_3775 Column_3776 Column_3777 Column_3778 Column_3779 Column_3780 Column_3781 Column_3782 Column_3783 Column_3784 Column_3785 Column_3786 Column_3787 Column_3788 Column_3789 Column_3790 Column_3791 Column_3792 Column_3793 Column_3794 Column_3795 Column_3796 Column_3797 Column_3798 Column_3799 Column_3800 Column_3801 Column_3802 Column_3803 Column_3804 Column_3805 Column_3806 Column_3807 Column_3808 Column_3809 Column_3810 Column_3811 Column_3812 Column_3813 Column_3814 Column_3815 Column_3816 Column_3817 Column_3818 Column_3819 Column_3820 Column_3821 Column_3822 Column_3823 Column_3824 Column_3825 Column_3826 Column_3827 Column_3828 Column_3829 Column_3830 Column_3831 Column_3832 Column_3833 Column_3834 Column_3835 Column_3836 Column_3837 Column_3838 Column_3839 Column_3840 Column_3841 Column_3842 Column_3843 Column_3844 Column_3845 Column_3846 Column_3847 Column_3848 Column_3849 Column_3850 Column_3851 Column_3852 Column_3853 Column_3854 Column_3855 Column_3856 Column_3857 Column_3858 Column_3859 Column_3860 Column_3861 Column_3862 Column_3863 Column_3864 Column_3865 Column_3866 Column_3867 Column_3868 Column_3869 Column_3870 Column_3871 Column_3872 Column_3873 Column_3874 Column_3875 Column_3876 Column_3877 Column_3878 Column_3879 Column_3880 Column_3881 Column_3882 Column_3883 Column_3884 Column_3885 Column_3886 Column_3887 Column_3888 Column_3889 Column_3890 Column_3891 Column_3892 Column_3893 Column_3894 Column_3895 Column_3896 Column_3897 Column_3898 Column_3899 Column_3900 Column_3901 Column_3902 Column_3903 Column_3904 Column_3905 Column_3906 Column_3907 Column_3908 Column_3909 Column_3910 Column_3911 Column_3912 Column_3913 Column_3914 Column_3915 Column_3916 Column_3917 Column_3918 Column_3919 Column_3920 Column_3921 Column_3922 Column_3923 Column_3924 Column_3925 Column_3926 Column_3927 Column_3928 Column_3929 Column_3930 Column_3931 Column_3932 Column_3933 Column_3934 Column_3935 Column_3936 Column_3937 Column_3938 Column_3939 Column_3940 Column_3941 Column_3942 Column_3943 Column_3944 Column_3945 Column_3946 Column_3947 Column_3948 Column_3949 Column_3950 Column_3951 Column_3952 Column_3953 Column_3954 Column_3955 Column_3956 Column_3957 Column_3958 Column_3959 Column_3960 Column_3961 Column_3962 Column_3963 Column_3964 Column_3965 Column_3966 Column_3967 Column_3968 Column_3969 Column_3970 Column_3971 Column_3972 Column_3973 Column_3974 Column_3975 Column_3976 Column_3977 Column_3978 Column_3979 Column_3980 Column_3981 Column_3982 Column_3983 Column_3984 Column_3985 Column_3986 Column_3987 Column_3988 Column_3989 Column_3990 Column_3991 Column_3992 Column_3993 Column_3994 Column_3995 Column_3996 Column_3997 Column_3998 Column_3999 Column_4000 Column_4001 Column_4002 Column_4003 Column_4004 Column_4005 Column_4006 Column_4007 Column_4008 Column_4009 Column_4010 Column_4011 Column_4012 Column_4013 Column_4014 Column_4015 Column_4016 Column_4017 Column_4018 Column_4019 Column_4020 Column_4021 Column_4022 Column_4023 Column_4024 Column_4025 Column_4026 Column_4027 Column_4028 Column_4029 Column_4030 Column_4031 Column_4032 Column_4033 Column_4034 Column_4035 Column_4036 Column_4037 Column_4038 Column_4039 Column_4040 Column_4041 Column_4042 Column_4043 Column_4044 Column_4045 Column_4046 Column_4047 Column_4048 Column_4049 Column_4050 Column_4051 Column_4052 Column_4053 Column_4054 Column_4055 Column_4056 Column_4057 Column_4058 Column_4059 Column_4060 Column_4061 Column_4062 Column_4063 Column_4064 Column_4065 Column_4066 Column_4067 Column_4068 Column_4069 Column_4070 Column_4071 Column_4072 Column_4073 Column_4074 Column_4075 Column_4076 Column_4077 Column_4078 Column_4079 Column_4080 Column_4081 Column_4082 Column_4083 Column_4084 Column_4085 Column_4086 Column_4087 Column_4088 Column_4089 Column_4090 Column_4091 Column_4092 Column_4093 Column_4094 Column_4095 Column_4096 Column_4097 Column_4098 Column_4099 Column_4100 Column_4101 Column_4102 Column_4103 Column_4104 Column_4105 Column_4106 Column_4107 Column_4108 Column_4109 Column_4110 Column_4111 Column_4112 Column_4113 Column_4114 Column_4115 Column_4116 Column_4117 Column_4118 Column_4119 Column_4120 Column_4121 Column_4122 Column_4123 Column_4124 Column_4125 Column_4126 Column_4127 Column_4128 Column_4129 Column_4130 Column_4131 Column_4132 Column_4133 Column_4134 Column_4135 Column_4136 Column_4137 Column_4138 Column_4139 Column_4140 Column_4141 Column_4142 Column_4143 Column_4144 Column_4145 Column_4146 Column_4147 Column_4148 Column_4149 Column_4150 Column_4151 Column_4152 Column_4153 Column_4154 Column_4155 Column_4156 Column_4157 Column_4158 Column_4159 Column_4160 Column_4161 Column_4162 Column_4163 Column_4164 Column_4165 Column_4166 Column_4167 Column_4168 Column_4169 Column_4170 Column_4171 Column_4172 Column_4173 Column_4174 Column_4175 Column_4176 Column_4177 Column_4178 Column_4179 Column_4180 Column_4181 Column_4182 Column_4183 Column_4184 Column_4185 Column_4186 Column_4187 Column_4188 Column_4189 Column_4190 Column_4191 Column_4192 Column_4193 Column_4194 Column_4195 Column_4196 Column_4197 Column_4198 Column_4199 Column_4200 Column_4201 Column_4202 Column_4203 Column_4204 Column_4205 Column_4206 Column_4207 Column_4208 Column_4209 Column_4210 Column_4211 Column_4212 Column_4213 Column_4214 Column_4215 Column_4216 Column_4217 Column_4218 Column_4219 Column_4220 Column_4221 Column_4222 Column_4223 Column_4224 Column_4225 Column_4226 Column_4227 Column_4228 Column_4229 Column_4230 Column_4231 Column_4232 Column_4233 Column_4234 Column_4235 Column_4236 Column_4237 Column_4238 Column_4239 Column_4240 Column_4241 Column_4242 Column_4243 Column_4244 Column_4245 Column_4246 Column_4247 Column_4248 Column_4249 Column_4250 Column_4251 Column_4252 Column_4253 Column_4254 Column_4255 Column_4256 Column_4257 Column_4258 Column_4259 Column_4260 Column_4261 Column_4262 Column_4263 Column_4264 Column_4265 Column_4266 Column_4267 Column_4268 Column_4269 Column_4270 Column_4271 Column_4272 Column_4273 Column_4274 Column_4275 Column_4276 Column_4277 Column_4278 Column_4279 Column_4280 Column_4281 Column_4282 Column_4283 Column_4284 Column_4285 Column_4286 Column_4287 Column_4288 Column_4289 Column_4290 Column_4291 Column_4292 Column_4293 Column_4294 Column_4295 Column_4296 Column_4297 Column_4298 Column_4299 Column_4300 Column_4301 Column_4302 Column_4303 Column_4304 Column_4305 Column_4306 Column_4307 Column_4308 Column_4309 Column_4310 Column_4311 Column_4312 Column_4313 Column_4314 Column_4315 Column_4316 Column_4317 Column_4318 Column_4319 Column_4320 Column_4321 Column_4322 Column_4323 Column_4324 Column_4325 Column_4326 Column_4327 Column_4328 Column_4329 Column_4330 Column_4331 Column_4332 Column_4333 Column_4334 Column_4335 Column_4336 Column_4337 Column_4338 Column_4339 Column_4340 Column_4341 Column_4342 Column_4343 Column_4344 Column_4345 Column_4346 Column_4347 Column_4348 Column_4349 Column_4350 Column_4351 Column_4352 Column_4353 Column_4354 Column_4355 Column_4356 Column_4357 Column_4358 Column_4359 Column_4360 Column_4361 Column_4362 Column_4363 Column_4364 Column_4365 Column_4366 Column_4367 Column_4368 Column_4369 Column_4370 Column_4371 Column_4372 Column_4373 Column_4374 Column_4375 Column_4376 Column_4377 Column_4378 Column_4379 Column_4380 Column_4381 Column_4382 Column_4383 Column_4384 Column_4385 Column_4386 Column_4387 Column_4388 Column_4389 Column_4390 Column_4391 Column_4392 Column_4393 Column_4394 Column_4395 Column_4396 Column_4397 Column_4398 Column_4399 Column_4400 Column_4401 Column_4402 Column_4403 Column_4404 Column_4405 Column_4406 Column_4407 Column_4408 Column_4409 Column_4410 Column_4411 Column_4412 Column_4413 Column_4414 Column_4415 Column_4416 Column_4417 Column_4418 Column_4419 Column_4420 Column_4421 Column_4422 Column_4423 Column_4424 Column_4425 Column_4426 Column_4427 Column_4428 Column_4429 Column_4430 Column_4431 Column_4432 Column_4433 Column_4434 Column_4435 Column_4436 Column_4437 Column_4438 Column_4439 Column_4440 Column_4441 Column_4442 Column_4443 Column_4444 Column_4445 Column_4446 Column_4447 Column_4448 Column_4449 Column_4450 Column_4451 Column_4452 Column_4453 Column_4454 Column_4455 Column_4456 Column_4457 Column_4458 Column_4459 Column_4460 Column_4461 Column_4462 Column_4463 Column_4464 Column_4465 Column_4466 Column_4467 Column_4468 Column_4469 Column_4470 Column_4471 Column_4472 Column_4473 Column_4474 Column_4475 Column_4476 Column_4477 Column_4478 Column_4479 Column_4480 Column_4481 Column_4482 Column_4483 Column_4484 Column_4485 Column_4486 Column_4487 Column_4488 Column_4489 Column_4490 Column_4491 Column_4492 Column_4493 Column_4494 Column_4495 Column_4496 Column_4497 Column_4498 Column_4499 Column_4500 Column_4501 Column_4502 Column_4503 Column_4504 Column_4505 Column_4506 Column_4507 Column_4508 Column_4509 Column_4510 Column_4511 Column_4512 Column_4513 Column_4514 Column_4515 Column_4516 Column_4517 Column_4518 Column_4519 Column_4520 Column_4521 Column_4522 Column_4523 Column_4524 Column_4525 Column_4526 Column_4527 Column_4528 Column_4529 Column_4530 Column_4531 Column_4532 Column_4533 Column_4534 Column_4535 Column_4536 Column_4537 Column_4538 Column_4539 Column_4540 Column_4541 Column_4542 Column_4543 Column_4544 Column_4545 Column_4546 Column_4547 Column_4548 Column_4549 Column_4550 Column_4551 Column_4552 Column_4553 Column_4554 Column_4555 Column_4556 Column_4557 Column_4558 Column_4559 Column_4560 Column_4561 Column_4562 Column_4563 Column_4564 Column_4565 Column_4566 Column_4567 Column_4568 Column_4569 Column_4570 Column_4571 Column_4572 Column_4573 Column_4574 Column_4575 Column_4576 Column_4577 Column_4578 Column_4579 Column_4580 Column_4581 Column_4582 Column_4583 Column_4584 Column_4585 Column_4586 Column_4587 Column_4588 Column_4589 Column_4590 Column_4591 Column_4592 Column_4593 Column_4594 Column_4595 Column_4596 Column_4597 Column_4598 Column_4599 Column_4600 Column_4601 Column_4602 Column_4603 Column_4604 Column_4605 Column_4606 Column_4607 Column_4608 Column_4609 Column_4610 Column_4611 Column_4612 Column_4613 Column_4614 Column_4615 Column_4616 Column_4617 Column_4618 Column_4619 Column_4620 Column_4621 Column_4622 Column_4623 Column_4624 Column_4625 Column_4626 Column_4627 Column_4628 Column_4629 Column_4630 Column_4631 Column_4632 Column_4633 Column_4634 Column_4635 Column_4636 Column_4637 Column_4638 Column_4639 Column_4640 Column_4641 Column_4642 Column_4643 Column_4644 Column_4645 Column_4646 Column_4647 Column_4648 Column_4649 Column_4650 Column_4651 Column_4652 Column_4653 Column_4654 Column_4655 Column_4656 Column_4657 Column_4658 Column_4659 Column_4660 Column_4661 Column_4662 Column_4663 Column_4664 Column_4665 Column_4666 Column_4667 Column_4668 Column_4669 Column_4670 Column_4671 Column_4672 Column_4673 Column_4674 Column_4675 Column_4676 Column_4677 Column_4678 Column_4679 Column_4680 Column_4681 Column_4682 Column_4683 Column_4684 Column_4685 Column_4686 Column_4687 Column_4688 Column_4689 Column_4690 Column_4691 Column_4692 Column_4693 Column_4694 Column_4695 Column_4696 Column_4697 Column_4698 Column_4699 Column_4700 Column_4701 Column_4702 Column_4703 Column_4704 Column_4705 Column_4706 Column_4707 Column_4708 Column_4709 Column_4710 Column_4711 Column_4712 Column_4713 Column_4714 Column_4715 Column_4716 Column_4717 Column_4718 Column_4719 Column_4720 Column_4721 Column_4722 Column_4723 Column_4724 Column_4725 Column_4726 Column_4727 Column_4728 Column_4729 Column_4730 Column_4731 Column_4732 Column_4733 Column_4734 Column_4735 Column_4736 Column_4737 Column_4738 Column_4739 Column_4740 Column_4741 Column_4742 Column_4743 Column_4744 Column_4745 Column_4746 Column_4747 Column_4748 Column_4749 Column_4750 Column_4751 Column_4752 Column_4753 Column_4754 Column_4755 Column_4756 Column_4757 Column_4758 Column_4759 Column_4760 Column_4761 Column_4762 Column_4763 Column_4764 Column_4765 Column_4766 Column_4767 Column_4768 Column_4769 Column_4770 Column_4771 Column_4772 Column_4773 Column_4774 Column_4775 Column_4776 Column_4777 Column_4778 Column_4779 Column_4780 Column_4781 Column_4782 Column_4783 Column_4784 Column_4785 Column_4786 Column_4787 Column_4788 Column_4789 Column_4790 Column_4791 Column_4792 Column_4793 Column_4794 Column_4795 Column_4796 Column_4797 Column_4798 Column_4799 Column_4800 Column_4801 Column_4802 Column_4803 Column_4804 Column_4805 Column_4806 Column_4807 Column_4808 Column_4809 Column_4810 Column_4811 Column_4812 Column_4813 Column_4814 Column_4815 Column_4816 Column_4817 Column_4818 Column_4819 Column_4820 Column_4821 Column_4822 Column_4823 Column_4824 Column_4825 Column_4826 Column_4827 Column_4828 Column_4829 Column_4830 Column_4831 Column_4832 Column_4833 Column_4834 Column_4835 Column_4836 Column_4837 Column_4838 Column_4839 Column_4840 Column_4841 Column_4842 Column_4843 Column_4844 Column_4845 Column_4846 Column_4847 Column_4848 Column_4849 Column_4850 Column_4851 Column_4852 Column_4853 Column_4854 Column_4855 Column_4856 Column_4857 Column_4858 Column_4859 Column_4860 Column_4861 Column_4862 Column_4863 Column_4864 Column_4865 Column_4866 Column_4867 Column_4868 Column_4869 Column_4870 Column_4871 Column_4872 Column_4873 Column_4874 Column_4875 Column_4876 Column_4877 Column_4878 Column_4879 Column_4880 Column_4881 Column_4882 Column_4883 Column_4884 Column_4885 Column_4886 Column_4887 Column_4888 Column_4889 Column_4890 Column_4891 Column_4892 Column_4893 Column_4894 Column_4895 Column_4896 Column_4897 Column_4898 Column_4899 Column_4900 Column_4901 Column_4902 Column_4903 Column_4904 Column_4905 Column_4906 Column_4907 Column_4908 Column_4909 Column_4910 Column_4911 Column_4912 Column_4913 Column_4914 Column_4915 Column_4916 Column_4917 Column_4918 Column_4919 Column_4920 Column_4921 Column_4922 Column_4923 Column_4924 Column_4925 Column_4926 Column_4927 Column_4928 Column_4929 Column_4930 Column_4931 Column_4932 Column_4933 Column_4934 Column_4935 Column_4936 Column_4937 Column_4938 Column_4939 Column_4940 Column_4941 Column_4942 Column_4943 Column_4944 Column_4945 Column_4946 Column_4947 Column_4948 Column_4949 Column_4950 Column_4951 Column_4952 Column_4953 Column_4954 Column_4955 Column_4956 Column_4957 Column_4958 Column_4959 Column_4960 Column_4961 Column_4962 Column_4963 Column_4964 Column_4965 Column_4966 Column_4967 Column_4968 Column_4969 Column_4970 Column_4971 Column_4972 Column_4973 Column_4974 Column_4975 Column_4976 Column_4977 Column_4978 Column_4979 Column_4980 Column_4981 Column_4982 Column_4983 Column_4984 Column_4985 Column_4986 Column_4987 Column_4988 Column_4989 Column_4990 Column_4991 Column_4992 Column_4993 Column_4994 Column_4995 Column_4996 Column_4997 Column_4998 Column_4999 Column_5000 Column_5001 Column_5002 Column_5003 Column_5004 Column_5005 Column_5006 Column_5007 Column_5008 Column_5009 Column_5010 Column_5011 Column_5012 Column_5013 Column_5014 Column_5015 Column_5016 Column_5017 Column_5018 Column_5019 Column_5020 Column_5021 Column_5022 Column_5023 Column_5024 Column_5025 Column_5026 Column_5027 Column_5028 Column_5029 Column_5030 Column_5031 Column_5032 Column_5033 Column_5034 Column_5035 Column_5036 Column_5037 Column_5038 Column_5039 Column_5040 Column_5041 Column_5042 Column_5043 Column_5044 Column_5045 Column_5046 Column_5047 Column_5048 Column_5049 Column_5050 Column_5051 Column_5052 Column_5053 Column_5054 Column_5055 Column_5056 Column_5057 Column_5058 Column_5059 Column_5060 Column_5061 Column_5062 Column_5063 Column_5064 Column_5065 Column_5066 Column_5067 Column_5068 Column_5069 Column_5070 Column_5071 Column_5072 Column_5073 Column_5074 Column_5075 Column_5076 Column_5077 Column_5078 Column_5079 Column_5080 Column_5081 Column_5082 Column_5083 Column_5084 Column_5085 Column_5086 Column_5087 Column_5088 Column_5089 Column_5090 Column_5091 Column_5092 Column_5093 Column_5094 Column_5095 Column_5096 Column_5097 Column_5098 Column_5099 Column_5100 Column_5101 Column_5102 Column_5103 Column_5104 Column_5105 Column_5106 Column_5107 Column_5108 Column_5109 Column_5110 Column_5111 Column_5112 Column_5113 Column_5114 Column_5115 Column_5116
feature_infos=[0:0.208265512120408] [0:0.16662483489341756] [0:0.19272821530611345] [0:0.14241964809006297] [0:0.18610625192374522] [0:0.20212705615379584] [0:0.20374968587265524] [0:0.32168477589877936] [0:0.29749383238103616] [0:0.22274011879233768] [0:0.22040348730852152] [0:0.25118961323471439] [0:0.21627978597322045] [0:0.18578041271271625] [0:0.21755613541998484] [0:0.18733141918333648] [0:0.21975487949977193] [0:0.20428108994852687] [0:0.22965956925703579] [0:0.22785548382947524] [0:0.30379829072593489] [0:0.26210969492903946] [0:0.20496321759430908] [0:0.15323804587143205] [0:0.17608308156071018] [0:0.22115040220914026] [0:0.14144819532196962] [0:0.26541459526535371] [0:0.21210578466809846] none [0:0.50879705984638712] [0:0.16502915820757538] [0:0.30235096640696041] [0:0.19620903591688982] [0:0.22916735836647489] [0:0.18266985778239958] [0:0.1592315463563469] [0:0.15015833493958081] [0:0.19260612181358136] [0:0.31575329755300452] [0:0.22540301403636359] [0:0.1846097773676432] [0:0.21419542709628139] [0:0.38302036578169391] [0:0.18647902010229458] [0:0.20101525210527074] [0:0.2600759837375608] [0:0.27824995999225671] [0:0.31335151421833407] [0:0.16368708837988685] [0:0.18850013361737281] [0:0.23171430987173502] [0:0.18072137429826227] [0:0.20222203098040034] [0:0.1992783702250662] [0:0.21467948770778603] [0:0.24708630422945324] [0:0.23681296160482049] [0:0.25346950616621716] [0:0.15572290758507046] [0:0.19029768449464809] [0:0.21763876133504192] [0:0.17157992008698522] [0:0.18123267752935079] [0:0.15655955528818272] [0:0.17512127960607685] [0:0.18895276399056399] [0:0.16647643986363364] [0:0.24498941142834324] [0:0.18117026848535636] [0:0.23781857422934741] [0:0.20887003039916832] [0:0.164908147252885] [0:0.16603756344687712] [0:0.16003488756494708] [0:0.51580672084221113] [0:0.21280684477297296] [0:0.21541789217727078] [0:0.17804490283564572] [0:0.2225538830845841] [0:0.22585222908091368] [0:0.20698625069287444] [0:0.18174485637295584] [0:0.23942823418228487] [0:0.29838046899503595] [0:0.26116557480704761] [0:0.18082058217205352] [0:0.18669089625817425] [0:0.18051087021380469] [0:0.22873233165350929] [0:0.20729431786405281] [0:0.43143295125940445] [0:0.55280605688515083] [0:0.15724366356990302] [0:0.19519572456487722] [0:0.18666352831019595] [0:0.33058831298558577] [0:0.1445951046641758] [0:0.24820613217613396] [0:0.16105727022345381] [0:0.32019800814542565] [0:0.26077067687222089] [0:0.19562583148655696] [0:0.17025094606534402] [0:0.18298594450347672] [0:0.18423109179242672] [0:0.19451496790730546] [0:0.20019969341426125] [0:0.2317072943995486] [0:0.17436480842704022] [0:0.17703633986647838] [0:0.21132070104581066] [0:0.22762426369356134] [0:0.19361541770940616] [0:0.2352551353540365] [0:0.17489789967681704] [0:0.14606802989219342] [0:0.21319214778478354] [0:0.16470443184818595] [0:0.16798374752436143] [0:0.14781523488373982] [0:0.26486318052255725] [0:0.21149145654970955] [0:0.19716198438713856] [0:0.17736609522072727] [0:0.26396579566822753] [0:0.16555381204586603] [0:0.24300153174038497] [0:0.16116414658999237] [0:0.20419265405244766] [0:0.17500902819322317] [0:0.18362829673656972] [0:0.17041591638380757] [0:0.25989274354787373] [0:0.20531489329763827] [0:0.18998200805993259] [0:0.17414107401531972] [0:0.32635779639236223] [0:0.36095944517378892] [0:0.23601106454592019] [0:0.26188959287265917] [0:0.18753568631421755] [0:0.26534497533484286] [0:0.22632529638933083] none [0:0.19834160840892517] [0:0.20504280829868077] [0:0.18290515428933665] [0:0.19346422905008254] [0:0.17571418149707344] [0:0.19994883070496858] [0:0.1819445603196842] [0:0.22743720179692176] [0:0.23767839721687656] [0:0.15052012859505848] [0:0.21587657041906619] [0:0.20984939673777706] [0:0.18421257605876448] [0:0.18585966166297602] [0:0.19712632624967355] [0:0.45478732710153474] [0:0.2376575190982492] [0:0.18735153135522919] [0:0.28852625090768447] [0:0.19536478812153454] [0:0.25295926360283844] [0:0.3246599759269071] [0:0.20599887569892134] [0:0.18259673248661717] [0:0.24229666542761458] [0:0.19360285136150676] [0:0.18579987864241407] [0:0.18520900698500367] [0:0.15982974909913705] [0:0.17981388482362282] [0:0.17483047205047977] [0:0.2065531831307246] [0:0.14966906861835419] [0:0.17030766899770106] [0:0.2422745039785669] [0:0.18123708389051876] [0:0.22915181224868378] [0:0.22737217212232971] [0:0.18791136113506537] [0:0.23644393444461276] [0:0.1750305373757032] [0:0.37611490363026845] [0:0.18319514688924074] [0:0.19862976149415409] [0:0.22210857043523885] [0:0.20992957175936991] [0:0.27468765126647915] [0:0.21322498312969099] [0:0.18237801084275801] [0:0.19682646915182725] [0:0.22593482169774573] [0:0.20358785806313234] [0:0.20679243117818588] [0:0.18332508923416896] [0:0.21628677272086014] [0:0.23052208386535558] [0:0.19068032647871822] [0:0.258839001736139] [0:0.1858293533176382] [0:0.17804529991982992] [0:0.22107906569520597] [0:0.17129007470200336] [0:0.32424791019496274] [0:0.22163521089332044] [0:0.17193798300199375] [0:0.22832773720437238] [0:0.16870088401918748] [0:0.21951820555356197] [0:0.2218040549884164] [0:0.27235617057881328] [0:0.19781621376853317] [0:0.30814364712930614] [0:0.13843850313395165] [0:0.14888601537664489] [0:0.18094909990510641] [0:0.19292265885122084] [0:0.18006902433856442] [0:0.17454170175314784] [0:0.27293551113105174] [0:0.24670910894047854] [0:0.20989896037977512] [0:0.23121421832451514] [0:0.25946432376688355] [0:0.19494826673669777] [0:0.16363111079617845] [0:0.18767627697498224] [0:0.22249970595063484] [0:0.14316821415248973] [0:0.19513069951725934] [0:0.17217552747008857] [0:0.29878494261268701] [0:0.18589913783538675] [0:0.18693672348413568] [0:0.19932548718677562] [0:0.19932548718677562] [0:0.19255912209081338] [0:0.17737281663955073] [0:0.18406844117019369] [0:0.26889982906297061] none [0:0.23616066298532312] [0:0.22261541063436577] [0:0.16040744057739897] [0:0.20420540392773276] [0:0.18464889111412977] [0:0.21066705067279631] [0:0.26022212514398424] [0:0.29171182853080407] [0:0.20392472092546093] [0:0.18104616828467926] [0:0.20353163432048252] [0:0.18858019775322418] [0:0.20465516518038615] [0:0.17938936277081072] [0:0.20031673517253951] [0:0.20115764000695366] [0:0.18325802913311379] [0:0.22053920408450103] [0:0.37864743862699751] [0:0.2689465041097438] [0:0.22475975446038354] [0:0.1931459595301995] [0:0.22305911285201832] [0:0.17672043810835589] [0:0.33610363901357432] [0:0.21232903161313688] [0:0.16913345225644166] [0:0.29048059976787094] [0:0.23439130796658345] [0:0.34453650816954101] [0:0.207777363217971] [0:0.22731764328444284] [0:0.16508844658182639] none [0:0.16991059016124041] [0:0.21584424398266477] [0:0.17053812962051715] [0:0.17058709997389027] [0:0.2729183564436018] [0:0.13492362079517128] [0:0.2640270342130544] [0:0.18591510082756182] [0:0.21074285689467553] [0:0.1230465805509118] [0:0.19607869643441211] [0:0.17960679628536796] [0:0.18163413881196658] [0:0.20604894431554074] [0:0.24237301311380452] [0:0.19173509902390409] [0:0.20380392297769409] [0:0.18397521313541382] [0:0.18450777981040781] [0:0.19052825991541905] [0:0.16539313447360901] [0:0.38138917436110059] [0:0.18870166241182584] [0:0.18134010926888366] [0:0.21745052765844752] [0:0.15216932302586836] [0:0.24188219332003594] [0:0.18489909601303792] [0:0.16483636929196485] [0:0.23409355266986892] [0:0.18617781704891395] [0:0.19590476885142336] [0:0.23471030323664344] [0:0.19956899044002935] [0:0.17711032676225436] [0:0.19830417856226584] [0:0.19733424912806022] [0:0.17950905575071549] [0:0.20681181782583544] [0:0.16878953073047329] [0:0.16453553458622536] [0:0.18433044986659336] [0:0.17745313202914026] [0:0.18746409658544366] [0:0.24132703541533776] [0:0.20722421896370977] [0:0.1756646299180783] [0:0.18747783070178783] [0:0.47583628268446526] [0:0.17112480894285573] [0:0.67033543359130487] [0:0.48718890626071865] [0:0.18031851066328122] [0:0.16865797769592938] [0:0.30385186913818896] [0:0.18371531508546493] [0:0.56268929877273355] [0:0.22562084094737966] [0:0.14184456493449404] [0:0.19441839732396848] [0:0.12376289134186036] [0:0.1770293775263696] [0:0.18354365518423782] [0:0.18419723603139326] [0:0.20707423257018831] [0:0.22888361658745646] [0:0.20062080861006204] [0:0.19316919237546185] [0:0.15287010042171165] [0:0.18609075479083778] [0:0.23703226827452892] [0:0.18330849954847533] [0:0.17609851571987206] [0:0.18622256809763729] [0:0.20998058689620663] [0:0.21807112642263787] [0:0.18126979991975745] [0:0.1368921945657891] [0:0.17593791465385614] [0:0.16639555485079693] [0:0.22667949704181592] [0:0.1981749657945823] [0:0.15246371332990749] none [0:0.13931051053710181] [0:0.21989234049686601] [0:0.19956109700770466] [0:0.18145731142124191] none [0:0.32997086169898671] [0:0.1836163726137269] [0:0.24674395974489743] [0:0.18298254614309634] [0:0.68640422301721049] [0:0.22455796516240883] [0:0.19910627438537021] [0:0.16381026536705762] [0:0.26871092759593379] [0:0.18812471224245383] [0:0.15537751100283853] [0:0.31065294163540796] [0:0.15381969599857512] [0:0.19584539191460096] [0:0.21357895444719976] [0:0.17110606868328121] [0:0.20556038060071932] [0:0.21928735932881269] [0:0.21127186501250503] none [0:0.18152625436939865] [0:0.17907331667614876] [0:0.22308049311678402] [0:0.20634722138403064] [0:0.16057499404871742] [0:0.20627190881562288] [0:0.23653773593424945] [0:0.18407240723572976] [0:0.16619563498873685] [0:0.24967783050382594] [0:0.20827236224925824] [0:0.2141548384867574] [0:0.19987104773572273] [0:0.21783993542594968] [0:0.15755698303014418] [0:0.19251871676608115] [0:0.20935667350004039] [0:0.29171182853080407] [0:0.17818853196588461] [0:0.18578041271271625] [0:0.22172495517384841] [0:0.18888580305171587] [0:0.18966655464107252] [0:0.24460396236520032] [0:0.19709382391046146] [0:0.28286936065450063] [0:0.19928617688323755] [0:0.30315325776788205] [0:0.2458447019489988] [0:0.25264454422715327] [0:0.21885900698230024] [0:0.24165290535053485] [0:0.21751364790238151] [0:0.27630351442830464] [0:0.22492797797196734] [0:0.16604829757375272] [0:0.18483859819417614] [0:0.26239387283988058] [0:0.20800209786633703] [0:0.33996198378097991] [0:0.19872514745071787] [0:0.18820780848413285] [0:0.17751370710271222] [0:0.24403453015323012] [0:0.18923721601972152] [0:0.22197080353504176] [0:0.19707990450463786] [0:0.21468671017268251] [0:0.19256906135564128] [0:0.21881595218888181] [0:0.35137441261309793] [0:0.15399033558123038] [0:0.33366252137387958] [0:0.19241347995066785] [0:0.21129007809366623] [0:0.17949011527965905] [0:0.17763959120170916] [0:0.1839555430911966] [0:0.15720735104603867] [0:0.16179646412146584] [0:0.16280260044962866] [0:0.24590153558613981] [0:0.18852693194419112] [0:0.17551286111585496] [0:0.16188023567156243] [0:0.19732680099390174] [0:0.24882832744026748] [0:0.22800876598710387] [0:0.15494471510225255] [0:0.17630584669299859] [0:0.23663832677485322] [0:0.2756061377878824] [0:0.19274079820348189] [0:0.18011131132565905] [0:0.16166989018808001] [0:0.1826939953627289] [0:0.18671365999003434] [0:0.17442863316014146] [0:0.16344701656812194] [0:0.19998495732315205] [0:0.19590047846264325] [0:0.17607455052560186] [0:0.22620234469595968] [0:0.17153844404419827] [0:0.16458988885593259] [0:0.18349053140088195] [0:0.2246101905280766] [0:0.20068916176766863] [0:0.2057320338818788] [0:0.17352692209585829] [0:0.14748855995158852] [0:0.17322163515232247] [0:0.23322629225613456] none [0:0.21998478371157382] [0:0.24681588681458108] [0:0.19289216608850457] [0:0.32639454895908365] [0:0.23425274811997954] [0:0.18121662260050539] [0:0.16319066499462162] [0:0.18504147143352334] [0:0.18513028043131041] [0:0.14104498055229467] [0:0.21656684391594427] [0:0.25062142692553185] [0:0.21576840090151983] [0:0.32180170400445091] [0:0.21920975288282915] [0:0.19045041464784582] [0:0.30237311766696012] [0:0.19541810704631896] [0:0.15717002698957475] [0:0.26938219374552236] [0:0.24403190609937214] [0:0.25649630049685296] [0:0.15119889227677008] [0:0.21416435420187499] [0:0.75165404986113216] [0:0.21641165060455106] [0:0.15994294066444462] [0:0.19265872514389892] [0:0.20632206554453558] [0:0.1934879215877022] [0:0.20031637251743503] [0:0.17377113083922929] [0:0.22313616411187479] [0:0.21296623480726232] [0:0.2551971311834963] [0:0.19650413199816688] [0:0.23832794992820391] [0:0.21335928782334043] [0:0.17186458471085683] [0:0.20130834326130914] [0:0.18797410964886233] [0:0.18626373264251675] [0:0.17710753279948888] [0:0.22501028358807526] [0:0.17510364089927727] [0:0.21732324149420254] [0:0.22290626855996526] [0:0.17996061424038876] [0:0.21023536585623154] [0:0.19967678431606253] [0:0.18143460213205823] [0:0.21818728304066909] [0:0.19481634107317064] [0:0.18617094733370262] [0:0.27022262181290968] [0:0.24039800964475586] [0:0.22591101592863611] [0:0.27849517622196623] [0:0.21850460957321041] [0:0.18203947100170689] [0:0.33784116557167376] [0:0.16896188592779443] [0:0.32286391039081164] [0:0.28846478546236998] [0:0.14341862961562857] [0:0.20677664913873692] [0:0.16770185539908225] [0:0.21602043725048026] [0:0.21499077322636384] [0:0.25833135388352535] [0:0.30657544336442621] [0:0.31595952740050753] [0:0.18114244660730611] [0:0.22182039380183888] [0:0.16651224501445061] [0:0.22560053235763786] [0:0.19767308477871476] [0:0.15179128612134901] [0:0.18585582369578293] [0:0.18734684564125331] [0:0.15664577523200165] [0:0.18601898946808682] [0:0.23181355536023632] [0:0.20884604423330255] [0:0.20377331610688817] [0:0.18345286292274629] [0:0.15203832147616311] [0:0.16861881110550453] [0:0.22262912615819502] [0:0.20613534282886498] [0:0.13881728342599026] [0:0.20915278527480108] [0:0.16976338978502881] [0:0.22069078511393564] [0:0.18293161379317946] [0:0.21039914624062522] [0:0.16344028411079298] [0:0.16459961476295612] [0:0.16463946325629542] [0:0.21083581436013688] [0:0.2190391258770836] [0:0.24801353302591136] [0:0.22483493951725581] [0:0.1968793571009757] [0:0.1863572462977876] [0:0.18754250528331667] [0:0.18989627388316671] [0:0.3065951108464417] [0:0.18270965576260573] [0:0.24070048419288248] [0:0.40617539086502208] [0:0.18881845154471014] [0:0.15345057827534778] [0:0.20490153732514146] [0:0.18491131025596425] [0:0.17895722778218212] [0:0.19429541059000088] [0:0.20950409118073449] [0:0.24327629631639203] [0:0.20414186171147461] [0:0.18822896958841093] [0:0.16985900725526187] [0:0.2163921411338483] [0:0.16910427522707719] [0:0.16750601519099068] [0:0.16572719514265105] [0:0.24650442399426054] [0:0.16052530462038753] [0:0.1728545066719957] [0:0.2515946845951777] [0:0.17137491356817269] [0:0.23513430474279789] [0:0.28187175931673325] [0:0.16299667979368421] [0:0.25733532472735604] [0:0.18341073327736804] [0:0.20523972665219714] [0:0.2361685910706055] [0:0.29752573278887556] [0:0.24376974070207752] [0:0.22449016130141553] [0:0.41311711211578983] [0:0.2125875806281354] [0:0.1915851109979807] [0:0.22591101592863611] [0:0.18455492120720832] [0:0.40548941341270289] [0:0.18494468787985516] [0:0.27009664903911562] [0:0.16309563163966284] [0:0.17161713034490556] [0:0.19167322600494052] [0:0.21643104876464286] [0:0.20146393036575341] [0:0.23160329766211862] [0:0.21452393030290726] [0:0.19906523361027692] [0:0.22518276207425658] [0:0.58663860094780085] [0:0.19266266584902744] [0:0.16049468407690576] [0:0.17156167556086632] [0:0.2357817277238724] [0:0.17223857968663764] [0:0.1763434283897326] [0:0.16414981653969013] [0:0.15237133305356076] [0:0.23885370483036744] [0:0.24795095231726089] [0:0.1992783702250662] [0:0.25017575017721766] [0:0.16349669715364354] [0:0.23193407339916217] [0:0.18645806846686661] [0:0.15950495044836199] [0:0.22591972238832589] [0:0.28890395707140215] [0:0.25425022350098814] [0:0.18677074063529206] [0:0.23529344152684414] [0:0.16348386377572019] [0:0.28098794821046991] [0:0.21736308165709317] [0:0.21150749170904826] [0:0.17704566368910626] [0:0.21011875205762631] [0:0.19946163843410533] [0:0.27256610057536962] [0:0.18408034431522072] [0:0.22671782290349224] [0:0.16300711385397001] [0:0.22693906686565157] [0:0.16111008062334428] [0:0.19490453919500164] [0:0.29777272592940646] [0:0.16566941802436511] [0:0.19767231635124319] [0:0.19437133135711473] [0:0.18010050085603038] [0:0.1703459655618175] [0:0.24527237465798951] [0:0.19139457116277633] [0:0.23139676609592416] [0:0.21372566111279215] [0:0.17558546813641859] [0:0.20176231188256852] [0:0.20519228721378988] [0:0.16932790927657682] [0:0.20950663136307335] [0:0.24488742560015594] [0:0.21473055340066816] [0:0.15689622037601605] [0:0.19285904732769843] [0:0.21386262913394205] [0:0.14581571037242727] [0:0.15104726478640845] [0:0.21121785606687959] [0:0.1846529938302037] [0:0.17972399851619728] [0:0.15374547681191678] [0:0.1707068350964186] [0:0.15771822229044116] [0:0.18970368064942758] [0:0.21549623774778146] [0:0.2348950732941143] [0:0.1758943065935123] [0:0.19052827655782981] [0:0.14356375540340471] [0:0.20098476940414764] [0:0.24214854608037681] [0:0.20735254735019301] [0:0.18286168405443748] [0:0.17781883234906634] [0:0.16336168817319233] [0:0.20128278995990775] [0:0.20221811786195246] [0:0.20531153404339386] [0:0.1697417967553958] [0:0.22649231649721135] [0:0.19346956161026294] [0:0.26033877158025354] [0:0.18311786546370143] [0:0.24082817718960545] [0:0.17624028974298236] [0:0.21089214548692276] [0:0.19044582827207071] [0:0.26110601201902339] [0:0.14800545240429666] [0:0.13591794868358426] [0:0.23017142086558207] [0:0.15835734632177181] [0:0.16506763704795363] [0:0.18831732849435306] [0:0.17898745732505428] [0:0.19802285640177925] [0:0.14632096244515225] [0:0.1851352417189161] [0:0.18943205511421488] [0:0.18307162030898036] [0:0.16339489304534588] [0:0.26428658052103182] [0:0.20710884854079145] [0:0.16350330107517153] [0:0.21855299555354155] [0:0.18385198654650489] [0:0.24483947367176553] [0:0.34302046882361209] [0:0.1762450395028568] [0:0.27378634197194596] [0:0.28320588140861869] [0:0.21448431960582015] [0:0.19060171677721238] [0:0.17328164313738384] [0:0.22888489082227598] [0:0.17276815123686767] [0:0.207674504027866] [0:0.18830140741155674] [0:0.40064791039028014] [0:0.35041837950222765] [0:0.19136433026539301] [0:0.21871088608967282] [0:0.16193202773042029] [0:0.22246876599102219] [0:0.18165223584052423] [0:0.17417642826921684] [0:0.19671839490986784] [0:0.16215122687940239] [0:0.20992763875464912] [0:0.32696253527220298] [0:0.15950460333447947] [0:0.18773036520777678] [0:0.18947799948969857] [0:0.18177057963150778] [0:0.21007330390023113] [0:0.18981542187438716] [0:0.17264193099751662] [0:0.28534003827425836] [0:0.19586235149180506] [0:0.21291026479364869] [0:0.2139406759670871] [0:0.19695146627508719] [0:0.16514082029785471] [0:0.19849205154964433] [0:0.19285463837653541] [0:0.25919190287596083] none [0:0.19008751011851882] [0:0.16515250585068297] [0:0.17940482293714358] [0:0.31105899283760985] [0:0.16014357338758922] [0:0.21677338443683308] [0:0.19025467220223952] [0:0.2016277316794704] [0:0.17931634588770207] [0:0.16174542903757552] [0:0.18840431500993476] [0:0.16031028088897903] [0:0.17844105839191382] [0:0.16613907619699853] [0:0.28841868950899485] [0:0.17573294107985088] [0:0.18215912633646489] [0:0.27963239730210898] [0:0.2325263432193036] [0:0.31046209148717846] [0:0.17769975882914135] [0:0.21065427695619304] [0:0.17458279221578485] [0:0.16747259010571591] [0:0.18388853117890358] [0:0.2312680181086029] [0:0.30437753713265014] [0:0.22885281506807065] [0:0.15941564351683279] [0:0.38656627633673279] [0:0.18147205025226121] [0:0.26097388744226319] [0:0.2279044721748604] [0:0.18883240962934716] [0:0.17897476542268989] [0:0.27909654070120454] [0:0.14028812578413843] [0:0.18890273332397051] [0:0.21409486261413088] [0:0.18547041374524623] [0:0.23540683917944485] [0:0.17695354239769034] [0:0.26727863518447464] [0:0.17098616264189176] [0:0.17938071112528448] [0:0.18424084887968231] [0:0.17482942669872442] [0:0.20114639005168514] [0:0.24507542422449682] [0:0.18599082427539068] [0:0.18551519961839738] [0:0.17406855958041756] [0:0.24332560021216187] [0:0.18069776076845517] [0:0.15350627100441411] [0:0.22022486823461776] [0:0.39527802271416862] [0:0.21509543536362324] [0:0.27573267612369418] [0:0.19059268029852569] [0:0.24345803536587363] [0:0.24460396236520032] [0:0.15861155201189914] [0:0.20398928183162357] [0:0.13891182007974395] [0:0.26022444111615578] [0:0.19327761026068135] [0:0.22127779874949527] [0:0.17751267438041443] [0:0.16692891528011525] [0:0.18224680899509285] [0:0.17999117414882501] [0:0.19446789156368008] [0:0.1808155433275157] [0:0.19712294531255614] [0:0.19230768544629578] [0:0.20899607095360626] [0:0.25929925554256045] [0:0.19753120621650019] [0:0.1812366693192414] [0:0.21269196470679388] [0:0.26442614631980005] [0:0.17363666313897716] [0:0.24330963752349113] [0:0.22620392624321975] [0:0.23490783874635371] [0:0.28757520378572243] [0:0.21941534250774408] [0:0.17057571452694278] [0:0.19796730167345425] [0:0.20955657142104897] [0:0.18469045023870692] [0:0.25004912941125979] [0:0.22330062329110445] [0:0.23227663463843415] [0:0.23853506536430993] [0:0.20051466357851655] [0:0.21203967520654746] [0:0.195430063849964] [0:0.18757031039824446] [0:0.24417676274695127] [0:0.20899314567737998] [0:0.17562698418414652] [0:0.26284491119709819] [0:0.1816065892391919] [0:0.17022634097329045] [0:0.18679487107632914] [0:0.18829839716407981] [0:0.21232903161313688] [0:0.66914590418241005] [0:0.5667886310505823] [0:0.29583466414452103] [0:0.18126084663517403] [0:0.28997444947257595] none [0:0.16798177010398713] [0:0.21069473826526638] [0:0.21568897780008198] [0:0.22633327438466019] [0:0.15965993897629768] [0:0.24276910101252089] [0:0.18172929958928208] [0:0.24242292041046926] [0:0.22412494714185238] [0:0.19824889396903234] [0:0.26191694171436541] [0:0.22068826799817179] [0:0.22003512030790376] [0:0.18816180166059593] [0:0.40874778541117285] [0:0.20475793779097357] [0:0.30318686648228438] [0:0.1397911862889836] [0:0.19149039724388706] [0:0.14929896411851812] [0:0.18454422771210097] [0:0.22236769943188153] [0:0.18921048424839854] [0:0.20964298723447941] [0:0.19010077126814423] [0:0.19973319511773369] [0:0.23360177746496708] [0:0.19857489702685666] [0:0.19694184308873175] [0:0.17800651073103058] [0:0.21523826532740406] [0:0.22163897140501029] [0:0.3089283148070413] [0:0.21227881051333308] [0:0.19417122473045639] [0:0.21670847682377103] [0:0.27789686677730524] [0:0.15910158185088558] [0:0.1288500876253747] [0:0.14078724370321105] [0:0.16488871524009627] [0:0.18885279701689492] [0:0.18916902387364823] [0:0.16554745849507099] [0:0.41025476204677552] [0:0.22464650901352731] [0:0.20144514884838299] [0:0.21371153164896234] [0:0.2168005367414956] [0:0.35468414260100828] [0:0.41502603356652157] [0:0.18571553392535467] [0:0.35742410288433812] [0:0.37044371583354491] [0:0.1499727040717645] [0:0.16440509687619762] [0:0.1931041567974785] [0:0.16536616218333772] [0:0.21277556670684966] [0:0.18885235731413658] [0:0.21871499439602518] [0:0.15970232042577506] [0:0.21192753415097612] [0:0.2052310647998091] [0:0.17020160967028958] [0:0.24712513896704008] [0:0.30159928627849586] [0:0.19155312486053344] [0:0.19633406774161108] [0:0.2715837383471299] [0:0.1833841014980272] [0:0.16016029241760238] [0:0.18540521212929073] [0:0.1990412887616208] [0:0.2074750303256952] [0:0.26645997471539024] none [0:0.17659560895595167] [0:0.14591552998976176] [0:0.19910420685256722] [0:0.21691349541847582] [0:0.19760367624291064] [0:0.21729218829191113] [0:0.19994883070496858] [0:0.18757570859676886] [0:0.22498975811714689] [0:0.1914515945172485] [0:0.18909245231741326] [0:0.15817946437847077] [0:0.17373804098314746] [0:0.21569518432118612] [0:0.23908427121833348] [0:0.16477680103937234] [0:0.25677084173140208] [0:0.20530104721163817] [0:0.16029997506373592] [0:0.1676897101604424] [0:0.15896370804498877] [0:0.21627978597322045] [0:0.17793153711423013] [0:0.19425417807862735] [0:0.2012348697176389] [0:0.21355757052507346] [0:0.24792564084244645] [0:0.18836041579750362] [0:0.17234353427339127] [0:0.33943754092595996] [0:0.36858771449748473] [0:0.28294110902055358] [0:0.15053275925823789] [0:0.35377670637685538] [0:0.17865864180092056] [0:0.16414724582113494] [0:0.21186585356527349] [0:0.20375895824144477] [0:0.23509144765742385] [0:0.2038207308398092] [0:0.1648490160888767] [0:0.19583297853552278] [0:0.1958851912437837] [0:0.19474519058335296] [0:0.22943417106126962] [0:0.18306843594996922] [0:0.2286530263196897] [0:0.21277756374925325] [0:0.19945404257307511] [0:0.1805523395726451] [0:0.18331771094285793] [0:0.17318440087057643] [0:0.35916015442212568] [0:0.24207447808174365] [0:0.20870665377479122] [0:0.20753682780960134] [0:0.18777132262177471] [0:0.17093224408938382] [0:0.25407600807172848] [0:0.23404004372388104] [0:0.18509506715459118] [0:0.16493465801308707] [0:0.17026698398144935] [0:0.23470982742880755] [0:0.17520734710846095] [0:0.19122773977544372] [0:0.22437905813748713] [0:0.52151272292002193] [0:0.17622892091730433] [0:0.2106627229869284] [0:0.18911927865559541] [0:0.15933521848387136] [0:0.42023676295512341] [0:0.23081618831250478] [0:0.22054379766713497] [0:0.20554278736894419] [0:0.21439815146281355] [0:0.23280520962890205] [0:0.31565701088602854] [0:0.21448852648980177] [0:0.16888953224637296] [0:0.32769144608137601] [0:0.19582113042153668] [0:0.31462945858023472] [0:0.19484491321486566] [0:0.26890993085776244] [0:0.23826818978676076] [0:0.18418506694620423] [0:0.23501158266229785] [0:0.23101715485438684] [0:0.18539360911677755] [0:0.1702959540191045] [0:0.24144737717587778] [0:0.2176063493192788] [0:0.17044080958754851] [0:0.21409486261413088] [0:0.17897187864764194] [0:0.1790888716590685] [0:0.22068826799817179] [0:0.19843245560646977] [0:0.15832907643606822] [0:0.1719172833321464] [0:0.21950117546961992] [0:0.2085451260497575] [0:0.20981218187453077] [0:0.17919468647417197] [0:0.21515276810966788] [0:0.21248338029148914] [0:0.18436903922467829] [0:0.16390180697552792] [0:0.22394490805420034] [0:0.19904775092210256] [0:0.15273551977326652] [0:0.17615333957907145] [0:0.2058639174961682] [0:0.17416874503900362] [0:0.18968750884513508] [0:0.1691288977327782] [0:0.15036362535411127] [0:0.20604488161633144] [0:0.1817349247251816] [0:0.19273266867655031] [0:0.22907322421990853] [0:0.19802553607209594] [0:0.17872645774397877] [0:0.16902743586396204] [0:0.1854230281043312] [0:0.285993481074791] [0:0.20191957351655737] [0:0.14581994604410506] [0:0.16555750751016607] [0:0.20486166124272601] [0:0.18799706375360165] [0:0.20341352416377537] [0:0.19950501523172767] [0:0.12900907060307967] [0:0.22932721152721131] [0:0.16568611550300749] [0:0.23035107047847636] [0:0.16366565447104889] [0:0.23289599910785347] [0:0.20977033095322878] [0:0.19309295326753512] [0:0.24881901278921362] [0:0.1894489728019422] [0:0.18559828150730651] [0:0.19137939154577352] [0:0.23615366747589087] [0:0.21695259384243198] [0:0.23846451034634833] none [0:0.20904837035052459] [0:0.38295691140863886] [0:0.19842402336595105] [0:0.20493366256235881] [0:0.17547878341557321] [0:0.19750522486122823] [0:0.21510906420483905] [0:0.16849246792233327] [0:0.17530550137515583] [0:0.18556714222191203] [0:0.19999225891939387] [0:0.1759992759618661] [0:0.19067972907174799] [0:0.18667598328422011] [0:0.18237970053078786] [0:0.24426339855827373] [0:0.2122229789686354] [0:0.15084302830099536] [0:0.23082693326885759] [0:0.25043077019124205] [0:0.33585305180590536] [0:0.26244668203213001] [0:0.19171232578935729] [0:0.21173109184876537] [0:0.15485557583731338] [0:0.15180321840590133] [0:0.18937568178234096] [0:0.22892196982583327] [0:0.20757052103202114] [0:0.19603426065963958] [0:0.20859972012286621] [0:0.2065381380131831] [0:0.21892097641721639] [0:0.18606581281708928] [0:0.16569264269914738] [0:0.1779276497305497] none [0:0.17612223141053407] [0:0.22226407124274467] [0:0.19269278148920763] [0:0.22814150802572428] [0:0.20798517320420526] [0:0.17373401577283737] [0:0.1716156333836826] [0:0.20149017288610721] [0:0.14569232750909186] [0:0.18924845414999969] [0:0.19222930671628979] [0:0.21810270560314854] [0:0.22993092023690886] [0:0.2164018917888357] [0:0.26899862509846006] [0:0.1631511457257053] [0:0.26741461738223465] [0:0.18707308712078979] [0:0.21227452009813963] [0:0.20103430345697665] [0:0.21136467438854192] [0:0.25951028610612836] [0:0.16783695455194678] [0:0.18654734156475175] [0:0.20234446290794614] [0:0.27376479513919061] [0:0.26418490155453789] [0:0.40367904023846063] [0:0.16705203078080277] [0:0.21271160352981738] [0:0.25134756274267783] [0:0.21338359311047458] [0:0.20095547605686187] [0:0.22481330102595684] [0:0.27227181921268384] [0:0.1677055965059682] [0:0.17862455333356342] [0:0.19527773540578416] [0:0.25937191364862783] [0:0.2229006084287467] [0:0.22457813467697715] [0:0.33071778187972561] [0:0.38591278286023306] [0:0.24638093224067886] [0:0.1283428662584484] [0:0.19994427009820187] [0:0.22415223789437935] [0:0.21304431079450198] [0:0.24262497317501727] [0:0.18192254080844852] [0:0.16702260725568072] [0:0.18608380186924595] [0:0.14538807551024741] [0:0.22683882495901941] [0:0.18004050433935428] [0:0.36935842197798058] [0:0.27524732289748255] [0:0.17388137597192799] [0:0.23369496221957847] [0:0.17963648043400612] [0:0.1806871846754898] [0:0.21258981957725059] [0:0.20054969867629333] [0:0.16750488483776133] [0:0.23577093035446101] [0:0.15185807369548049] [0:0.14813751325920393] [0:0.19297209783894667] [0:0.24456436336851023] [0:0.16538435927506304] [0:0.21297773337154871] [0:0.21837425105181482] none [0:0.17457086797782928] [0:0.57536876019477046] [0:0.17804699113217837] [0:0.13693870719454723] [0:0.21698248042287091] [0:0.16366322122450089] [0:0.29937863822878225] [0:0.19068583711949824] [0:0.20179017127894752] [0:0.21672222113188394] [0:0.19004096021507977] [0:0.20852929106347809] [0:0.21184124225523107] [0:0.20253681461685027] [0:0.18257106902819178] [0:0.16328448374628171] [0:0.28656445869745728] [0:0.20754845268078595] [0:0.27066702794678865] [0:0.18466354934427601] [0:0.16365042087980816] [0:0.23097064210276311] [0:0.16788141013819091] [0:0.21161857079214322] [0:0.15547785073920151] [0:0.65955757089685396] [0:0.2311208810051919] [0:0.19115177032868624] [0:0.3122570077279766] [0:0.1963785926682477] [0:0.23809414755309199] [0:0.17743810483166722] [0:0.23902840554691146] [0:0.25280502894993934] [0:0.26466736942330632] [0:0.22301550017036278] [0:0.24086906988725718] [0:0.2006105062887367] [0:0.35490071910862558] [0:0.22956067740901301] [0:0.211501501965598] [0:0.20073592732438217] [0:0.14656060460459408] [0:0.16433379492409242] [0:0.24302598503417241] [0:0.19752628479863094] [0:0.19829107010271577] [0:0.21624821003931033] [0:0.18385354654900629] [0:0.16057675737143667] [0:0.17806215003868942] [0:0.26943986908075257] [0:0.22811341075098227] [0:0.16375781420915669] [0:0.18464314445059332] [0:0.23490783874635371] [0:0.14572214348552276] [0:0.19109254087898769] [0:0.18143674027446652] [0:0.19955120989275779] [0:0.2223734028790601] [0:0.20498496620601356] [0:0.23878284301689848] [0:0.18762044288897062] [0:0.18862052466726498] [0:0.19947282544503059] [0:0.14631007691430437] [0:0.16548646917708837] [0:0.18176151134158947] [0:0.19178711502556028] [0:0.19334539350428168] [0:0.27113117825488486] [0:0.23786682938259529] [0:0.19267771696242297] [0:0.27860504429890309] [0:0.20528255765461137] [0:0.26233998921198387] [0:0.17925636563302852] [0:0.1940961674270279] [0:0.17780602756548092] [0:0.1904709709398327] [0:0.18436986866276861] [0:0.17425400256911569] [0:0.34387477451289711] [0:0.20054800748575319] [0:0.19013615543968848] [0:0.20518416624089014] [0:0.17274616414231633] [0:0.22223499257448501] [0:0.27897858380455642] [0:0.30896385171929142] [0:0.20055494790221481] [0:0.16584979936219166] [0:0.15756385190372721] [0:0.16347785970579445] [0:0.20818249282479176] [0:0.16614019497342239] [0:0.18054946263268204] [0:0.17875493775702631] [0:0.17945729616836736] [0:0.1832987692494801] [0:0.22852611418486635] [0:0.15364643791944313] [0:0.20647994446308188] [0:0.1924661860331596] [0:0.1936960453918537] [0:0.30332782464430086] [0:0.15606546396861118] [0:0.20132339768910018] [0:0.23813270957328156] [0:0.16589113685845849] [0:0.21689812683028661] [0:0.17944785147702613] [0:0.19596621157188057] [0:0.16374225446928051] [0:0.18564491536243871] [0:0.26038376672530572] [0:0.17657294337736337] [0:0.13738102586388218] [0:0.25470106143675586] [0:0.21833552172187512] [0:0.23686483719509721] [0:0.2124176578829669] [0:0.17011053374920468] [0:0.24690837281965403] [0:0.2140401491007517] [0:0.14981663003925982] [0:0.18191814250087973] [0:0.23444755630985759] [0:0.22013120156508248] [0:0.18342053523933935] [0:0.20670827662783883] [0:0.2711835881265226] [0:0.16759776849598876] [0:0.15500767990566947] [0:0.24139002335797208] [0:0.19488730424421835] [0:0.31171459484993658] [0:0.22141612338857899] [0:0.23855284640533911] [0:0.1854052539419957] [0:0.30193313191156312] [0:0.25713414214594599] [0:0.40018005617908242] [0:0.26107776274086852] none [0:0.19152215274186712] [0:0.17108013788541201] [0:0.17805502909863735] [0:0.22189055779443173] [0:0.20358785806313234] [0:0.18874937573867298] [0:0.18318202997327512] [0:0.18821673507538975] [0:0.23288557135311433] [0:0.2770505518589792] [0:0.18920761908015915] [0:0.18401643808687917] [0:0.40908879373995272] [0:0.17854113931033933] [0:0.17224265159868699] [0:0.17519717925667228] [0:0.25094810144272511] [0:0.21233866644544086] [0:0.14525832815727724] [0:0.19538719798658599] [0:0.17316731000985267] [0:0.17862925750967648] [0:0.21159903532696184] [0:0.16104908824205696] [0:0.17657873550277714] [0:0.19622688218295145] [0:0.19269278148920763] [0:0.17423590287490801] [0:0.18546861456587588] [0:0.21111178962238702] [0:0.16165367469572314] [0:0.27772587372896446] [0:0.18818428067623738] [0:0.2019233807388017] [0:0.22219590089342153] [0:0.23131228719262695] [0:0.22596816205998455] [0:0.18734174045292135] [0:0.26202927195491255] [0:0.19333583431063314] [0:0.1739928576905245] [0:0.21233745977217849] [0:0.22140829786033794] [0:0.1894497972257902] [0:0.15634454201871811] [0:0.23703226827452892] [0:0.24274506283547506] [0:0.18899292358532507] [0:0.1717980464890885] [0:0.44461745318230411] [0:0.26431669156176857] [0:0.21775600165583245] [0:0.16794605643333116] [0:0.18972274847485554] [0:0.23888791273809226] [0:0.17840115752411942] [0:0.19663799127085441] [0:0.17170998073202701] [0:0.17464506546285366] [0:0.20120876755908504] [0:0.17966549737654719] [0:0.2535937131967464] [0:0.41837028720879965] [0:0.1755289821447753] [0:0.13501535310809631] [0:0.19674314960485592] [0:0.18561464944101869] [0:0.19601907728834111] [0:0.31172001505983626] [0:0.16272928692199054] [0:0.15996353104065353] [0:0.21862227609757837] [0:0.22565685948234956] [0:0.20563192860839655] [0:0.21099439855594185] [0:0.16906989247094673] [0:0.15430524055772782] [0:0.14467607064225918] [0:0.2103543027389233] [0:0.26839816614830048] [0:0.1852388618531691] [0:0.25271130249495405] [0:0.21506275291325067] [0:0.18025009551859678] [0:0.16071680616386491] [0:0.15536302483596739] [0:0.18297081350054253] [0:0.22156698647490344] [0:0.16031980519740843] [0:0.20168100373255346] [0:0.19073819487352708] [0:0.24673222551773702] [0:0.20504414514106259] [0:0.2024929622235932] [0:0.16917077856784499] [0:0.1719103238987123] [0:0.16508908211704518] [0:0.19704149391577941] [0:0.1931448135477587] [0:0.26924265355911364] [0:0.24712213665663432] [0:0.21907172667238226] [0:0.18725764422987365] [0:0.17188206677638601] [0:0.22484456808756123] [0:0.17691278164097157] [0:0.16059712470696935] [0:0.19430440796980505] [0:0.2201619248248253] [0:0.16113629988251529] [0:0.19149918569684857] [0:0.18868222396238021] [0:0.18647897848023839] [0:0.18615119042362704] [0:0.32431365292288378] [0:0.23417340825544342] [0:0.28684039898352981] [0:0.20341493967614829] [0:0.19336865341478071] [0:0.30618174902645373] [0:0.16386137103056306] [0:0.19366092152044545] [0:0.22015722022394227] [0:0.20312133651619441] [0:0.16293171217996594] [0:0.20317883253015373] [0:0.21141922484167766] [0:0.16152858341091095] [0:0.17299084934576062] [0:0.14599671383413221] [0:0.12792893926745147] [0:0.17155347070173466] [0:0.30797349193573703] [0:0.21593238129480477] [0:0.1612367473384336] [0:0.27234366302039836] [0:0.18272833261119562] [0:0.18678413598769125] [0:0.17259068436900224] [0:0.21762553735909373] [0:0.205066409550135] [0:0.1929696429981681] [0:0.26442614631980005] [0:0.227396282814711] [0:0.18064948912990061] [0:0.19501131245916836] [0:0.3022165884391193] [0:0.40046301130762502] [0:0.1755130137935251] [0:0.1392927812794528] [0:0.19474407477899572] none [0:0.18972274847485554] [0:0.20998512579415415] [0:0.2339749039956539] [0:0.25249169497502089] [0:0.18077183581801418] [0:0.25607824467456408] [0:0.19499837594249067] [0:0.18572111435457778] [0:0.1758915252378257] [0:0.16447667858000017] [0:0.1909118595441851] [0:0.18831732849435306] [0:0.18738387857798119] [0:0.24302598503417241] none [0:0.16459961476295612] [0:0.18558041461531452] [0:0.13937306676480116] [0:0.22995816131679947] [0:0.23906913011726033] [0:0.26331546987474475] [0:0.17091893098395164] [0:0.22382143166013727] [0:0.20788136422130571] [0:0.21656607452156601] [0:0.17740860228638336] [0:0.22064431120603131] [0:0.16932403680640637] [0:0.19531641601581018] [0:0.18607649371798818] [0:0.27032210625577358] [0:0.17405526924103121] [0:0.16918154802890015] [0:0.1858027855996372] [0:0.24633827844653253] [0:0.23047331431443685] [0:0.17497779040033959] [0:0.29127554610492362] [0:0.27914398627771686] [0:0.19883863997290568] [0:0.22262675195321718] [0:0.16631375889767089] [0:0.21503674149433782] [0:0.19800034372433281] [0:0.26809869045158896] [0:0.2292639697182593] [0:0.18202968483515286] [0:0.19266615218612865] [0:0.17458856195249098] [0:0.21389070914107169] [0:0.2135414183450961] [0:0.18878919821105347] [0:0.16759776849598876] [0:0.14139591114839573] [0:0.16212935148112273] [0:0.17690210326970848] none [0:0.19712497516973609] [0:0.1705050763723307] [0:0.16900157550235057] [0:0.19945404257307511] [0:0.16541791271228617] [0:0.18245031561002242] [0:0.28587426008347117] [0:0.20121073178511872] [0:0.2011700496367356] [0:0.17381691509126276] [0:0.23339599561756033] [0:0.24570366902670904] [0:0.17147791908865442] [0:0.16298222079441754] [0:0.2386656781207655] [0:0.17853978522917102] [0:0.20296152314408183] [0:0.16283060091901153] [0:0.24164489878676113] [0:0.16443281907040336] [0:0.14831641282424082] [0:0.23101235858414931] [0:0.20963187130465624] [0:0.19838853887022184] [0:0.16230316078005916] [0:0.17272826240755243] [0:0.1644501638816232] [0:0.16683473074948177] [0:0.20273056146859553] [0:0.14838723342430724] [0:0.18587557466706711] [0:0.30139037246381567] [0:0.20788412697561354] [0:0.1740985108074346] [0:0.21451595415082503] [0:0.25153555810852996] [0:0.16107346287873872] [0:0.17665401109251885] [0:0.15155927430903679] [0:0.17181533201332072] [0:0.19179076622567109] [0:0.24648745546746717] [0:0.27581634799745247] [0:0.34163881532387713] [0:0.20868581593276034] [0:0.24709282120470316] [0:0.16621529645958333] [0:0.24252098754423007] [0:0.2036382711906268] [0:0.162657746943804] [0:0.22618882713921079] [0:0.26193803626706025] [0:0.18950537740094966] [0:0.18493242786446912] [0:0.21436336584430671] [0:0.46176546479431252] [0:0.21332416785594577] [0:0.17334855948238567] [0:0.18561726814069987] [0:0.14745061314308078] [0:0.27884323109676651] [0:0.22032926014272691] [0:0.21616809428560022] [0:0.16674399266555223] [0:0.20101648204172309] [0:0.15299191128089637] [0:0.21306056793999448] [0:0.19929577270575552] [0:0.220424508464789] [0:0.33393728361388803] [0:0.15968365356382552] [0:0.16560030575852222] [0:0.1655911820123627] 