tree
version=v3
num_class=8
num_tree_per_iteration=8
label_index=0
max_feature_idx=5116
objective=multiclass num_class:8
feature_names=Column_0 Column_1 Column_2 Column_3 Column_4 Column_5 Column_6 Column_7 Column_8 Column_9 Column_10 Column_11 Column_12 Column_13 Column_14 Column_15 Column_16 Column_17 Column_18 Column_19 Column_20 Column_21 Column_22 Column_23 Column_24 Column_25 Column_26 Column_27 Column_28 Column_29 Column_30 Column_31 Column_32 Column_33 Column_34 Column_35 Column_36 Column_37 Column_38 Column_39 Column_40 Column_41 Column_42 Column_43 Column_44 Column_45 Column_46 Column_47 Column_48 Column_49 Column_50 Column_51 Column_52 Column_53 Column_54 Column_55 Column_56 Column_57 Column_58 Column_59 Column_60 Column_61 Column_62 Column_63 Column_64 Column_65 Column_66 Column_67 Column_68 Column_69 Column_70 Column_71 Column_72 Column_73 Column_74 Column_75 Column_76 Column_77 Column_78 Column_79 Column_80 Column_81 Column_82 Column_83 Column_84 Column_85 Column_86 Column_87 Column_88 Column_89 Column_90 Column_91 Column_92 Column_93 Column_94 Column_95 Column_96 Column_97 Column_98 Column_99 Column_100 Column_101 Column_102 Column_103 Column_104 Column_105 Column_106 Column_107 Column_108 Column_109 Column_110 Column_111 Column_112 Column_113 Column_114 Column_115 Column_116 Column_117 Column_118 Column_119 Column_120 Column_121 Column_122 Column_123 Column_124 Column_125 Column_126 Column_127 Column_128 Column_129 Column_130 Column_131 Column_132 Column_133 Column_134 Column_135 Column_136 Column_137 Column_138 Column_139 Column_140 Column_141 Column_142 Column_143 Column_144 Column_145 Column_146 Column_147 Column_148 Column_149 Column_150 Column_151 Column_152 Column_153 Column_154 Column_155 Column_156 Column_157 Column_158 Column_159 Column_160 Column_161 Column_162 Column_163 Column_164 Column_165 Column_166 Column_167 Column_168 Column_169 Column_170 Column_171 Column_172 Column_173 Column_174 Column_175 Column_176 Column_177 Column_178 Column_179 Column_180 Column_181 Column_182 Column_183 Column_184 Column_185 Column_186 Column_187 Column_188 Column_189 Column_190 Column_191 Column_192 Column_193 Column_194 Column_195 Column_196 Column_197 Column_198 Column_199 Column_200 Column_201 Column_202 Column_203 Column_204 Column_205 Column_206 Column_207 Column_208 Column_209 Column_210 Column_211 Column_212 Column_213 Column_214 Column_215 Column_216 Column_217 Column_218 Column_219 Column_220 Column_221 Column_222 Column_223 Column_224 Column_225 Column_226 Column_227 Column_228 Column_229 Column_230 Column_231 Column_232 Column_233 Column_234 Column_235 Column_236 Column_237 Column_238 Column_239 Column_240 Column_241 Column_242 Column_243 Column_244 Column_245 Column_246 Column_247 Column_248 Column_249 Column_250 Column_251 Column_252 Column_253 Column_254 Column_255 Column_256 Column_257 Column_258 Column_259 Column_260 Column_261 Column_262 Column_263 Column_264 Column_265 Column_266 Column_267 Column_268 Column_269 Column_270 Column_271 Column_272 Column_273 Column_274 Column_275 Column_276 Column_277 Column_278 Column_279 Column_280 Column_281 Column_282 Column_283 Column_284 Column_285 Column_286 Column_287 Column_288 Column_289 Column_290 Column_291 Column_292 Column_293 Column_294 Column_295 Column_296 Column_297 Column_298 Column_299 Column_300 Column_301 Column_302 Column_303 Column_304 Column_305 Column_306 Column_307 Column_308 Column_309 Column_310 Column_311 Column_312 Column_313 Column_314 Column_315 Column_316 Column_317 Column_318 Column_319 Column_320 Column_321 Column_322 Column_323 Column_324 Column_325 Column_326 Column_327 Column_328 Column_329 Column_330 Column_331 Column_332 Column_333 Column_334 Column_335 Column_336 Column_337 Column_338 Column_339 Column_340 Column_341 Column_342 Column_343 Column_344 Column_345 Column_346 Column_347 Column_348 Column_349 Column_350 Column_351 Column_352 Column_353 Column_354 Column_355 Column_356 Column_357 Column_358 Column_359 Column_360 Column_361 Column_362 Column_363 Column_364 Column_365 Column_366 Column_367 Column_368 Column_369 Column_370 Column_371 Column_372 Column_373 Column_374 Column_375 Column_376 Column_377 Column_378 Column_379 Column_380 Column_381 Column_382 Column_383 Column_384 Column_385 Column_386 Column_387 Column_388 Column_389 Column_390 Column_391 Column_392 Column_393 Column_394 Column_395 Column_396 Column_397 Column_398 Column_399 Column_400 Column_401 Column_402 Column_403 Column_404 Column_405 Column_406 Column_407 Column_408 Column_409 Column_410 Column_411 Column_412 Column_413 Column_414 Column_415 Column_416 Column_417 Column_418 Column_419 Column_420 Column_421 Column_422 Column_423 Column_424 Column_425 Column_426 Column_427 Column_428 Column_429 Column_430 Column_431 Column_432 Column_433 Column_434 Column_435 Column_436 Column_437 Column_438 Column_439 Column_440 Column_441 Column_442 Column_443 Column_444 Column_445 Column_446 Column_447 Column_448 Column_449 Column_450 Column_451 Column_452 Column_453 Column_454 Column_455 Column_456 Column_457 Column_458 Column_459 Column_460 Column_461 Column_462 Column_463 Column_464 Column_465 Column_466 Column_467 Column_468 Column_469 Column_470 Column_471 Column_472 Column_473 Column_474 Column_475 Column_476 Column_477 Column_478 Column_479 Column_480 Column_481 Column_482 Column_483 Column_484 Column_485 Column_486 Column_487 Column_488 Column_489 Column_490 Column_491 Column_492 Column_493 Column_494 Column_495 Column_496 Column_497 Column_498 Column_499 Column_500 Column_501 Column_502 Column_503 Column_504 Column_505 Column_506 Column_507 Column_508 Column_509 Column_510 Column_511 Column_512 Column_513 Column_514 Column_515 Column_516 Column_517 Column_518 Column_519 Column_520 Column_521 Column_522 Column_523 Column_524 Column_525 Column_526 Column_527 Column_528 Column_529 Column_530 Column_531 Column_532 Column_533 Column_534 Column_535 Column_536 Column_537 Column_538 Column_539 Column_540 Column_541 Column_542 Column_543 Column_544 Column_545 Column_546 Column_547 Column_548 Column_549 Column_550 Column_551 Column_552 Column_553 Column_554 Column_555 Column_556 Column_557 Column_558 Column_559 Column_560 Column_561 Column_562 Column_563 Column_564 Column_565 Column_566 Column_567 Column_568 Column_569 Column_570 Column_571 Column_572 Column_573 Column_574 Column_575 Column_576 Column_577 Column_578 Column_579 Column_580 Column_581 Column_582 Column_583 Column_584 Column_585 Column_586 Column_587 Column_588 Column_589 Column_590 Column_591 Column_592 Column_593 Column_594 Column_595 Column_596 Column_597 Column_598 Column_599 Column_600 Column_601 Column_602 Column_603 Column_604 Column_605 Column_606 Column_607 Column_608 Column_609 Column_610 Column_611 Column_612 Column_613 Column_614 Column_615 Column_616 Column_617 Column_618 Column_619 Column_620 Column_621 Column_622 Column_623 Column_624 Column_625 Column_626 Column_627 Column_628 Column_629 Column_630 Column_631 Column_632 Column_633 Column_634 Column_635 Column_636 Column_637 Column_638 Column_639 Column_640 Column_641 Column_642 Column_643 Column_644 Column_645 Column_646 Column_647 Column_648 Column_649 Column_650 Column_651 Column_652 Column_653 Column_654 Column_655 Column_656 Column_657 Column_658 Column_659 Column_660 Column_661 Column_662 Column_663 Column_664 Column_665 Column_666 Column_667 Column_668 Column_669 Column_670 Column_671 Column_672 Column_673 Column_674 Column_675 Column_676 Column_677 Column_678 Column_679 Column_680 Column_681 Column_682 Column_683 Column_684 Column_685 Column_686 Column_687 Column_688 Column_689 Column_690 Column_691 Column_692 Column_693 Column_694 Column_695 Column_696 Column_697 Column_698 Column_699 Column_700 Column_701 Column_702 Column_703 Column_704 Column_705 Column_706 Column_707 Column_708 Column_709 Column_710 Column_711 Column_712 Column_713 Column_714 Column_715 Column_716 Column_717 Column_718 Column_719 Column_720 Column_721 Column_722 Column_723 Column_724 Column_725 Column_726 Column_727 Column_728 Column_729 Column_730 Column_731 Column_732 Column_733 Column_734 Column_735 Column_736 Column_737 Column_738 Column_739 Column_740 Column_741 Column_742 Column_743 Column_744 Column_745 Column_746 Column_747 Column_748 Column_749 Column_750 Column_751 Column_752 Column_753 Column_754 Column_755 Column_756 Column_757 Column_758 Column_759 Column_760 Column_761 Column_762 Column_763 Column_764 Column_765 Column_766 Column_767 Column_768 Column_769 Column_770 Column_771 Column_772 Column_773 Column_774 Column_775 Column_776 Column_777 Column_778 Column_779 Column_780 Column_781 Column_782 Column_783 Column_784 Column_785 Column_786 Column_787 Column_788 Column_789 Column_790 Column_791 Column_792 Column_793 Column_794 Column_795 Column_796 Column_797 Column_798 Column_799 Column_800 Column_801 Column_802 Column_803 Column_804 Column_805 Column_806 Column_807 Column_808 Column_809 Column_810 Column_811 Column_812 Column_813 Column_814 Column_815 Column_816 Column_817 Column_818 Column_819 Column_820 Column_821 Column_822 Column_823 Column_824 Column_825 Column_826 Column_827 Column_828 Column_829 Column_830 Column_831 Column_832 Column_833 Column_834 Column_835 Column_836 Column_837 Column_838 Column_839 Column_840 Column_841 Column_842 Column_843 Column_844 Column_845 Column_846 Column_847 Column_848 Column_849 Column_850 Column_851 Column_852 Column_853 Column_854 Column_855 Column_856 Column_857 Column_858 Column_859 Column_860 Column_861 Column_862 Column_863 Column_864 Column_865 Column_866 Column_867 Column_868 Column_869 Column_870 Column_871 Column_872 Column_873 Column_874 Column_875 Column_876 Column_877 Column_878 Column_879 Column_880 Column_881 Column_882 Column_883 Column_884 Column_885 Column_886 Column_887 Column_888 Column_889 Column_890 Column_891 Column_892 Column_893 Column_894 Column_895 Column_896 Column_897 Column_898 Column_899 Column_900 Column_901 Column_902 Column_903 Column_904 Column_905 Column_906 Column_907 Column_908 Column_909 Column_910 Column_911 Column_912 Column_913 Column_914 Column_915 Column_916 Column_917 Column_918 Column_919 Column_920 Column_921 Column_922 Column_923 Column_924 Column_925 Column_926 Column_927 Column_928 Column_929 Column_930 Column_931 Column_932 Column_933 Column_934 Column_935 Column_936 Column_937 Column_938 Column_939 Column_940 Column_941 Column_942 Column_943 Column_944 Column_945 Column_946 Column_947 Column_948 Column_949 Column_950 Column_951 Column_952 Column_953 Column_954 Column_955 Column_956 Column_957 Column_958 Column_959 Column_960 Column_961 Column_962 Column_963 Column_964 Column_965 Column_966 Column_967 Column_968 Column_969 Column_970 Column_971 Column_972 Column_973 Column_974 Column_975 Column_976 Column_977 Column_978 Column_979 Column_980 Column_981 Column_982 Column_983 Column_984 Column_985 Column_986 Column_987 Column_988 Column_989 Column_990 Column_991 Column_992 Column_993 Column_994 Column_995 Column_996 Column_997 Column_998 Column_999 Column_1000 Column_1001 Column_1002 Column_1003 Column_1004 Column_1005 Column_1006 Column_1007 Column_1008 Column_1009 Column_1010 Column_1011 Column_1012 Column_1013 Column_1014 Column_1015 Column_1016 Column_1017 Column_1018 Column_1019 Column_1020 Column_1021 Column_1022 Column_1023 Column_1024 Column_1025 Column_1026 Column_1027 Column_1028 Column_1029 Column_1030 Column_1031 Column_1032 Column_1033 Column_1034 Column_1035 Column_1036 Column_1037 Column_1038 Column_1039 Column_1040 Column_1041 Column_1042 Column_1043 Column_1044 Column_1045 Column_1046 Column_1047 Column_1048 Column_1049 Column_1050 Column_1051 Column_1052 Column_1053 Column_1054 Column_1055 Column_1056 Column_1057 Column_1058 Column_1059 Column_1060 Column_1061 Column_1062 Column_1063 Column_1064 Column_1065 Column_1066 Column_1067 Column_1068 Column_1069 Column_1070 Column_1071 Column_1072 Column_1073 Column_1074 Column_1075 Column_1076 Column_1077 Column_1078 Column_1079 Column_1080 Column_1081 Column_1082 Column_1083 Column_1084 Column_1085 Column_1086 Column_1087 Column_1088 Column_1089 Column_1090 Column_1091 Column_1092 Column_1093 Column_1094 Column_1095 Column_1096 Column_1097 Column_1098 Column_1099 Column_1100 Column_1101 Column_1102 Column_1103 Column_1104 Column_1105 Column_1106 Column_1107 Column_1108 Column_1109 Column_1110 Column_1111 Column_1112 Column_1113 Column_1114 Column_1115 Column_1116 Column_1117 Column_1118 Column_1119 Column_1120 Column_1121 Column_1122 Column_1123 Column_1124 Column_1125 Column_1126 Column_1127 Column_1128 Column_1129 Column_1130 Column_1131 Column_1132 Column_1133 Column_1134 Column_1135 Column_1136 Column_1137 Column_1138 Column_1139 Column_1140 Column_1141 Column_1142 Column_1143 Column_1144 Column_1145 Column_1146 Column_1147 Column_1148 Column_1149 Column_1150 Column_1151 Column_1152 Column_1153 Column_1154 Column_1155 Column_1156 Column_1157 Column_1158 Column_1159 Column_1160 Column_1161 Column_1162 Column_1163 Column_1164 Column_1165 Column_1166 Column_1167 Column_1168 Column_1169 Column_1170 Column_1171 Column_1172 Column_1173 Column_1174 Column_1175 Column_1176 Column_1177 Column_1178 Column_1179 Column_1180 Column_1181 Column_1182 Column_1183 Column_1184 Column_1185 Column_1186 Column_1187 Column_1188 Column_1189 Column_1190 Column_1191 Column_1192 Column_1193 Column_1194 Column_1195 Column_1196 Column_1197 Column_1198 Column_1199 Column_1200 Column_1201 Column_1202 Column_1203 Column_1204 Column_1205 Column_1206 Column_1207 Column_1208 Column_1209 Column_1210 Column_1211 Column_1212 Column_1213 Column_1214 Column_1215 Column_1216 Column_1217 Column_1218 Column_1219 Column_1220 Column_1221 Column_1222 Column_1223 Column_1224 Column_1225 Column_1226 Column_1227 Column_1228 Column_1229 Column_1230 Column_1231 Column_1232 Column_1233 Column_1234 Column_1235 Column_1236 Column_1237 Column_1238 Column_1239 Column_1240 Column_1241 Column_1242 Column_1243 Column_1244 Column_1245 Column_1246 Column_1247 Column_1248 Column_1249 Column_1250 Column_1251 Column_1252 Column_1253 Column_1254 Column_1255 Column_1256 Column_1257 Column_1258 Column_1259 Column_1260 Column_1261 Column_1262 Column_1263 Column_1264 Column_1265 Column_1266 Column_1267 Column_1268 Column_1269 Column_1270 Column_1271 Column_1272 Column_1273 Column_1274 Column_1275 Column_1276 Column_1277 Column_1278 Column_1279 Column_1280 Column_1281 Column_1282 Column_1283 Column_1284 Column_1285 Column_1286 Column_1287 Column_1288 Column_1289 Column_1290 Column_1291 Column_1292 Column_1293 Column_1294 Column_1295 Column_1296 Column_1297 Column_1298 Column_1299 Column_1300 Column_1301 Column_1302 Column_1303 Column_1304 Column_1305 Column_1306 Column_1307 Column_1308 Column_1309 Column_1310 Column_1311 Column_1312 Column_1313 Column_1314 Column_1315 Column_1316 Column_1317 Column_1318 Column_1319 Column_1320 Column_1321 Column_1322 Column_1323 Column_1324 Column_1325 Column_1326 Column_1327 Column_1328 Column_1329 Column_1330 Column_1331 Column_1332 Column_1333 Column_1334 Column_1335 Column_1336 Column_1337 Column_1338 Column_1339 Column_1340 Column_1341 Column_1342 Column_1343 Column_1344 Column_1345 Column_1346 Column_1347 Column_1348 Column_1349 Column_1350 Column_1351 Column_1352 Column_1353 Column_1354 Column_1355 Column_1356 Column_1357 Column_1358 Column_1359 Column_1360 Column_1361 Column_1362 Column_1363 Column_1364 Column_1365 Column_1366 Column_1367 Column_1368 Column_1369 Column_1370 Column_1371 Column_1372 Column_1373 Column_1374 Column_1375 Column_1376 Column_1377 Column_1378 Column_1379 Column_1380 Column_1381 Column_1382 Column_1383 Column_1384 Column_1385 Column_1386 Column_1387 Column_1388 Column_1389 Column_1390 Column_1391 Column_1392 Column_1393 Column_1394 Column_1395 Column_1396 Column_1397 Column_1398 Column_1399 Column_1400 Column_1401 Column_1402 Column_1403 Column_1404 Column_1405 Column_1406 Column_1407 Column_1408 Column_1409 Column_1410 Column_1411 Column_1412 Column_1413 Column_1414 Column_1415 Column_1416 Column_1417 Column_1418 Column_1419 Column_1420 Column_1421 Column_1422 Column_1423 Column_1424 Column_1425 Column_1426 Column_1427 Column_1428 Column_1429 Column_1430 Column_1431 Column_1432 Column_1433 Column_1434 Column_1435 Column_1436 Column_1437 Column_1438 Column_1439 Column_1440 Column_1441 Column_1442 Column_1443 Column_1444 Column_1445 Column_1446 Column_1447 Column_1448 Column_1449 Column_1450 Column_1451 Column_1452 Column_1453 Column_1454 Column_1455 Column_1456 Column_1457 Column_1458 Column_1459 Column_1460 Column_1461 Column_1462 Column_1463 Column_1464 Column_1465 Column_1466 Column_1467 Column_1468 Column_1469 Column_1470 Column_1471 Column_1472 Column_1473 Column_1474 Column_1475 Column_1476 Column_1477 Column_1478 Column_1479 Column_1480 Column_1481 Column_1482 Column_1483 Column_1484 Column_1485 Column_1486 Column_1487 Column_1488 Column_1489 Column_1490 Column_1491 Column_1492 Column_1493 Column_1494 Column_1495 Column_1496 Column_1497 Column_1498 Column_1499 Column_1500 Column_1501 Column_1502 Column_1503 Column_1504 Column_1505 Column_1506 Column_1507 Column_1508 Column_1509 Column_1510 Column_1511 Column_1512 Column_1513 Column_1514 Column_1515 Column_1516 Column_1517 Column_1518 Column_1519 Column_1520 Column_1521 Column_1522 Column_1523 Column_1524 Column_1525 Column_1526 Column_1527 Column_1528 Column_1529 Column_1530 Column_1531 Column_1532 Column_1533 Column_1534 Column_1535 Column_1536 Column_1537 Column_1538 Column_1539 Column_1540 Column_1541 Column_1542 Column_1543 Column_1544 Column_1545 Column_1546 Column_1547 Column_1548 Column_1549 Column_1550 Column_1551 Column_1552 Column_1553 Column_1554 Column_1555 Column_1556 Column_1557 Column_1558 Column_1559 Column_1560 Column_1561 Column_1562 Column_1563 Column_1564 Column_1565 Column_1566 Column_1567 Column_1568 Column_1569 Column_1570 Column_1571 Column_1572 Column_1573 Column_1574 Column_1575 Column_1576 Column_1577 Column_1578 Column_1579 Column_1580 Column_1581 Column_1582 Column_1583 Column_1584 Column_1585 Column_1586 Column_1587 Column_1588 Column_1589 Column_1590 Column_1591 Column_1592 Column_1593 Column_1594 Column_1595 Column_1596 Column_1597 Column_1598 Column_1599 Column_1600 Column_1601 Column_1602 Column_1603 Column_1604 Column_1605 Column_1606 Column_1607 Column_1608 Column_1609 Column_1610 Column_1611 Column_1612 Column_1613 Column_1614 Column_1615 Column_1616 Column_1617 Column_1618 Column_1619 Column_1620 Column_1621 Column_1622 Column_1623 Column_1624 Column_1625 Column_1626 Column_1627 Column_1628 Column_1629 Column_1630 Column_1631 Column_1632 Column_1633 Column_1634 Column_1635 Column_1636 Column_1637 Column_1638 Column_1639 Column_1640 Column_1641 Column_1642 Column_1643 Column_1644 Column_1645 Column_1646 Column_1647 Column_1648 Column_1649 Column_1650 Column_1651 Column_1652 Column_1653 Column_1654 Column_1655 Column_1656 Column_1657 Column_1658 Column_1659 Column_1660 Column_1661 Column_1662 Column_1663 Column_1664 Column_1665 Column_1666 Column_1667 Column_1668 Column_1669 Column_1670 Column_1671 Column_1672 Column_1673 Column_1674 Column_1675 Column_1676 Column_1677 Column_1678 Column_1679 Column_1680 Column_1681 Column_1682 Column_1683 Column_1684 Column_1685 Column_1686 Column_1687 Column_1688 Column_1689 Column_1690 Column_1691 Column_1692 Column_1693 Column_1694 Column_1695 Column_1696 Column_1697 Column_1698 Column_1699 Column_1700 Column_1701 Column_1702 Column_1703 Column_1704 Column_1705 Column_1706 Column_1707 Column_1708 Column_1709 Column_1710 Column_1711 Column_1712 Column_1713 Column_1714 Column_1715 Column_1716 Column_1717 Column_1718 Column_1719 Column_1720 Column_1721 Column_1722 Column_1723 Column_1724 Column_1725 Column_1726 Column_1727 Column_1728 Column_1729 Column_1730 Column_1731 Column_1732 Column_1733 Column_1734 Column_1735 Column_1736 Column_1737 Column_1738 Column_1739 Column_1740 Column_1741 Column_1742 Column_1743 Column_1744 Column_1745 Column_1746 Column_1747 Column_1748 Column_1749 Column_1750 Column_1751 Column_1752 Column_1753 Column_1754 Column_1755 Column_1756 Column_1757 Column_1758 Column_1759 Column_1760 Column_1761 Column_1762 Column_1763 Column_1764 Column_1765 Column_1766 Column_1767 Column_1768 Column_1769 Column_1770 Column_1771 Column_1772 Column_1773 Column_1774 Column_1775 Column_1776 Column_1777 Column_1778 Column_1779 Column_1780 Column_1781 Column_1782 Column_1783 Column_1784 Column_1785 Column_1786 Column_1787 Column_1788 Column_1789 Column_1790 Column_1791 Column_1792 Column_1793 Column_1794 Column_1795 Column_1796 Column_1797 Column_1798 Column_1799 Column_1800 Column_1801 Column_1802 Column_1803 Column_1804 Column_1805 Column_1806 Column_1807 Column_1808 Column_1809 Column_1810 Column_1811 Column_1812 Column_1813 Column_1814 Column_1815 Column_1816 Column_1817 Column_1818 Column_1819 Column_1820 Column_1821 Column_1822 Column_1823 Column_1824 Column_1825 Column_1826 Column_1827 Column_1828 Column_1829 Column_1830 Column_1831 Column_1832 Column_1833 Column_1834 Column_1835 Column_1836 Column_1837 Column_1838 Column_1839 Column_1840 Column_1841 Column_1842 Column_1843 Column_1844 Column_1845 Column_1846 Column_1847 Column_1848 Column_1849 Column_1850 Column_1851 Column_1852 Column_1853 Column_1854 Column_1855 Column_1856 Column_1857 Column_1858 Column_1859 Column_1860 Column_1861 Column_1862 Column_1863 Column_1864 Column_1865 Column_1866 Column_1867 Column_1868 Column_1869 Column_1870 Column_1871 Column_1872 Column_1873 Column_1874 Column_1875 Column_1876 Column_1877 Column_1878 Column_1879 Column_1880 Column_1881 Column_1882 Column_1883 Column_1884 Column_1885 Column_1886 Column_1887 Column_1888 Column_1889 Column_1890 Column_1891 Column_1892 Column_1893 Column_1894 Column_1895 Column_1896 Column_1897 Column_1898 Column_1899 Column_1900 Column_1901 Column_1902 Column_1903 Column_1904 Column_1905 Column_1906 Column_1907 Column_1908 Column_1909 Column_1910 Column_1911 Column_1912 Column_1913 Column_1914 Column_1915 Column_1916 Column_1917 Column_1918 Column_1919 Column_1920 Column_1921 Column_1922 Column_1923 Column_1924 Column_1925 Column_1926 Column_1927 Column_1928 Column_1929 Column_1930 Column_1931 Column_1932 Column_1933 Column_1934 Column_1935 Column_1936 Column_1937 Column_1938 Column_1939 Column_1940 Column_1941 Column_1942 Column_1943 Column_1944 Column_1945 Column_1946 Column_1947 Column_1948 Column_1949 Column_1950 Column_1951 Column_1952 Column_1953 Column_1954 Column_1955 Column_1956 Column_1957 Column_1958 Column_1959 Column_1960 Column_1961 Column_1962 Column_1963 Column_1964 Column_1965 Column_1966 Column_1967 Column_1968 Column_1969 Column_1970 Column_1971 Column_1972 Column_1973 Column_1974 Column_1975 Column_1976 Column_1977 Column_1978 Column_1979 Column_1980 Column_1981 Column_1982 Column_1983 Column_1984 Column_1985 Column_1986 Column_1987 Column_1988 Column_1989 Column_1990 Column_1991 Column_1992 Column_1993 Column_1994 Column_1995 Column_1996 Column_1997 Column_1998 Column_1999 Column_2000 Column_2001 Column_2002 Column_2003 Column_2004 Column_2005 Column_2006 Column_2007 Column_2008 Column_2009 Column_2010 Column_2011 Column_2012 Column_2013 Column_2014 Column_2015 Column_2016 Column_2017 Column_2018 Column_2019 Column_2020 Column_2021 Column_2022 Column_2023 Column_2024 Column_2025 Column_2026 Column_2027 Column_2028 Column_2029 Column_2030 Column_2031 Column_2032 Column_2033 Column_2034 Column_2035 Column_2036 Column_2037 Column_2038 Column_2039 Column_2040 Column_2041 Column_2042 Column_2043 Column_2044 Column_2045 Column_2046 Column_2047 Column_2048 Column_2049 Column_2050 Column_2051 Column_2052 Column_2053 Column_2054 Column_2055 Column_2056 Column_2057 Column_2058 Column_2059 Column_2060 Column_2061 Column_2062 Column_2063 Column_2064 Column_2065 Column_2066 Column_2067 Column_2068 Column_2069 Column_2070 Column_2071 Column_2072 Column_2073 Column_2074 Column_2075 Column_2076 Column_2077 Column_2078 Column_2079 Column_2080 Column_2081 Column_2082 Column_2083 Column_2084 Column_2085 Column_2086 Column_2087 Column_2088 Column_2089 Column_2090 Column_2091 Column_2092 Column_2093 Column_2094 Column_2095 Column_2096 Column_2097 Column_2098 Column_2099 Column_2100 Column_2101 Column_2102 Column_2103 Column_2104 Column_2105 Column_2106 Column_2107 Column_2108 Column_2109 Column_2110 Column_2111 Column_2112 Column_2113 Column_2114 Column_2115 Column_2116 Column_2117 Column_2118 Column_2119 Column_2120 Column_2121 Column_2122 Column_2123 Column_2124 Column_2125 Column_2126 Column_2127 Column_2128 Column_2129 Column_2130 Column_2131 Column_2132 Column_2133 Column_2134 Column_2135 Column_2136 Column_2137 Column_2138 Column_2139 Column_2140 Column_2141 Column_2142 Column_2143 Column_2144 Column_2145 Column_2146 Column_2147 Column_2148 Column_2149 Column_2150 Column_2151 Column_2152 Column_2153 Column_2154 Column_2155 Column_2156 Column_2157 Column_2158 Column_2159 Column_2160 Column_2161 Column_2162 Column_2163 Column_2164 Column_2165 Column_2166 Column_2167 Column_2168 Column_2169 Column_2170 Column_2171 Column_2172 Column_2173 Column_2174 Column_2175 Column_2176 Column_2177 Column_2178 Column_2179 Column_2180 Column_2181 Column_2182 Column_2183 Column_2184 Column_2185 Column_2186 Column_2187 Column_2188 Column_2189 Column_2190 Column_2191 Column_2192 Column_2193 Column_2194 Column_2195 Column_2196 Column_2197 Column_2198 Column_2199 Column_2200 Column_2201 Column_2202 Column_2203 Column_2204 Column_2205 Column_2206 Column_2207 Column_2208 Column_2209 Column_2210 Column_2211 Column_2212 Column_2213 Column_2214 Column_2215 Column_2216 Column_2217 Column_2218 Column_2219 Column_2220 Column_2221 Column_2222 Column_2223 Column_2224 Column_2225 Column_2226 Column_2227 Column_2228 Column_2229 Column_2230 Column_2231 Column_2232 Column_2233 Column_2234 Column_2235 Column_2236 Column_2237 Column_2238 Column_2239 Column_2240 Column_2241 Column_2242 Column_2243 Column_2244 Column_2245 Column_2246 Column_2247 Column_2248 Column_2249 Column_2250 Column_2251 Column_2252 Column_2253 Column_2254 Column_2255 Column_2256 Column_2257 Column_2258 Column_2259 Column_2260 Column_2261 Column_2262 Column_2263 Column_2264 Column_2265 Column_2266 Column_2267 Column_2268 Column_2269 Column_2270 Column_2271 Column_2272 Column_2273 Column_2274 Column_2275 Column_2276 Column_2277 Column_2278 Column_2279 Column_2280 Column_2281 Column_2282 Column_2283 Column_2284 Column_2285 Column_2286 Column_2287 Column_2288 Column_2289 Column_2290 Column_2291 Column_2292 Column_2293 Column_2294 Column_2295 Column_2296 Column_2297 Column_2298 Column_2299 Column_2300 Column_2301 Column_2302 Column_2303 Column_2304 Column_2305 Column_2306 Column_2307 Column_2308 Column_2309 Column_2310 Column_2311 Column_2312 Column_2313 Column_2314 Column_2315 Column_2316 Column_2317 Column_2318 Column_2319 Column_2320 Column_2321 Column_2322 Column_2323 Column_2324 Column_2325 Column_2326 Column_2327 Column_2328 Column_2329 Column_2330 Column_2331 Column_2332 Column_2333 Column_2334 Column_2335 Column_2336 Column_2337 Column_2338 Column_2339 Column_2340 Column_2341 Column_2342 Column_2343 Column_2344 Column_2345 Column_2346 Column_2347 Column_2348 Column_2349 Column_2350 Column_2351 Column_2352 Column_2353 Column_2354 Column_2355 Column_2356 Column_2357 Column_2358 Column_2359 Column_2360 Column_2361 Column_2362 Column_2363 Column_2364 Column_2365 Column_2366 Column_2367 Column_2368 Column_2369 Column_2370 Column_2371 Column_2372 Column_2373 Column_2374 Column_2375 Column_2376 Column_2377 Column_2378 Column_2379 Column_2380 Column_2381 Column_2382 Column_2383 Column_2384 Column_2385 Column_2386 Column_2387 Column_2388 Column_2389 Column_2390 Column_2391 Column_2392 Column_2393 Column_2394 Column_2395 Column_2396 Column_2397 Column_2398 Column_2399 Column_2400 Column_2401 Column_2402 Column_2403 Column_2404 Column_2405 Column_2406 Column_2407 Column_2408 Column_2409 Column_2410 Column_2411 Column_2412 Column_2413 Column_2414 Column_2415 Column_2416 Column_2417 Column_2418 Column_2419 Column_2420 Column_2421 Column_2422 Column_2423 Column_2424 Column_2425 Column_2426 Column_2427 Column_2428 Column_2429 Column_2430 Column_2431 Column_2432 Column_2433 Column_2434 Column_2435 Column_2436 Column_2437 Column_2438 Column_2439 Column_2440 Column_2441 Column_2442 Column_2443 Column_2444 Column_2445 Column_2446 Column_2447 Column_2448 Column_2449 Column_2450 Column_2451 Column_2452 Column_2453 Column_2454 Column_2455 Column_2456 Column_2457 Column_2458 Column_2459 Column_2460 Column_2461 Column_2462 Column_2463 Column_2464 Column_2465 Column_2466 Column_2467 Column_2468 Column_2469 Column_2470 Column_2471 Column_2472 Column_2473 Column_2474 Column_2475 Column_2476 Column_2477 Column_2478 Column_2479 Column_2480 Column_2481 Column_2482 Column_2483 Column_2484 Column_2485 Column_2486 Column_2487 Column_2488 Column_2489 Column_2490 Column_2491 Column_2492 Column_2493 Column_2494 Column_2495 Column_2496 Column_2497 Column_2498 Column_2499 Column_2500 Column_2501 Column_2502 Column_2503 Column_2504 Column_2505 Column_2506 Column_2507 Column_2508 Column_2509 Column_2510 Column_2511 Column_2512 Column_2513 Column_2514 Column_2515 Column_2516 Column_2517 Column_2518 Column_2519 Column_2520 Column_2521 Column_2522 Column_2523 Column_2524 Column_2525 Column_2526 Column_2527 Column_2528 Column_2529 Column_2530 Column_2531 Column_2532 Column_2533 Column_2534 Column_2535 Column_2536 Column_2537 Column_2538 Column_2539 Column_2540 Column_2541 Column_2542 Column_2543 Column_2544 Column_2545 Column_2546 Column_2547 Column_2548 Column_2549 Column_2550 Column_2551 Column_2552 Column_2553 Column_2554 Column_2555 Column_2556 Column_2557 Column_2558 Column_2559 Column_2560 Column_2561 Column_2562 Column_2563 Column_2564 Column_2565 Column_2566 Column_2567 Column_2568 Column_2569 Column_2570 Column_2571 Column_2572 Column_2573 Column_2574 Column_2575 Column_2576 Column_2577 Column_2578 Column_2579 Column_2580 Column_2581 Column_2582 Column_2583 Column_2584 Column_2585 Column_2586 Column_2587 Column_2588 Column_2589 Column_2590 Column_2591 Column_2592 Column_2593 Column_2594 Column_2595 Column_2596 Column_2597 Column_2598 Column_2599 Column_2600 Column_2601 Column_2602 Column_2603 Column_2604 Column_2605 Column_2606 Column_2607 Column_2608 Column_2609 Column_2610 Column_2611 Column_2612 Column_2613 Column_2614 Column_2615 Column_2616 Column_2617 Column_2618 Column_2619 Column_2620 Column_2621 Column_2622 Column_2623 Column_2624 Column_2625 Column_2626 Column_2627 Column_2628 Column_2629 Column_2630 Column_2631 Column_2632 Column_2633 Column_2634 Column_2635 Column_2636 Column_2637 Column_2638 Column_2639 Column_2640 Column_2641 Column_2642 Column_2643 Column_2644 Column_2645 Column_2646 Column_2647 Column_2648 Column_2649 Column_2650 Column_2651 Column_2652 Column_2653 Column_2654 Column_2655 Column_2656 Column_2657 Column_2658 Column_2659 Column_2660 Column_2661 Column_2662 Column_2663 Column_2664 Column_2665 Column_2666 Column_2667 Column_2668 Column_2669 Column_2670 Column_2671 Column_2672 Column_2673 Column_2674 Column_2675 Column_2676 Column_2677 Column_2678 Column_2679 Column_2680 Column_2681 Column_2682 Column_2683 Column_2684 Column_2685 Column_2686 Column_2687 Column_2688 Column_2689 Column_2690 Column_2691 Column_2692 Column_2693 Column_2694 Column_2695 Column_2696 Column_2697 Column_2698 Column_2699 Column_2700 Column_2701 Column_2702 Column_2703 Column_2704 Column_2705 Column_2706 Column_2707 Column_2708 Column_2709 Column_2710 Column_2711 Column_2712 Column_2713 Column_2714 Column_2715 Column_2716 Column_2717 Column_2718 Column_2719 Column_2720 Column_2721 Column_2722 Column_2723 Column_2724 Column_2725 Column_2726 Column_2727 Column_2728 Column_2729 Column_2730 Column_2731 Column_2732 Column_2733 Column_2734 Column_2735 Column_2736 Column_2737 Column_2738 Column_2739 Column_2740 Column_2741 Column_2742 Column_2743 Column_2744 Column_2745 Column_2746 Column_2747 Column_2748 Column_2749 Column_2750 Column_2751 Column_2752 Column_2753 Column_2754 Column_2755 Column_2756 Column_2757 Column_2758 Column_2759 Column_2760 Column_2761 Column_2762 Column_2763 Column_2764 Column_2765 Column_2766 Column_2767 Column_2768 Column_2769 Column_2770 Column_2771 Column_2772 Column_2773 Column_2774 Column_2775 Column_2776 Column_2777 Column_2778 Column_2779 Column_2780 Column_2781 Column_2782 Column_2783 Column_2784 Column_2785 Column_2786 Column_2787 Column_2788 Column_2789 Column_2790 Column_2791 Column_2792 Column_2793 Column_2794 Column_2795 Column_2796 Column_2797 Column_2798 Column_2799 Column_2800 Column_2801 Column_2802 Column_2803 Column_2804 Column_2805 Column_2806 Column_2807 Column_2808 Column_2809 Column_2810 Column_2811 Column_2812 Column_2813 Column_2814 Column_2815 Column_2816 Column_2817 Column_2818 Column_2819 Column_2820 Column_2821 Column_2822 Column_2823 Column_2824 Column_2825 Column_2826 Column_2827 Column_2828 Column_2829 Column_2830 Column_2831 Column_2832 Column_2833 Column_2834 Column_2835 Column_2836 Column_2837 Column_2838 Column_2839 Column_2840 Column_2841 Column_2842 Column_2843 Column_2844 Column_2845 Column_2846 Column_2847 Column_2848 Column_2849 Column_2850 Column_2851 Column_2852 Column_2853 Column_2854 Column_2855 Column_2856 Column_2857 Column_2858 Column_2859 Column_2860 Column_2861 Column_2862 Column_2863 Column_2864 Column_2865 Column_2866 Column_2867 Column_2868 Column_2869 Column_2870 Column_2871 Column_2872 Column_2873 Column_2874 Column_2875 Column_2876 Column_2877 Column_2878 Column_2879 Column_2880 Column_2881 Column_2882 Column_2883 Column_2884 Column_2885 Column_2886 Column_2887 Column_2888 Column_2889 Column_2890 Column_2891 Column_2892 Column_2893 Column_2894 Column_2895 Column_2896 Column_2897 Column_2898 Column_2899 Column_2900 Column_2901 Column_2902 Column_2903 Column_2904 Column_2905 Column_2906 Column_2907 Column_2908 Column_2909 Column_2910 Column_2911 Column_2912 Column_2913 Column_2914 Column_2915 Column_2916 Column_2917 Column_2918 Column_2919 Column_2920 Column_2921 Column_2922 Column_2923 Column_2924 Column_2925 Column_2926 Column_2927 Column_2928 Column_2929 Column_2930 Column_2931 Column_2932 Column_2933 Column_2934 Column_2935 Column_2936 Column_2937 Column_2938 Column_2939 Column_2940 Column_2941 Column_2942 Column_2943 Column_2944 Column_2945 Column_2946 Column_2947 Column_2948 Column_2949 Column_2950 Column_2951 Column_2952 Column_2953 Column_2954 Column_2955 Column_2956 Column_2957 Column_2958 Column_2959 Column_2960 Column_2961 Column_2962 Column_2963 Column_2964 Column_2965 Column_2966 Column_2967 Column_2968 Column_2969 Column_2970 Column_2971 Column_2972 Column_2973 Column_2974 Column_2975 Column_2976 Column_2977 Column_2978 Column_2979 Column_2980 Column_2981 Column_2982 Column_2983 Column_2984 Column_2985 Column_2986 Column_2987 Column_2988 Column_2989 Column_2990 Column_2991 Column_2992 Column_2993 Column_2994 Column_2995 Column_2996 Column_2997 Column_2998 Column_2999 Column_3000 Column_3001 Column_3002 Column_3003 Column_3004 Column_3005 Column_3006 Column_3007 Column_3008 Column_3009 Column_3010 Column_3011 Column_3012 Column_3013 Column_3014 Column_3015 Column_3016 Column_3017 Column_3018 Column_3019 Column_3020 Column_3021 Column_3022 Column_3023 Column_3024 Column_3025 Column_3026 Column_3027 Column_3028 Column_3029 Column_3030 Column_3031 Column_3032 Column_3033 Column_3034 Column_3035 Column_3036 Column_3037 Column_3038 Column_3039 Column_3040 Column_3041 Column_3042 Column_3043 Column_3044 Column_3045 Column_3046 Column_3047 Column_3048 Column_3049 Column_3050 Column_3051 Column_3052 Column_3053 Column_3054 Column_3055 Column_3056 Column_3057 Column_3058 Column_3059 Column_3060 Column_3061 Column_3062 Column_3063 Column_3064 Column_3065 Column_3066 Column_3067 Column_3068 Column_3069 Column_3070 Column_3071 Column_3072 Column_3073 Column_3074 Column_3075 Column_3076 Column_3077 Column_3078 Column_3079 Column_3080 Column_3081 Column_3082 Column_3083 Column_3084 Column_3085 Column_3086 Column_3087 Column_3088 Column_3089 Column_3090 Column_3091 Column_3092 Column_3093 Column_3094 Column_3095 Column_3096 Column_3097 Column_3098 Column_3099 Column_3100 Column_3101 Column_3102 Column_3103 Column_3104 Column_3105 Column_3106 Column_3107 Column_3108 Column_3109 Column_3110 Column_3111 Column_3112 Column_3113 Column_3114 Column_3115 Column_3116 Column_3117 Column_3118 Column_3119 Column_3120 Column_3121 Column_3122 Column_3123 Column_3124 Column_3125 Column_3126 Column_3127 Column_3128 Column_3129 Column_3130 Column_3131 Column_3132 Column_3133 Column_3134 Column_3135 Column_3136 Column_3137 Column_3138 Column_3139 Column_3140 Column_3141 Column_3142 Column_3143 Column_3144 Column_3145 Column_3146 Column_3147 Column_3148 Column_3149 Column_3150 Column_3151 Column_3152 Column_3153 Column_3154 Column_3155 Column_3156 Column_3157 Column_3158 Column_3159 Column_3160 Column_3161 Column_3162 Column_3163 Column_3164 Column_3165 Column_3166 Column_3167 Column_3168 Column_3169 Column_3170 Column_3171 Column_3172 Column_3173 Column_3174 Column_3175 Column_3176 Column_3177 Column_3178 Column_3179 Column_3180 Column_3181 Column_3182 Column_3183 Column_3184 Column_3185 Column_3186 Column_3187 Column_3188 Column_3189 Column_3190 Column_3191 Column_3192 Column_3193 Column_3194 Column_3195 Column_3196 Column_3197 Column_3198 Column_3199 Column_3200 Column_3201 Column_3202 Column_3203 Column_3204 Column_3205 Column_3206 Column_3207 Column_3208 Column_3209 Column_3210 Column_3211 Column_3212 Column_3213 Column_3214 Column_3215 Column_3216 Column_3217 Column_3218 Column_3219 Column_3220 Column_3221 Column_3222 Column_3223 Column_3224 Column_3225 Column_3226 Column_3227 Column_3228 Column_3229 Column_3230 Column_3231 Column_3232 Column_3233 Column_3234 Column_3235 Column_3236 Column_3237 Column_3238 Column_3239 Column_3240 Column_3241 Column_3242 Column_3243 Column_3244 Column_3245 Column_3246 Column_3247 Column_3248 Column_3249 Column_3250 Column_3251 Column_3252 Column_3253 Column_3254 Column_3255 Column_3256 Column_3257 Column_3258 Column_3259 Column_3260 Column_3261 Column_3262 Column_3263 Column_3264 Column_3265 Column_3266 Column_3267 Column_3268 Column_3269 Column_3270 Column_3271 Column_3272 Column_3273 Column_3274 Column_3275 Column_3276 Column_3277 Column_3278 Column_3279 Column_3280 Column_3281 Column_3282 Column_3283 Column_3284 Column_3285 Column_3286 Column_3287 Column_3288 Column_3289 Column_3290 Column_3291 Column_3292 Column_3293 Column_3294 Column_3295 Column_3296 Column_3297 Column_3298 Column_3299 Column_3300 Column_3301 Column_3302 Column_3303 Column_3304 Column_3305 Column_3306 Column_3307 Column_3308 Column_3309 Column_3310 Column_3311 Column_3312 Column_3313 Column_3314 Column_3315 Column_3316 Column_3317 Column_3318 Column_3319 Column_3320 Column_3321 Column_3322 Column_3323 Column_3324 Column_3325 Column_3326 Column_3327 Column_3328 Column_3329 Column_3330 Column_3331 Column_3332 Column_3333 Column_3334 Column_3335 Column_3336 Column_3337 Column_3338 Column_3339 Column_3340 Column_3341 Column_3342 Column_3343 Column_3344 Column_3345 Column_3346 Column_3347 Column_3348 Column_3349 Column_3350 Column_3351 Column_3352 Column_3353 Column_3354 Column_3355 Column_3356 Column_3357 Column_3358 Column_3359 Column_3360 Column_3361 Column_3362 Column_3363 Column_3364 Column_3365 Column_3366 Column_3367 Column_3368 Column_3369 Column_3370 Column_3371 Column_3372 Column_3373 Column_3374 Column_3375 Column_3376 Column_3377 Column_3378 Column_3379 Column_3380 Column_3381 Column_3382 Column_3383 Column_3384 Column_3385 Column_3386 Column_3387 Column_3388 Column_3389 Column_3390 Column_3391 Column_3392 Column_3393 Column_3394 Column_3395 Column_3396 Column_3397 Column_3398 Column_3399 Column_3400 Column_3401 Column_3402 Column_3403 Column_3404 Column_3405 Column_3406 Column_3407 Column_3408 Column_3409 Column_3410 Column_3411 Column_3412 Column_3413 Column_3414 Column_3415 Column_3416 Column_3417 Column_3418 Column_3419 Column_3420 Column_3421 Column_3422 Column_3423 Column_3424 Column_3425 Column_3426 Column_3427 Column_3428 Column_3429 Column_3430 Column_3431 Column_3432 Column_3433 Column_3434 Column_3435 Column_3436 Column_3437 Column_3438 Column_3439 Column_3440 Column_3441 Column_3442 Column_3443 Column_3444 Column_3445 Column_3446 Column_3447 Column_3448 Column_3449 Column_3450 Column_3451 Column_3452 Column_3453 Column_3454 Column_3455 Column_3456 Column_3457 Column_3458 Column_3459 Column_3460 Column_3461 Column_3462 Column_3463 Column_3464 Column_3465 Column_3466 Column_3467 Column_3468 Column_3469 Column_3470 Column_3471 Column_3472 Column_3473 Column_3474 Column_3475 Column_3476 Column_3477 Column_3478 Column_3479 Column_3480 Column_3481 Column_3482 Column_3483 Column_3484 Column_3485 Column_3486 Column_3487 Column_3488 Column_3489 Column_3490 Column_3491 Column_3492 Column_3493 Column_3494 Column_3495 Column_3496 Column_3497 Column_3498 Column_3499 Column_3500 Column_3501 Column_3502 Column_3503 Column_3504 Column_3505 Column_3506 Column_3507 Column_3508 Column_3509 Column_3510 Column_3511 Column_3512 Column_3513 Column_3514 Column_3515 Column_3516 Column_3517 Column_3518 Column_3519 Column_3520 Column_3521 Column_3522 Column_3523 Column_3524 Column_3525 Column_3526 Column_3527 Column_3528 Column_3529 Column_3530 Column_3531 Column_3532 Column_3533 Column_3534 Column_3535 Column_3536 Column_3537 Column_3538 Column_3539 Column_3540 Column_3541 Column_3542 Column_3543 Column_3544 Column_3545 Column_3546 Column_3547 Column_3548 Column_3549 Column_3550 Column_3551 Column_3552 Column_3553 Column_3554 Column_3555 Column_3556 Column_3557 Column_3558 Column_3559 Column_3560 Column_3561 Column_3562 Column_3563 Column_3564 Column_3565 Column_3566 Column_3567 Column_3568 Column_3569 Column_3570 Column_3571 Column_3572 Column_3573 Column_3574 Column_3575 Column_3576 Column_3577 Column_3578 Column_3579 Column_3580 Column_3581 Column_3582 Column_3583 Column_3584 Column_3585 Column_3586 Column_3587 Column_3588 Column_3589 Column_3590 Column_3591 Column_3592 Column_3593 Column_3594 Column_3595 Column_3596 Column_3597 Column_3598 Column_3599 Column_3600 Column_3601 Column_3602 Column_3603 Column_3604 Column_3605 Column_3606 Column_3607 Column_3608 Column_3609 Column_3610 Column_3611 Column_3612 Column_3613 Column_3614 Column_3615 Column_3616 Column_3617 Column_3618 Column_3619 Column_3620 Column_3621 Column_3622 Column_3623 Column_3624 Column_3625 Column_3626 Column_3627 Column_3628 Column_3629 Column_3630 Column_3631 Column_3632 Column_3633 Column_3634 Column_3635 Column_3636 Column_3637 Column_3638 Column_3639 Column_3640 Column_3641 Column_3642 Column_3643 Column_3644 Column_3645 Column_3646 Column_3647 Column_3648 Column_3649 Column_3650 Column_3651 Column_3652 Column_3653 Column_3654 Column_3655 Column_3656 Column_3657 Column_3658 Column_3659 Column_3660 Column_3661 Column_3662 Column_3663 Column_3664 Column_3665 Column_3666 Column_3667 Column_3668 Column_3669 Column_3670 Column_3671 Column_3672 Column_3673 Column_3674 Column_3675 Column_3676 Column_3677 Column_3678 Column_3679 Column_3680 Column_3681 Column_3682 Column_3683 Column_3684 Column_3685 Column_3686 Column_3687 Column_3688 Column_3689 Column_3690 Column_3691 Column_3692 Column_3693 Column_3694 Column_3695 Column_3696 Column_3697 Column_3698 Column_3699 Column_3700 Column_3701 Column_3702 Column_3703 Column_3704 Column_3705 Column_3706 Column_3707 Column_3708 Column_3709 Column_3710 Column_3711 Column_3712 Column_3713 Column_3714 Column_3715 Column_3716 Column_3717 Column_3718 Column_3719 Column_3720 Column_3721 Column_3722 Column_3723 Column_3724 Column_3725 Column_3726 Column_3727 Column_3728 Column_3729 Column_3730 Column_3731 Column_3732 Column_3733 Column_3734 Column_3735 Column_3736 Column_3737 Column_3738 Column_3739 Column_3740 Column_3741 Column_3742 Column_3743 Column_3744 Column_3745 Column_3746 Column_3747 Column_3748 Column_3749 Column_3750 Column_3751 Column_3752 Column_3753 Column_3754 Column_3755 Column_3756 Column_3757 Column_3758 Column_3759 Column_3760 Column_3761 Column_3762 Column_3763 Column_3764 Column_3765 Column_3766 Column_3767 Column_3768 Column_3769 Column_3770 Column_3771 Column_3772 Column_3773 Column_3774 Column_3775 Column_3776 Column_3777 Column_3778 Column_3779 Column_3780 Column_3781 Column_3782 Column_3783 Column_3784 Column_3785 Column_3786 Column_3787 Column_3788 Column_3789 Column_3790 Column_3791 Column_3792 Column_3793 Column_3794 Column_3795 Column_3796 Column_3797 Column_3798 Column_3799 Column_3800 Column_3801 Column_3802 Column_3803 Column_3804 Column_3805 Column_3806 Column_3807 Column_3808 Column_3809 Column_3810 Column_3811 Column_3812 Column_3813 Column_3814 Column_3815 Column_3816 Column_3817 Column_3818 Column_3819 Column_3820 Column_3821 Column_3822 Column_3823 Column_3824 Column_3825 Column_3826 Column_3827 Column_3828 Column_3829 Column_3830 Column_3831 Column_3832 Column_3833 Column_3834 Column_3835 Column_3836 Column_3837 Column_3838 Column_3839 Column_3840 Column_3841 Column_3842 Column_3843 Column_3844 Column_3845 Column_3846 Column_3847 Column_3848 Column_3849 Column_3850 Column_3851 Column_3852 Column_3853 Column_3854 Column_3855 Column_3856 Column_3857 Column_3858 Column_3859 Column_3860 Column_3861 Column_3862 Column_3863 Column_3864 Column_3865 Column_3866 Column_3867 Column_3868 Column_3869 Column_3870 Column_3871 Column_3872 Column_3873 Column_3874 Column_3875 Column_3876 Column_3877 Column_3878 Column_3879 Column_3880 Column_3881 Column_3882 Column_3883 Column_3884 Column_3885 Column_3886 Column_3887 Column_3888 Column_3889 Column_3890 Column_3891 Column_3892 Column_3893 Column_3894 Column_3895 Column_3896 Column_3897 Column_3898 Column_3899 Column_3900 Column_3901 Column_3902 Column_3903 Column_3904 Column_3905 Column_3906 Column_3907 Column_3908 Column_3909 Column_3910 Column_3911 Column_3912 Column_3913 Column_3914 Column_3915 Column_3916 Column_3917 Column_3918 Column_3919 Column_3920 Column_3921 Column_3922 Column_3923 Column_3924 Column_3925 Column_3926 Column_3927 Column_3928 Column_3929 Column_3930 Column_3931 Column_3932 Column_3933 Column_3934 Column_3935 Column_3936 Column_3937 Column_3938 Column_3939 Column_3940 Column_3941 Column_3942 Column_3943 Column_3944 Column_3945 Column_3946 Column_3947 Column_3948 Column_3949 Column_3950 Column_3951 Column_3952 Column_3953 Column_3954 Column_3955 Column_3956 Column_3957 Column_3958 Column_3959 Column_3960 Column_3961 Column_3962 Column_3963 Column_3964 Column_3965 Column_3966 Column_3967 Column_3968 Column_3969 Column_3970 Column_3971 Column_3972 Column_3973 Column_3974 Column_3975 Column_3976 Column_3977 Column_3978 Column_3979 Column_3980 Column_3981 Column_3982 Column_3983 Column_3984 Column_3985 Column_3986 Column_3987 Column_3988 Column_3989 Column_3990 Column_3991 Column_3992 Column_3993 Column_3994 Column_3995 Column_3996 Column_3997 Column_3998 Column_3999 Column_4000 Column_4001 Column_4002 Column_4003 Column_4004 Column_4005 Column_4006 Column_4007 Column_4008 Column_4009 Column_4010 Column_4011 Column_4012 Column_4013 Column_4014 Column_4015 Column_4016 Column_4017 Column_4018 Column_4019 Column_4020 Column_4021 Column_4022 Column_4023 Column_4024 Column_4025 Column_4026 Column_4027 Column_4028 Column_4029 Column_4030 Column_4031 Column_4032 Column_4033 Column_4034 Column_4035 Column_4036 Column_4037 Column_4038 Column_4039 Column_4040 Column_4041 Column_4042 Column_4043 Column_4044 Column_4045 Column_4046 Column_4047 Column_4048 Column_4049 Column_4050 Column_4051 Column_4052 Column_4053 Column_4054 Column_4055 Column_4056 Column_4057 Column_4058 Column_4059 Column_4060 Column_4061 Column_4062 Column_4063 Column_4064 Column_4065 Column_4066 Column_4067 Column_4068 Column_4069 Column_4070 Column_4071 Column_4072 Column_4073 Column_4074 Column_4075 Column_4076 Column_4077 Column_4078 Column_4079 Column_4080 Column_4081 Column_4082 Column_4083 Column_4084 Column_4085 Column_4086 Column_4087 Column_4088 Column_4089 Column_4090 Column_4091 Column_4092 Column_4093 Column_4094 Column_4095 Column_4096 Column_4097 Column_4098 Column_4099 Column_4100 Column_4101 Column_4102 Column_4103 Column_4104 Column_4105 Column_4106 Column_4107 Column_4108 Column_4109 Column_4110 Column_4111 Column_4112 Column_4113 Column_4114 Column_4115 Column_4116 Column_4117 Column_4118 Column_4119 Column_4120 Column_4121 Column_4122 Column_4123 Column_4124 Column_4125 Column_4126 Column_4127 Column_4128 Column_4129 Column_4130 Column_4131 Column_4132 Column_4133 Column_4134 Column_4135 Column_4136 Column_4137 Column_4138 Column_4139 Column_4140 Column_4141 Column_4142 Column_4143 Column_4144 Column_4145 Column_4146 Column_4147 Column_4148 Column_4149 Column_4150 Column_4151 Column_4152 Column_4153 Column_4154 Column_4155 Column_4156 Column_4157 Column_4158 Column_4159 Column_4160 Column_4161 Column_4162 Column_4163 Column_4164 Column_4165 Column_4166 Column_4167 Column_4168 Column_4169 Column_4170 Column_4171 Column_4172 Column_4173 Column_4174 Column_4175 Column_4176 Column_4177 Column_4178 Column_4179 Column_4180 Column_4181 Column_4182 Column_4183 Column_4184 Column_4185 Column_4186 Column_4187 Column_4188 Column_4189 Column_4190 Column_4191 Column_4192 Column_4193 Column_4194 Column_4195 Column_4196 Column_4197 Column_4198 Column_4199 Column_4200 Column_4201 Column_4202 Column_4203 Column_4204 Column_4205 Column_4206 Column_4207 Column_4208 Column_4209 Column_4210 Column_4211 Column_4212 Column_4213 Column_4214 Column_4215 Column_4216 Column_4217 Column_4218 Column_4219 Column_4220 Column_4221 Column_4222 Column_4223 Column_4224 Column_4225 Column_4226 Column_4227 Column_4228 Column_4229 Column_4230 Column_4231 Column_4232 Column_4233 Column_4234 Column_4235 Column_4236 Column_4237 Column_4238 Column_4239 Column_4240 Column_4241 Column_4242 Column_4243 Column_4244 Column_4245 Column_4246 Column_4247 Column_4248 Column_4249 Column_4250 Column_4251 Column_4252 Column_4253 Column_4254 Column_4255 Column_4256 Column_4257 Column_4258 Column_4259 Column_4260 Column_4261 Column_4262 Column_4263 Column_4264 Column_4265 Column_4266 Column_4267 Column_4268 Column_4269 Column_4270 Column_4271 Column_4272 Column_4273 Column_4274 Column_4275 Column_4276 Column_4277 Column_4278 Column_4279 Column_4280 Column_4281 Column_4282 Column_4283 Column_4284 Column_4285 Column_4286 Column_4287 Column_4288 Column_4289 Column_4290 Column_4291 Column_4292 Column_4293 Column_4294 Column_4295 Column_4296 Column_4297 Column_4298 Column_4299 Column_4300 Column_4301 Column_4302 Column_4303 Column_4304 Column_4305 Column_4306 Column_4307 Column_4308 Column_4309 Column_4310 Column_4311 Column_4312 Column_4313 Column_4314 Column_4315 Column_4316 Column_4317 Column_4318 Column_4319 Column_4320 Column_4321 Column_4322 Column_4323 Column_4324 Column_4325 Column_4326 Column_4327 Column_4328 Column_4329 Column_4330 Column_4331 Column_4332 Column_4333 Column_4334 Column_4335 Column_4336 Column_4337 Column_4338 Column_4339 Column_4340 Column_4341 Column_4342 Column_4343 Column_4344 Column_4345 Column_4346 Column_4347 Column_4348 Column_4349 Column_4350 Column_4351 Column_4352 Column_4353 Column_4354 Column_4355 Column_4356 Column_4357 Column_4358 Column_4359 Column_4360 Column_4361 Column_4362 Column_4363 Column_4364 Column_4365 Column_4366 Column_4367 Column_4368 Column_4369 Column_4370 Column_4371 Column_4372 Column_4373 Column_4374 Column_4375 Column_4376 Column_4377 Column_4378 Column_4379 Column_4380 Column_4381 Column_4382 Column_4383 Column_4384 Column_4385 Column_4386 Column_4387 Column_4388 Column_4389 Column_4390 Column_4391 Column_4392 Column_4393 Column_4394 Column_4395 Column_4396 Column_4397 Column_4398 Column_4399 Column_4400 Column_4401 Column_4402 Column_4403 Column_4404 Column_4405 Column_4406 Column_4407 Column_4408 Column_4409 Column_4410 Column_4411 Column_4412 Column_4413 Column_4414 Column_4415 Column_4416 Column_4417 Column_4418 Column_4419 Column_4420 Column_4421 Column_4422 Column_4423 Column_4424 Column_4425 Column_4426 Column_4427 Column_4428 Column_4429 Column_4430 Column_4431 Column_4432 Column_4433 Column_4434 Column_4435 Column_4436 Column_4437 Column_4438 Column_4439 Column_4440 Column_4441 Column_4442 Column_4443 Column_4444 Column_4445 Column_4446 Column_4447 Column_4448 Column_4449 Column_4450 Column_4451 Column_4452 Column_4453 Column_4454 Column_4455 Column_4456 Column_4457 Column_4458 Column_4459 Column_4460 Column_4461 Column_4462 Column_4463 Column_4464 Column_4465 Column_4466 Column_4467 Column_4468 Column_4469 Column_4470 Column_4471 Column_4472 Column_4473 Column_4474 Column_4475 Column_4476 Column_4477 Column_4478 Column_4479 Column_4480 Column_4481 Column_4482 Column_4483 Column_4484 Column_4485 Column_4486 Column_4487 Column_4488 Column_4489 Column_4490 Column_4491 Column_4492 Column_4493 Column_4494 Column_4495 Column_4496 Column_4497 Column_4498 Column_4499 Column_4500 Column_4501 Column_4502 Column_4503 Column_4504 Column_4505 Column_4506 Column_4507 Column_4508 Column_4509 Column_4510 Column_4511 Column_4512 Column_4513 Column_4514 Column_4515 Column_4516 Column_4517 Column_4518 Column_4519 Column_4520 Column_4521 Column_4522 Column_4523 Column_4524 Column_4525 Column_4526 Column_4527 Column_4528 Column_4529 Column_4530 Column_4531 Column_4532 Column_4533 Column_4534 Column_4535 Column_4536 Column_4537 Column_4538 Column_4539 Column_4540 Column_4541 Column_4542 Column_4543 Column_4544 Column_4545 Column_4546 Column_4547 Column_4548 Column_4549 Column_4550 Column_4551 Column_4552 Column_4553 Column_4554 Column_4555 Column_4556 Column_4557 Column_4558 Column_4559 Column_4560 Column_4561 Column_4562 Column_4563 Column_4564 Column_4565 Column_4566 Column_4567 Column_4568 Column_4569 Column_4570 Column_4571 Column_4572 Column_4573 Column_4574 Column_4575 Column_4576 Column_4577 Column_4578 Column_4579 Column_4580 Column_4581 Column_4582 Column_4583 Column_4584 Column_4585 Column_4586 Column_4587 Column_4588 Column_4589 Column_4590 Column_4591 Column_4592 Column_4593 Column_4594 Column_4595 Column_4596 Column_4597 Column_4598 Column_4599 Column_4600 Column_4601 Column_4602 Column_4603 Column_4604 Column_4605 Column_4606 Column_4607 Column_4608 Column_4609 Column_4610 Column_4611 Column_4612 Column_4613 Column_4614 Column_4615 Column_4616 Column_4617 Column_4618 Column_4619 Column_4620 Column_4621 Column_4622 Column_4623 Column_4624 Column_4625 Column_4626 Column_4627 Column_4628 Column_4629 Column_4630 Column_4631 Column_4632 Column_4633 Column_4634 Column_4635 Column_4636 Column_4637 Column_4638 Column_4639 Column_4640 Column_4641 Column_4642 Column_4643 Column_4644 Column_4645 Column_4646 Column_4647 Column_4648 Column_4649 Column_4650 Column_4651 Column_4652 Column_4653 Column_4654 Column_4655 Column_4656 Column_4657 Column_4658 Column_4659 Column_4660 Column_4661 Column_4662 Column_4663 Column_4664 Column_4665 Column_4666 Column_4667 Column_4668 Column_4669 Column_4670 Column_4671 Column_4672 Column_4673 Column_4674 Column_4675 Column_4676 Column_4677 Column_4678 Column_4679 Column_4680 Column_4681 Column_4682 Column_4683 Column_4684 Column_4685 Column_4686 Column_4687 Column_4688 Column_4689 Column_4690 Column_4691 Column_4692 Column_4693 Column_4694 Column_4695 Column_4696 Column_4697 Column_4698 Column_4699 Column_4700 Column_4701 Column_4702 Column_4703 Column_4704 Column_4705 Column_4706 Column_4707 Column_4708 Column_4709 Column_4710 Column_4711 Column_4712 Column_4713 Column_4714 Column_4715 Column_4716 Column_4717 Column_4718 Column_4719 Column_4720 Column_4721 Column_4722 Column_4723 Column_4724 Column_4725 Column_4726 Column_4727 Column_4728 Column_4729 Column_4730 Column_4731 Column_4732 Column_4733 Column_4734 Column_4735 Column_4736 Column_4737 Column_4738 Column_4739 Column_4740 Column_4741 Column_4742 Column_4743 Column_4744 Column_4745 Column_4746 Column_4747 Column_4748 Column_4749 Column_4750 Column_4751 Column_4752 Column_4753 Column_4754 Column_4755 Column_4756 Column_4757 Column_4758 Column_4759 Column_4760 Column_4761 Column_4762 Column_4763 Column_4764 Column_4765 Column_4766 Column_4767 Column_4768 Column_4769 Column_4770 Column_4771 Column_4772 Column_4773 Column_4774 Column_4775 Column_4776 Column_4777 Column_4778 Column_4779 Column_4780 Column_4781 Column_4782 Column_4783 Column_4784 Column_4785 Column_4786 Column_4787 Column_4788 Column_4789 Column_4790 Column_4791 Column_4792 Column_4793 Column_4794 Column_4795 Column_4796 Column_4797 Column_4798 Column_4799 Column_4800 Column_4801 Column_4802 Column_4803 Column_4804 Column_4805 Column_4806 Column_4807 Column_4808 Column_4809 Column_4810 Column_4811 Column_4812 Column_4813 Column_4814 Column_4815 Column_4816 Column_4817 Column_4818 Column_4819 Column_4820 Column_4821 Column_4822 Column_4823 Column_4824 Column_4825 Column_4826 Column_4827 Column_4828 Column_4829 Column_4830 Column_4831 Column_4832 Column_4833 Column_4834 Column_4835 Column_4836 Column_4837 Column_4838 Column_4839 Column_4840 Column_4841 Column_4842 Column_4843 Column_4844 Column_4845 Column_4846 Column_4847 Column_4848 Column_4849 Column_4850 Column_4851 Column_4852 Column_4853 Column_4854 Column_4855 Column_4856 Column_4857 Column_4858 Column_4859 Column_4860 Column_4861 Column_4862 Column_4863 Column_4864 Column_4865 Column_4866 Column_4867 Column_4868 Column_4869 Column_4870 Column_4871 Column_4872 Column_4873 Column_4874 Column_4875 Column_4876 Column_4877 Column_4878 Column_4879 Column_4880 Column_4881 Column_4882 Column_4883 Column_4884 Column_4885 Column_4886 Column_4887 Column_4888 Column_4889 Column_4890 Column_4891 Column_4892 Column_4893 Column_4894 Column_4895 Column_4896 Column_4897 Column_4898 Column_4899 Column_4900 Column_4901 Column_4902 Column_4903 Column_4904 Column_4905 Column_4906 Column_4907 Column_4908 Column_4909 Column_4910 Column_4911 Column_4912 Column_4913 Column_4914 Column_4915 Column_4916 Column_4917 Column_4918 Column_4919 Column_4920 Column_4921 Column_4922 Column_4923 Column_4924 Column_4925 Column_4926 Column_4927 Column_4928 Column_4929 Column_4930 Column_4931 Column_4932 Column_4933 Column_4934 Column_4935 Column_4936 Column_4937 Column_4938 Column_4939 Column_4940 Column_4941 Column_4942 Column_4943 Column_4944 Column_4945 Column_4946 Column_4947 Column_4948 Column_4949 Column_4950 Column_4951 Column_4952 Column_4953 Column_4954 Column_4955 Column_4956 Column_4957 Column_4958 Column_4959 Column_4960 Column_4961 Column_4962 Column_4963 Column_4964 Column_4965 Column_4966 Column_4967 Column_4968 Column_4969 Column_4970 Column_4971 Column_4972 Column_4973 Column_4974 Column_4975 Column_4976 Column_4977 Column_4978 Column_4979 Column_4980 Column_4981 Column_4982 Column_4983 Column_4984 Column_4985 Column_4986 Column_4987 Column_4988 Column_4989 Column_4990 Column_4991 Column_4992 Column_4993 Column_4994 Column_4995 Column_4996 Column_4997 Column_4998 Column_4999 Column_5000 Column_5001 Column_5002 Column_5003 Column_5004 Column_5005 Column_5006 Column_5007 Column_5008 Column_5009 Column_5010 Column_5011 Column_5012 Column_5013 Column_5014 Column_5015 Column_5016 Column_5017 Column_5018 Column_5019 Column_5020 Column_5021 Column_5022 Column_5023 Column_5024 Column_5025 Column_5026 Column_5027 Column_5028 Column_5029 Column_5030 Column_5031 Column_5032 Column_5033 Column_5034 Column_5035 Column_5036 Column_5037 Column_5038 Column_5039 Column_5040 Column_5041 Column_5042 Column_5043 Column_5044 Column_5045 Column_5046 Column_5047 Column_5048 Column_5049 Column_5050 Column_5051 Column_5052 Column_5053 Column_5054 Column_5055 Column_5056 Column_5057 Column_5058 Column_5059 Column_5060 Column_5061 Column_5062 Column_5063 Column_5064 Column_5065 Column_5066 Column_5067 Column_5068 Column_5069 Column_5070 Column_5071 Column_5072 Column_5073 Column_5074 Column_5075 Column_5076 Column_5077 Column_5078 Column_5079 Column_5080 Column_5081 Column_5082 Column_5083 Column_5084 Column_5085 Column_5086 Column_5087 Column_5088 Column_5089 Column_5090 Column_5091 Column_5092 Column_5093 Column_5094 Column_5095 Column_5096 Column_5097 Column_5098 Column_5099 Column_5100 Column_5101 Column_5102 Column_5103 Column_5104 Column_5105 Column_5106 Column_5107 Column_5108 Column_5109 Column_5110 Column_5111 Column_5112 Column_5113 Column_5114 Column_5115 Column_5116
feature_infos=[0:0.1905484999572315] [0:0.24314831088376621] [0:0.20738072807035346] [0:0.28124247356482535] [0:0.17967843444362996] [0:0.19147362343454649] [0:0.30590784238373914] [0:0.22869857810687033] [0:0.19094635886494457] [0:0.30360924342729623] [0:0.15235999870683137] [0:0.19905386148769674] [0:0.19493191754645453] [0:0.20007397310483058] [0:0.18290766765546507] [0:0.20628486078177494] [0:0.17490308749406161] [0:0.19912113695594771] [0:0.21325210020099397] [0:0.20979474599303091] [0:0.18557493701568931] [0:0.17082972831672413] [0:0.22107319805062853] [0:0.39312262585265523] [0:0.19775414849633327] [0:0.17247567784738144] [0:0.39156025696732727] [0:0.17649658685272782] [0:0.21421812133270543] [0:0.37266476981702634] [0:0.25291508484306346] [0:0.14465693263728635] [0:0.22262373898228643] [0:0.19251429798029551] [0:0.20935604639776767] [0:0.21812580337015514] [0:0.1929256912175859] [0:0.15308632312424023] [0:0.20792347763238797] [0:0.24001894817954644] [0:0.18209820244438366] [0:0.16408995998764184] [0:0.20123479476926898] [0:0.2422523082822528] [0:0.18939039520608833] [0:0.19798511354344078] [0:0.14119610210140349] [0:0.20383271805955383] [0:0.27194592880699697] [0:0.17462567990472352] [0:0.31612300700924234] [0:0.18786810767577675] [0:0.21878202624085807] [0:0.20816752878702763] [0:0.18593445059315492] [0:0.67807627220491895] [0:0.19045385058201589] [0:0.37337062437383955] [0:0.2299567986535192] [0:0.17681584415820961] [0:0.1747567154336496] [0:0.17490964621500052] [0:0.16773650476088234] [0:0.17128972368472817] [0:0.20321619171865959] [0:0.19044078656080729] [0:0.18980925535500182] [0:0.21163003702944688] [0:0.23631890899885677] [0:0.15780033930969364] [0:0.19659542227305232] [0:0.22220467643037592] [0:0.2018569329521159] [0:0.1591025612303226] [0:0.16800455765093175] [0:0.5341365352250087] [0:0.19894055720299428] [0:0.2030057609076209] [0:0.1954760480419174] [0:0.18330106554653916] [0:0.19431725422689455] [0:0.27704248563842782] [0:0.15593526893307874] [0:0.26164801030750034] [0:0.17635239237268113] [0:0.14790351407672281] [0:0.21377880815677117] [0:0.16552249079088246] [0:0.22766900431547044] [0:0.21514984098876086] [0:0.16565098701165695] [0:0.65323322941854833] [0:0.172162938987964] [0:0.17486978642347395] [0:0.20855232380534447] [0:0.20838642039147406] [0:0.25182394864542607] [0:0.17621188814430896] [0:0.19088872132423665] [0:0.21102466559915731] [0:0.15699402408303509] [0:0.17550806688880563] [0:0.1694650744324033] [0:0.17080127831570746] [0:0.19272960915705184] [0:0.20161139222142743] [0:0.2237627787060445] [0:0.18237511048517213] [0:0.2040255672523395] [0:0.18475758106372198] [0:0.21973522635472986] [0:0.21790382632178718] [0:0.26890521499767772] [0:0.21535452027737093] [0:0.15227662833327701] [0:0.19595967145890569] [0:0.17478394115301765] [0:0.17730683645687662] [0:0.2247079341248103] [0:0.19635915725130756] [0:0.23852526899591744] [0:0.17506191053611783] [0:0.23897664217951942] [0:0.18758674200082234] [0:0.14741280357384928] [0:0.17789483369777079] [0:0.31264656716001138] [0:0.15692395784104121] [0:0.24314139853389263] [0:0.20050007023156446] [0:0.16687924208964319] [0:0.15688374443324249] [0:0.18030388038282413] [0:0.21700126966331135] [0:0.16375550181482429] [0:0.2155676548062298] [0:0.27532122769243023] [0:0.20797550329489797] [0:0.15885588572400886] [0:0.2258530285886694] [0:0.18999773714052745] [0:0.23459787003964408] [0:0.22832913609749944] [0:0.18321445671892647] [0:0.15665099672599628] [0:0.178238423070155] none [0:0.17637249833384294] [0:0.31211306113220977] [0:0.17301718423051365] [0:0.20100351141771738] [0:0.18293201946834159] [0:0.18011821557283805] [0:0.21501695752915315] [0:0.19220915940961811] [0:0.2269510160664969] [0:0.15074018827234026] [0:0.17944539443435051] [0:0.15328052550520307] [0:0.18570176419742601] [0:0.25270970336816484] [0:0.2242268634307846] [0:0.22681303206895853] [0:0.21296752243044742] [0:0.20743170865470986] none [0:0.1636698425764419] [0:0.17385639290294364] [0:0.18048044316479461] [0:0.24220139328575566] [0:0.1627661166465737] [0:0.2338823390204382] [0:0.16467117936471723] [0:0.18923830073656686] none [0:0.19553504211377606] [0:0.19667654261350664] [0:0.18143630985983061] [0:0.20137924661405876] [0:0.17648213199784601] [0:0.16740031246692996] [0:0.17727726732663851] [0:0.37877564387919505] [0:0.19699154820450554] [0:0.17983465625480582] [0:0.20179718064249769] [0:0.17837568787004113] [0:0.15459464657739741] [0:0.15823285227727826] [0:0.18947486490346244] [0:0.21362518482599033] [0:0.29891576743581] [0:0.17762484540764614] [0:0.22790038391268777] [0:0.1875831991170985] [0:0.22799010443517895] [0:0.17669869522745008] [0:0.22873978399430905] [0:0.19440112652533251] [0:0.20423713406639327] [0:0.31517170268844724] [0:0.25953721171430344] [0:0.30339150223985389] [0:0.20909858129654293] [0:0.17553341345200751] [0:0.26494952886156553] [0:0.2076581156238316] [0:0.19765420233926315] [0:0.24803500934923214] [0:0.23558312314700797] [0:0.19174586075221828] [0:0.22237477196231689] [0:0.1948040032065726] [0:0.21175051292496005] [0:0.14098672679958302] [0:0.1684111539450017] [0:0.19741611807042378] [0:0.16404426060276431] [0:0.16525149759476893] [0:0.19481822912391289] [0:0.23085973762780362] [0:0.2048361541077646] [0:0.28383365330781807] [0:0.3319418326301547] [0:0.2073497417675422] [0:0.19993343102043973] [0:0.19064881028101996] [0:0.16266963647700855] [0:0.21748548856851427] [0:0.26648690945823689] [0:0.14413384528774939] [0:0.21674102054370378] [0:0.18839110253812238] [0:0.19962253793436449] [0:0.19965476719057951] [0:0.16637227611353242] [0:0.13476432400883856] [0:0.15271670185725081] [0:0.19480682457574694] [0:0.19635925079320043] [0:0.20983087613562004] [0:0.20959359247485773] [0:0.20764401339063962] [0:0.23252092311955172] [0:0.17991796201874391] [0:0.19582787445442817] [0:0.25076570010215715] [0:0.18399820397929098] [0:0.1637446233550417] [0:0.21241156196045879] [0:0.1703570638245635] [0:0.22021074797381118] [0:0.17044401759106195] [0:0.18115537156611836] [0:0.19842597696592176] [0:0.24885582046584354] [0:0.30513672623466148] [0:0.19370540089607652] [0:0.15604868098878868] [0:0.17477065256007787] [0:0.20659702735898619] [0:0.26110641583585215] [0:0.15737572905933395] [0:0.17922016708599658] [0:0.20871444848242149] [0:0.19007197550032967] [0:0.18995129428930865] [0:0.33192455937175858] [0:0.21719001242299485] [0:0.16328313243515352] [0:0.23013727049639421] [0:0.21301316572519127] [0:0.44890131120996513] [0:0.19132584400542268] [0:0.22153103306334568] [0:0.21631764275599399] [0:0.1401134484992822] [0:0.17908001076019053] [0:0.35565926267936471] [0:0.16233690996943817] [0:0.21228542884061977] [0:0.16877002958125981] [0:0.3310545180856046] [0:0.13598334481977575] [0:0.26908566895451691] [0:0.17446907901822956] [0:0.16971320142636587] [0:0.16323455014184021] [0:0.2023744282319187] [0:0.22415787843186044] [0:0.15954889966107513] [0:0.21836563388556993] [0:0.20169876978550719] [0:0.1711584245602408] [0:0.16545535634202038] [0:0.21911955799570146] [0:0.16368511143335279] [0:0.26411506051262462] [0:0.18655934476184069] [0:0.18414359773548655] [0:0.20937294175222007] [0:0.1873597139045225] [0:0.22553723810895129] [0:0.18837385708676244] [0:0.24522682233833062] [0:0.17056966922519398] [0:0.18497760780974887] [0:0.22032398089040961] [0:0.19761614803273822] [0:0.25933636606931643] [0:0.15807323336382587] [0:0.19997429145534473] [0:0.19190457847468292] [0:0.19083555715797668] [0:0.19102809857759201] none [0:0.18290578979348363] [0:0.22690360591413122] [0:0.23084850339547208] [0:0.17415005291062677] [0:0.26957987361926078] [0:0.19049248443997344] [0:0.16146595663165134] [0:0.23828601989463427] [0:0.26108490675754431] [0:0.20880366040521647] [0:0.58224909736429753] [0:0.20163208044533928] [0:0.20308779200267557] [0:0.21308896975118044] [0:0.33063065706442202] [0:0.16348764075303918] [0:0.16080737352209368] [0:0.23747029015435592] [0:0.15975545283633075] [0:0.17012787742677729] [0:0.2853002916603713] [0:0.16152248160177499] [0:0.19210873998968173] [0:0.22126153865226289] [0:0.26275470649134908] [0:0.15029858632323595] [0:0.17971635412133621] [0:0.21055079566922619] [0:0.19542260259854688] [0:0.17241586001665571] [0:0.17685141087212558] [0:0.20211527067354154] [0:0.23669830789290289] [0:0.17899572474639544] [0:0.19595132905643187] [0:0.19712361173320944] [0:0.24772085572790423] [0:0.16624390411118611] [0:0.15522696598062199] [0:0.25642990593843268] [0:0.16284429581554308] [0:0.17636781074734473] none [0:0.21465086766302782] [0:0.20560101553920998] [0:0.15211293179773064] [0:0.15751170801200629] [0:0.33037480100421962] [0:0.19971954694312999] [0:0.25757742598776834] none [0:0.55912874482149433] [0:0.1894857239992763] [0:0.17728643923520115] [0:0.168358663249565] [0:0.2985264788368206] [0:0.20036611621972011] [0:0.17193026870360181] [0:0.20573389249109464] [0:0.31340270012370308] [0:0.21171163518007169] [0:0.23483885929694334] [0:0.1658437760267055] [0:0.15219396543495259] [0:0.22043957413755605] [0:0.19092049344071718] [0:0.16110393313433441] [0:0.22883862167459948] [0:0.21391782605053672] [0:0.209575369481943] [0:0.22181142291365283] [0:0.23580905760257781] [0:0.18997530154826173] [0:0.26043261190585032] [0:0.21044056051222212] [0:0.16306782828291164] [0:0.34069685000705019] [0:0.27106580604912256] [0:0.14855604812391743] [0:0.21205786578211661] [0:0.19486090226019021] [0:0.20943347651751806] [0:0.20805805985340159] [0:0.17969182555502156] [0:0.26545415641940318] [0:0.19864911165764329] [0:0.1789014193486626] [0:0.20746471132186661] [0:0.18386285412686348] [0:0.17815006493120211] [0:0.27946930966563677] [0:0.26453812770722651] [0:0.17180554349598889] [0:0.24611960462011884] [0:0.17657776646524118] [0:0.1890208855521803] [0:0.16469333336250425] [0:0.16523214354751808] [0:0.16191648259040209] [0:0.21302528627461556] [0:0.2086932811575008] [0:0.18701329160226748] [0:0.18367206740109546] none [0:0.15939732539252285] [0:0.17086985927167878] [0:0.17907145322495718] [0:0.17679386699510882] [0:0.26628443452551442] [0:0.1613458043451671] [0:0.23520447999670149] [0:0.24246468548777722] [0:0.33841339696945238] [0:0.23577290846686691] [0:0.16746892113866288] [0:0.1634552822715043] [0:0.21858749958761747] [0:0.25833324309745703] [0:0.16997745194690617] [0:0.16943602678623862] [0:0.15597710121100514] [0:0.20713429307671316] [0:0.19849726597071479] [0:0.16786928860675446] [0:0.17530986188657291] [0:0.21805270764674137] [0:0.18988693991362915] [0:0.25298041994155135] [0:0.18015242449734278] [0:0.17180837074690755] [0:0.19523552749595799] [0:0.16647335434867472] [0:0.26599773957771156] [0:0.25981358575616936] [0:0.16038255486506398] [0:0.15893394293774551] [0:0.17241205389006969] [0:0.18654466951703547] [0:0.16624208853219477] [0:0.19936415395609342] [0:0.17703665494703019] [0:0.21623990923641984] [0:0.18115208262778959] none [0:0.18007962137268688] [0:0.22104244205940407] [0:0.16289008343312514] none [0:0.22038499925773464] [0:0.22957389709715742] [0:0.15915886095573861] [0:0.16436315710691016] [0:0.22734452003644684] [0:0.18915509609967734] [0:0.17741307799653011] [0:0.2311060098142651] [0:0.20409841721113664] [0:0.19222682068251828] [0:0.17859242449061474] [0:0.17187554125609195] [0:0.16591242045030266] [0:0.19588193853737343] [0:0.18392119812992605] [0:0.19322174293844199] [0:0.18449337700846863] [0:0.18425845916007999] [0:0.18339703264588417] [0:0.18438682229579684] [0:0.21322829287888731] [0:0.18669693864822662] [0:0.17481483818521751] [0:0.16779671971039054] [0:0.18862968510211053] [0:0.1532246519116966] [0:0.17195671258782291] [0:0.24711297951897812] [0:0.1278742654138037] [0:0.17530864103154728] [0:0.17862982696144991] [0:0.21089771304588756] [0:0.16091160380529543] [0:0.16765580764815971] [0:0.20713206261141795] [0:0.19979735869694831] [0:0.21109116807495143] [0:0.22283808341687306] [0:0.19983470439144141] [0:0.20904026823491381] [0:0.55113775778061169] [0:0.24239887828636361] [0:0.22553000691025701] [0:0.19084205910248905] [0:0.24798373569718116] [0:0.15969539664383442] [0:0.23044364887843288] [0:0.24052399413385034] [0:0.16942507137289223] [0:0.20108295882528901] [0:0.26532374057028402] [0:0.23151042459060445] [0:0.21576255386107335] [0:0.14709495477020265] [0:0.19706045261886979] [0:0.23673928339749412] [0:0.22782242238244688] [0:0.26628443452551442] [0:0.18196012738811868] [0:0.1956482527870036] [0:0.21559297797102603] [0:0.21046031097398121] [0:0.17262735560004902] [0:0.18781808234235303] [0:0.18844283099777376] [0:0.18354561946958386] [0:0.24291214491022972] [0:0.20844538031453197] [0:0.27804194880219751] [0:0.18141294668333088] [0:0.26789743194493876] [0:0.27639790678687481] [0:0.23452331742040744] [0:0.1359957100252929] [0:0.16064902041887463] [0:0.15516847866604833] [0:0.25681700775538974] [0:0.29465494278364956] [0:0.14146342013093169] [0:0.23269388241764624] [0:0.18211238063086518] [0:0.25145471301907385] [0:0.2533782913585812] [0:0.22096746805371817] [0:0.25784351158503982] [0:0.30360924342729623] [0:0.24418357104110652] [0:0.17495024406069912] [0:0.18521166875577666] [0:0.18741563314644111] [0:0.22221607677988989] [0:0.18157918319923494] [0:0.15149214068177277] [0:0.18984955161177053] [0:0.24990005319025707] [0:0.15637861494761582] [0:0.1969597275797362] [0:0.21417625783927266] [0:0.18003324233186679] [0:0.19014088598970502] [0:0.16912897125466742] [0:0.19325978653853754] [0:0.20251773917961302] [0:0.19604885855330645] [0:0.19547284509817567] [0:0.17757325223743819] [0:0.1835858458902152] [0:0.22791776344968573] [0:0.143450940460534] [0:0.15901703964094099] [0:0.19854978626091696] [0:0.21283829235450932] [0:0.15187197418786408] [0:0.23878695179835657] [0:0.18123355167138544] [0:0.22519644815980316] [0:0.21193568210859184] [0:0.20509461144628144] [0:0.19803111712265112] [0:0.28332649613375144] none [0:0.18418024204731895] [0:0.21907286025479] [0:0.16961020583898015] [0:0.16456877113126686] [0:0.19106254887236762] [0:0.2719728772407331] [0:0.25732534272108798] [0:0.15683809639749602] [0:0.21047509676196177] [0:0.19963467320816577] [0:0.17790763008704435] [0:0.21984205621471922] [0:0.19610055431668943] [0:0.21121582916078471] [0:0.18381500412214072] [0:0.2696679235303121] [0:0.21772616325066121] [0:0.17599588351565257] [0:0.19006172442571337] [0:0.23734900384854443] [0:0.2008520452518355] [0:0.16993368956342] [0:0.1578978777408396] [0:0.17111834384369387] [0:0.22311663427204836] [0:0.17249809108845096] [0:0.16485509671616935] [0:0.21910134885201454] [0:0.22105868657325436] [0:0.11763829036563735] [0:0.17926263997212724] [0:0.19337782909351556] [0:0.14224325213153205] [0:0.23672645672642592] [0:0.19939146043652992] [0:0.17915240856384421] [0:0.16705938917629495] [0:0.17329938145993479] [0:0.18418170214267846] [0:0.23644889011737644] [0:0.16705318761017129] [0:0.18972882185748921] [0:0.25738329812462396] [0:0.2009812651954479] [0:0.20428284031385791] [0:0.13225139448338183] [0:0.22838060550019976] [0:0.23053811182948084] [0:0.30316332867597962] [0:0.23980109846321779] [0:0.17448711250744373] [0:0.19238074928728527] [0:0.13770884716623125] [0:0.19517664724502778] [0:0.20520215598689917] [0:0.18271480358182876] [0:0.15421157974922167] [0:0.23573997575800587] [0:0.14827824942931639] [0:0.2072883408547127] [0:0.18916424337074106] [0:0.19414740344242953] [0:0.6951385231327496] [0:0.17470444447748912] [0:0.23559317069499913] [0:0.21999287082194946] [0:0.19321816309618783] [0:0.20544082125699534] [0:0.183496766626178] [0:0.19863448188317651] [0:0.22893394337966563] [0:0.22115368028075422] [0:0.1893940080560628] [0:0.16508114718450309] [0:0.18747460743163949] [0:0.29201463057330085] [0:0.38206504454268325] [0:0.16412303704858139] [0:0.26380067709937038] [0:0.17733717828353215] [0:0.19525179728608963] [0:0.32153564648226685] [0:0.17679838084149216] [0:0.20563675558962349] [0:0.18739354189504356] [0:0.13875160912521589] [0:0.1790513064716194] [0:0.18185321726430806] [0:0.17778044152380371] [0:0.20435108378790728] [0:0.15236173689728089] [0:0.15740643088124126] [0:0.19945943422348794] [0:0.25028951070455691] [0:0.18992851105980668] [0:0.21685730139117859] [0:0.24497547781190154] [0:0.21649377959212307] [0:0.26046783498568704] [0:0.33562755328938321] [0:0.19326815407113851] [0:0.22187821876773831] [0:0.20897248673049459] [0:0.16758934586776156] [0:0.32416112950240888] [0:0.19361100744636811] [0:0.22076136331302804] [0:0.1955282646033456] [0:0.19803845703008871] [0:0.20160011817724655] [0:0.15782471470367709] [0:0.18363930543474277] [0:0.21396522298844906] [0:0.19662125810786282] [0:0.1560068864808091] [0:0.24415524122519619] [0:0.18809923182844265] [0:0.28370116714899518] [0:0.27686198219092195] [0:0.22037131446842054] [0:0.15896884734588029] [0:0.18069023234601522] [0:0.24763348946823599] [0:0.2101970137128881] [0:0.21322606233558597] [0:0.22844788076359632] [0:0.28235280362287513] [0:0.16927322551635576] [0:0.19921632757202229] [0:0.15450335747471966] [0:0.67500521894122656] [0:0.19384134767692338] [0:0.16168181068301313] [0:0.20447728021081546] [0:0.22342480269299961] [0:0.16117257929845275] [0:0.19104007787139368] [0:0.22160778079698676] [0:0.20471613760502028] [0:0.22872829398244496] [0:0.21859965683466487] [0:0.17592012019777054] [0:0.16246351110321497] [0:0.18103393550907398] [0:0.17887671822293183] [0:0.22477279851276091] [0:0.21101524609506814] [0:0.18118105768906526] [0:0.22919651541830879] [0:0.19547691401224956] [0:0.22383892411837292] [0:0.1592309437193255] [0:0.24706543871618161] [0:0.16300678755432585] [0:0.2042387878662337] [0:0.20818030960179823] [0:0.28621588975720552] [0:0.22111500660403896] [0:0.25445602202055667] [0:0.22388305620666812] [0:0.2469640189762082] [0:0.2809822794481035] [0:0.17924730797132088] [0:0.31360578954817259] [0:0.18048966903587058] [0:0.1566281297770129] [0:0.20403267581220783] [0:0.26897266150034349] [0:0.22053018442217365] [0:0.18862747688215922] [0:0.18855656947334185] [0:0.20433482628442257] [0:0.22976718321979131] [0:0.2194882518702006] [0:0.19590772861012393] [0:0.18001890307349236] [0:0.15875606572846118] [0:0.21997640483011421] [0:0.21074612515876379] [0:0.1882243675727584] [0:0.17354823970318781] [0:0.17823487007370079] [0:0.41084773207377528] [0:0.28820071940689279] [0:0.16115510080538833] [0:0.23578714897944095] [0:0.1912600237711444] none [0:0.17048996455004459] [0:0.20194011899397349] [0:0.18376929613923146] [0:0.1952124919358971] [0:0.15473952007425329] [0:0.27626832723434552] [0:0.1890864935916591] [0:0.21005590186445527] [0:0.21932322299152957] [0:0.1903517839381787] [0:0.17305169629198672] [0:0.29813542293332279] [0:0.16953474684136804] [0:0.31371011198123117] [0:0.23013250825704012] [0:0.15472575087938334] [0:0.18164341528924449] [0:0.23170170025214012] [0:0.25783776187014368] [0:0.15556275574480655] [0:0.23196616825649674] [0:0.19509086418742869] [0:0.18590673563260676] [0:0.17976431335568147] [0:0.29160060558872553] [0:0.26219302785581267] [0:0.1879377820509619] [0:0.18523272897056167] [0:0.22430457322562394] [0:0.3127828341318874] [0:0.24582176990273322] [0:0.26313022399481945] [0:0.21441331516541576] [0:0.28509249512416546] [0:0.14590857226521775] [0:0.19494882658070062] [0:0.26664071190705868] [0:0.16245421988990316] [0:0.25522548262785] [0:0.17455204656885409] [0:0.13077186136178101] [0:0.23479710909913695] [0:0.1729529517173671] [0:0.16169284723084118] [0:0.17930179666721049] [0:0.17932613726575158] [0:0.15115797620057497] [0:0.15574579172466232] [0:0.17425525104933481] [0:0.20747615179383927] [0:0.19397303524616627] [0:0.22245577467516853] [0:0.20141161212975853] [0:0.36898876271618986] [0:0.25498534076140766] [0:0.33484114072321824] [0:0.19568849770125854] [0:0.28386463277245044] [0:0.20151282917756633] [0:0.31666450180038913] [0:0.21869036354427143] [0:0.11476241416978417] [0:0.19848124389601737] [0:0.18564447623031782] [0:0.2284715836764257] [0:0.1818462176048285] [0:0.18324462081906528] [0:0.24368236147945366] [0:0.26211989200303498] [0:0.21438706638628807] [0:0.27742301181535872] [0:0.19185826523540531] [0:0.23391155303475325] [0:0.30046541642775393] [0:0.21209732215860516] none [0:0.17935629219885144] [0:0.18178172513566387] [0:0.18933680252627161] [0:0.1818890529851328] [0:0.20455672478626244] [0:0.18489193009562874] [0:0.18932312064548812] [0:0.23774020103240842] [0:0.20097343840869775] [0:0.23263546916465613] [0:0.1766127511194453] [0:0.22168400561218757] [0:0.24646184433592735] [0:0.19968067146803839] [0:0.22888972803158758] [0:0.19383159787520815] [0:0.18697964693472216] [0:0.26488243114040211] [0:0.21154726530455137] [0:0.25891511122981803] [0:0.20620190061535354] [0:0.21295338870625816] [0:0.16047332804335682] [0:0.19878741644438006] [0:0.17653758269606207] [0:0.1871518488805598] [0:0.21231219608244944] [0:0.17568214018963937] [0:0.14979591370259407] [0:0.19524463025039263] [0:0.20812648694566169] [0:0.19657836485342467] [0:0.26207883586202085] [0:0.1847952077685614] [0:0.32904620010994606] [0:0.18225573663135208] [0:0.21661885825052221] [0:0.24983007767396698] [0:0.14640687926574322] [0:0.18947072479192612] [0:0.1865154286399815] [0:0.36827969127416282] [0:0.15190175929887456] [0:0.18764249773004271] [0:0.37344331782470175] [0:0.21475411454049273] [0:0.22406244566872927] [0:0.1984881238975148] [0:0.21733038646371336] [0:0.48408427714437663] [0:0.18252559450966757] [0:0.20251716947619575] [0:0.16929406841238265] [0:0.24231251843284049] [0:0.22223137601016726] [0:0.20141695214346858] [0:0.19885042634765379] [0:0.24515518083483528] [0:0.14693024759442808] [0:0.19983646135196789] [0:0.19434544194125186] [0:0.15844862260536299] [0:0.1832337853317251] [0:0.24987174187283881] [0:0.17805289096684382] [0:0.19438404646088814] [0:0.24899242948188205] [0:0.19458639654618098] [0:0.30578433525097692] [0:0.20862050957093892] [0:0.18022251014393809] [0:0.1940926325673212] [0:0.20527636130774327] [0:0.206247092080592] [0:0.16432034482144134] [0:0.20045962891110297] [0:0.23242018219786806] [0:0.23412963162538664] [0:0.21128248850398282] [0:0.22333643933259073] [0:0.20686464083840717] [0:0.1894639177784796] [0:0.15354988414276338] [0:0.18566630270086476] [0:0.20300512029603601] [0:0.14770777097714435] [0:0.22284009954241532] [0:0.56509035744394609] [0:0.1538616699066144] [0:0.16203084151024399] [0:0.15988931495706393] [0:0.24055894369572986] [0:0.17224896132927001] [0:0.15736581141594647] [0:0.18210626444753505] [0:0.20624254023859892] [0:0.16637197461056519] [0:0.39742036047406337] [0:0.2926156779039929] [0:0.19317140931478785] [0:0.21823114660404619] [0:0.18944878318877417] [0:0.29111717793156699] [0:0.48155541350446501] [0:0.21883661479124314] [0:0.20179277973942561] [0:0.23462506613214193] [0:0.2329963977564832] [0:0.1728666577994456] [0:0.24243698160229418] [0:0.21725384630841177] [0:0.36142763625732127] [0:0.24020881823819071] [0:0.20952751390829405] [0:0.2886101056232161] [0:0.18774360435050086] [0:0.19192359998547495] [0:0.21096055659447877] [0:0.17056896553196477] [0:0.1920789603183731] [0:0.26997615895136423] [0:0.18943465141291216] [0:0.1815855472168012] [0:0.26019894392199272] [0:0.19174586075221828] [0:0.23379903051117476] [0:0.26076157613991408] [0:0.20601388912714469] [0:0.17677298839081812] [0:0.15960942259058616] [0:0.18338057342032799] [0:0.17934301208326808] [0:0.23191778172555735] [0:0.17488270985762458] [0:0.16304183753182025] [0:0.17902964734348858] [0:0.18429569506093055] [0:0.21677211263628857] none [0:0.20317158993200604] [0:0.21831955054534977] [0:0.24290836079968414] [0:0.22003251282642508] [0:0.20715676935399246] [0:0.27002427340788054] [0:0.16618189288747032] [0:0.20432126808357651] [0:0.33218091982266001] [0:0.20328008601077863] [0:0.20285509678165067] [0:0.16211867593283702] [0:0.16549926637214374] [0:0.19045989670894312] [0:0.19838563051968999] [0:0.17536820789535498] [0:0.27140244213093584] [0:0.19929938312300152] [0:0.20367050152599728] [0:0.33473196383680964] [0:0.1788230075788208] [0:0.17936621908835301] [0:0.16447038687819146] [0:0.17727997025096209] [0:0.19192564638662837] [0:0.16180900550237895] [0:0.18303316537523709] [0:0.18346424445563028] [0:0.18175117351412209] [0:0.19169113751794803] [0:0.18068552315255779] [0:0.29353034297834285] [0:0.16901624146891733] [0:0.18699375460923537] [0:0.18196161956331092] [0:0.18802048781757585] [0:0.21746187048757662] [0:0.27467305818326232] [0:0.25956661281291188] [0:0.46225322056483964] [0:0.19794952934283908] [0:0.19849460586906159] [0:0.2236834901614492] [0:0.17186029732601088] [0:0.17955231239273353] [0:0.22304162356828885] [0:0.16237141634864813] [0:0.20791584496926782] [0:0.20025758124462967] [0:0.15494917711266759] [0:0.16524266642274718] [0:0.1845733754496961] [0:0.21299739290421785] [0:0.2026696721943379] [0:0.37952625224971648] [0:0.19026449653349245] [0:0.22624570579788614] [0:0.23016544126674524] [0:0.18199324445795342] [0:0.21009644585691067] [0:0.18639005758162625] [0:0.18192973576374058] [0:0.31306822807705542] [0:0.17111251007259942] [0:0.2096104162813868] [0:0.27363790506764796] [0:0.17263497674094974] none [0:0.23315371381862585] [0:0.2551619885340255] [0:0.21536655081545811] [0:0.21188491641895782] [0:0.18871542095766256] [0:0.16725545841443457] [0:0.17383090160550563] [0:0.17140178009258988] [0:0.18324277889832893] [0:0.15481871810366929] [0:0.21361990996770885] [0:0.2385035348239837] [0:0.19763917091561251] [0:0.23559039133430865] [0:0.24914220628537156] [0:0.1746808935415099] [0:0.21148088457299541] [0:0.22922122431990158] [0:0.17759019895689998] [0:0.25270106217855332] [0:0.19637117231915432] [0:0.21291194754111883] [0:0.23690813393741503] [0:0.17585797637627457] [0:0.15977374303667435] [0:0.18765763736690497] [0:0.20346995301175094] [0:0.14706217101170652] [0:0.17761383556109575] [0:0.19438404646088814] [0:0.22230707643108533] [0:0.15840269599046525] [0:0.17283901916690436] [0:0.22173769441103394] [0:0.17162181483634525] [0:0.20512638859986507] [0:0.23577706633554382] none [0:0.15699163673253796] [0:0.16422013328663534] [0:0.17559550026103296] [0:0.21147768388678123] [0:0.2140552933999979] [0:0.30052793799407707] [0:0.13890639243750558] [0:0.18848305646594177] [0:0.16720452134176553] [0:0.19169513816911335] [0:0.20394849552835487] [0:0.13218805010212228] [0:0.16197673558098558] [0:0.16446652979602572] [0:0.17974465757473021] [0:0.19858450346658948] [0:0.24365013703635954] [0:0.23183096355580957] [0:0.20085836129066933] [0:0.15438395105558439] [0:0.22598419409580467] none [0:0.19286623574735373] [0:0.1631540580933323] [0:0.15613724754733407] [0:0.27132973510178859] [0:0.23171342307621295] [0:0.21999869495924637] [0:0.18042527121560051] [0:0.24948281059121014] [0:0.23093243140472153] [0:0.19319822808492426] [0:0.23021433044470882] [0:0.19658773171360525] [0:0.20712185868772989] [0:0.16632295321095975] [0:0.16107406079723763] [0:0.21683521261062905] [0:0.18739354189504356] [0:0.20764401339063962] [0:0.16910225087421787] [0:0.17273434014975528] [0:0.18010367699725538] [0:0.2377036496678088] [0:0.22603952395054344] [0:0.19596236439377007] [0:0.19389124901166874] none [0:0.21551467736259958] [0:0.18902258747210104] [0:0.22029461472881282] [0:0.23490291297923419] [0:0.39939291999210813] [0:0.18905680277459541] [0:0.20622552418130061] [0:0.23807304719907657] [0:0.39344473594839635] [0:0.15193797452885943] [0:0.24981122439845432] [0:0.15407270922178151] [0:0.19696562365640294] [0:0.18860504200261896] [0:0.256316979589234] [0:0.25157293600770625] [0:0.18628753088092501] [0:0.18153575416542492] [0:0.17334055472711399] [0:0.21089538613793768] [0:0.2453668587649345] [0:0.21142329003889671] [0:0.2102941958754217] [0:0.194992804697426] [0:0.17053799486235005] [0:0.63766631301555776] [0:0.24291537340965469] none [0:0.39279172287995623] [0:0.16120146150897394] [0:0.20857249242360362] [0:0.15917977709574771] [0:0.18890291388751043] [0:0.24778348430674074] [0:0.28521205963515817] [0:0.15712480034504203] [0:0.15613159469850404] [0:0.19049564523335491] [0:0.22002160056343312] [0:0.17844642494212745] [0:0.25035074168868054] [0:0.23391264004212592] [0:0.17908372667644021] [0:0.2269583022705419] [0:0.15190119183573897] [0:0.20979396612919557] [0:0.1765748529143335] [0:0.20382079922741647] [0:0.2190397800269348] [0:0.14472568897168039] [0:0.2645493070296312] [0:0.15424074620327258] none [0:0.24343271026984395] [0:0.1757126522854299] [0:0.21620256195627999] [0:0.1920411829334816] [0:0.18081588574639285] [0:0.4296377200654608] [0:0.25525136553546751] [0:0.17299434578474973] [0:0.1807763818266365] [0:0.26606501641467922] [0:0.25040654885859431] [0:0.30666566388159605] [0:0.16313952247714097] [0:0.25380388278743571] [0:0.23083066997550497] [0:0.20157133007373965] [0:0.15078995178419541] [0:0.2075438316790893] [0:0.19259760024089598] [0:0.17365623963784255] [0:0.20791321532297527] [0:0.22078474407295151] [0:0.19858424233903765] [0:0.22358679228997289] [0:0.27157184282599439] [0:0.27880956932345385] [0:0.17570708788675149] [0:0.30994555965225201] [0:0.21800260746685696] [0:0.19346884325940067] [0:0.14854497649806603] [0:0.19667952930747118] [0:0.1790106064126884] [0:0.18416019277915557] [0:0.25994264374466952] [0:0.24001894817954644] [0:0.15250592718438655] [0:0.21885878136822551] [0:0.21685199900775765] [0:0.18945808763952743] [0:0.19487987975754445] [0:0.18466503024936326] [0:0.1717927269177974] [0:0.20614653885195516] [0:0.22909302240316701] [0:0.21378860764001664] [0:0.19460804814044511] [0:0.19115758363483076] [0:0.19514215760231945] [0:0.16635520316576966] [0:0.25549086171611973] [0:0.70259250327408074] [0:0.19323324717341109] [0:0.18512095335563583] [0:0.17166733117174537] [0:0.18739354189504356] [0:0.24336659797240673] [0:0.14844777417127938] [0:0.22430457322562394] [0:0.17099738805412196] [0:0.19387955421267003] [0:0.16148323714313387] [0:0.36797557366561312] [0:0.19331113343929582] [0:0.20773277293677525] [0:0.19923135248687479] [0:0.23581637390534896] [0:0.16413524513279243] [0:0.16630037377542098] [0:0.18556269806525522] [0:0.21465530924754725] [0:0.17974824218958582] [0:0.31248921940230745] [0:0.18434335724707432] [0:0.17613507621220054] [0:0.20971212771536232] [0:0.16436481238478082] [0:0.41146034267777554] [0:0.16447038687819146] [0:0.17362077912678525] [0:0.24724100449955341] [0:0.17805926384634599] [0:0.15618826488368612] [0:0.23404748247483215] [0:0.1545424779848078] [0:0.17228384457711762] [0:0.15590827040445579] [0:0.44597417487284013] [0:0.30475879078791152] [0:0.19861419771036282] [0:0.15457847570342617] [0:0.24596773950490916] [0:0.18143964143480662] [0:0.21625036656985086] [0:0.16311021827611846] [0:0.25545496244361937] [0:0.23782010199791406] [0:0.25456752879225603] [0:0.20942208556786626] [0:0.18758963844206777] [0:0.27547674947130357] [0:0.16031324037445036] [0:0.15612496836434223] [0:0.22421314149327359] [0:0.22470799952701934] [0:0.20788140676237363] [0:0.1753670765424164] [0:0.18843159344436899] [0:0.19082523875460689] [0:0.17031322206334493] [0:0.24578381670563754] [0:0.22084630745401632] [0:0.18634698942642655] [0:0.19628297579563714] [0:0.1853999320171589] [0:0.17356438914655428] [0:0.19024686579611613] [0:0.20521829995732946] [0:0.16592163710124055] [0:0.21983799732570236] [0:0.18790040681056186] [0:0.16883832004335367] [0:0.2044469798369139] [0:0.19798208330234934] [0:0.15527976275749428] [0:0.15702483944516957] [0:0.2133752716506693] [0:0.19099512113223419] [0:0.17734261433412096] [0:0.16759504641663076] [0:0.1928775821872066] [0:0.16298682228483485] [0:0.19779807973667449] [0:0.21456218011050432] [0:0.15823662751089532] [0:0.19763707816111342] [0:0.19220085708080553] [0:0.20927013893437557] [0:0.2369081904408116] [0:0.19995501184996842] [0:0.21133124715510027] [0:0.18406606055003219] [0:0.17353871318735054] [0:0.1603197521804032] [0:0.16968983966832285] [0:0.14913550693495242] [0:0.27598960981101645] [0:0.21351148440425621] [0:0.29095546925365251] [0:0.19855224128944701] [0:0.17570233917012848] [0:0.25663048385645038] [0:0.24764310176724036] [0:0.15394189549023321] [0:0.22066152828240582] [0:0.18446141448314113] [0:0.18752477732027317] [0:0.19664631274708141] [0:0.22527790097555747] [0:0.21096427262029688] [0:0.14465029860398368] [0:0.17503245638148629] [0:0.38037407643174004] [0:0.17347278068426258] [0:0.21782542639485999] [0:0.20754785541462251] [0:0.18323116241153128] [0:0.24014918344262257] [0:0.26511183867467114] [0:0.20618416704914425] [0:0.21631764275599399] [0:0.17098406661445531] [0:0.20717335098774564] [0:0.16292659166382331] [0:0.23205234148822831] [0:0.26000022019483321] [0:0.22357246080639182] [0:0.16541228339579622] [0:0.24722794027784489] [0:0.18773720315832043] [0:0.21916322193180651] [0:0.22233262828931771] [0:0.16810732119965147] [0:0.16551353217659737] [0:0.181802556587916] [0:0.1781997878195406] [0:0.1559028185102487] [0:0.17408029306025741] [0:0.25224322605594945] [0:0.21907323277078539] [0:0.18226806279070179] [0:0.22430934511946077] [0:0.21913752383161669] [0:0.20778681736999446] [0:0.24038725138957967] [0:0.2285659890483577] [0:0.22926277456752986] [0:0.17776759447852106] [0:0.24871973178331486] [0:0.18457715767280483] [0:0.14414525852594967] [0:0.19670463589538117] [0:0.23109436074450876] [0:0.18837675929326528] [0:0.22863416591055916] [0:0.21188474790751591] [0:0.18200158358070212] [0:0.20820380756715837] [0:0.21315623631162195] [0:0.21715842221743156] [0:0.2022902134547834] [0:0.18261383569550207] [0:0.2460991671316973] [0:0.23508732889804182] [0:0.16550714999966096] [0:0.19411360256653776] [0:0.16876932370770387] [0:0.16254775961726517] [0:0.23645257269118028] [0:0.23332487387204376] [0:0.13839831227942109] [0:0.21110762951159162] [0:0.17495341087999985] [0:0.21291194754111883] [0:0.19611220408535368] [0:0.21629207123480626] [0:0.18143812713666971] [0:0.18657595194334631] [0:0.15714612980187057] none [0:0.17576761343297473] [0:0.25726024592462393] [0:0.21982971829218056] [0:0.22576248271478289] [0:0.20831683043779894] [0:0.15763009876965953] [0:0.17514942853955437] [0:0.17564705472012956] [0:0.14365122748091894] [0:0.22717656035276829] [0:0.18719460819782541] [0:0.20283786108970883] [0:0.20032317634936544] [0:0.16668982027829246] [0:0.18842903081168752] [0:0.19925163886132805] [0:0.23183096355580957] [0:0.16054352703225486] [0:0.15227997556756068] [0:0.24982107227627759] [0:0.18452072901105654] [0:0.18645395418602598] [0:0.18852701523760684] [0:0.2574485047335201] [0:0.25181088136256036] [0:0.17348216145093687] [0:0.17129554525193669] [0:0.23584284489589105] [0:0.24615757767487478] [0:0.19781777938251088] [0:0.19346386948492114] [0:0.20772582702581363] [0:0.16450204423049031] [0:0.19168047906604643] [0:0.15861736119617559] [0:0.18473079859675703] [0:0.2347005011931026] [0:0.20659702735898619] [0:0.15621893740511317] [0:0.20452342814379126] [0:0.26835723486221402] [0:0.1887087523574362] [0:0.25049438112886957] [0:0.13952959830223574] [0:0.17070221000678934] [0:0.15384508379417586] [0:0.17987627748905652] [0:0.19688285743902179] [0:0.1960714165739795] [0:0.15929558255878987] [0:0.22747496814824755] [0:0.20676027937847297] [0:0.20318165355871609] [0:0.15848405157681564] [0:0.25125102893229107] [0:0.28037610128377988] [0:0.19779394274001244] [0:0.16404033526892386] [0:0.2262038645440077] [0:0.13358011968272315] [0:0.20937294175222007] [0:0.17750178997227675] [0:0.19579123034060789] [0:0.31569113692856865] [0:0.21982965902561383] [0:0.22804923191602516] [0:0.21768490202069579] [0:0.23154108921230107] [0:0.17880028382482049] [0:0.19592165871641573] [0:0.19324465513770703] [0:0.1924013747819687] [0:0.14697286068198259] [0:0.15009398660718601] [0:0.1793284670329561] [0:0.2101970137128881] [0:0.18813677567025763] [0:0.17687286254992954] [0:0.26488132557154753] [0:0.21707322285933225] [0:0.15101752394934811] [0:0.17898424951635866] [0:0.19807862205581325] [0:0.1983771757820835] [0:0.21144309964823058] [0:0.21663628131741189] [0:0.17412019033535697] [0:0.20015323593441681] [0:0.15268835494648958] [0:0.15626565097540454] [0:0.21152466805084208] [0:0.20773909074700375] [0:0.17662382900500564] [0:0.16085251008428644] [0:0.17329832756906807] [0:0.1824008565729956] [0:0.15991715983506988] [0:0.19276811241122421] [0:0.22171602902188625] [0:0.19749141469878692] [0:0.17603063429053153] [0:0.20192415043838643] [0:0.26648690945823689] [0:0.18136789519078123] [0:0.18387287617114703] [0:0.16969920401017258] [0:0.15890678082526555] [0:0.20442491206767718] [0:0.23546998557330789] [0:0.17127927433556217] [0:0.1746808935415099] [0:0.20829308869646238] [0:0.19846945746179953] [0:0.28002409566198572] [0:0.28091782121416459] [0:0.25144925597977941] [0:0.40520419879424241] [0:0.19729621192301425] [0:0.17331904425945335] [0:0.20943493245625716] [0:0.19712361173320944] [0:0.17242838070179073] [0:0.20706674396214145] [0:0.21742615561200757] [0:0.16431452498573987] [0:0.15654426907416849] [0:0.22384791687609554] [0:0.57330585287582081] [0:0.17815742793639627] [0:0.1584538334987628] [0:0.19313246708846385] [0:0.17353389278009093] [0:0.18481208174921815] [0:0.22342012088700636] [0:0.17455574114800093] [0:0.1854089369690454] [0:0.24147722659526316] [0:0.21454889749941036] [0:0.13543149197643717] [0:0.26150644613456403] [0:0.1553161934597993] [0:0.18414577767125465] [0:0.21081944710735792] [0:0.2109275185071513] [0:0.19982857990534073] [0:0.16969122948513138] [0:0.17259192111643343] [0:0.19435558148652718] [0:0.16011987450336052] [0:0.21160135658900306] [0:0.16963834120043897] [0:0.18180208303352072] [0:0.25841119843856974] [0:0.24074889998184595] [0:0.15420916596839557] [0:0.19724547670111814] [0:0.20246801058400768] [0:0.29089968718609438] [0:0.18180592321336025] [0:0.20185669082399829] [0:0.18302232990803743] [0:0.28853260765075239] [0:0.1770214560114832] [0:0.28005756393158049] [0:0.19851931509857404] [0:0.19356099971451832] [0:0.16298381643772603] [0:0.20962393897732576] [0:0.24150923594770299] [0:0.27063962832757343] [0:0.23642550512007138] [0:0.1603925550427282] [0:0.20280440258419652] [0:0.26070379428806234] [0:0.18832760693923781] [0:0.20816729070242726] [0:0.49110305081891703] [0:0.27140244213093584] [0:0.18691145564156769] [0:0.17010262550226524] [0:0.15370806145988553] [0:0.17526105111656454] [0:0.24314297591494596] [0:0.19081212499460187] [0:0.2691140658477868] [0:0.1825708253005511] [0:0.19213696317879733] [0:0.1961837513835393] [0:0.19794952934283908] [0:0.17031717762939322] [0:0.16205881039934431] [0:0.20985598985003431] [0:0.18412431589784101] [0:0.19259055219194121] [0:0.19234178380640407] [0:0.23047113970480165] [0:0.18225573663135208] [0:0.25815889043239842] [0:0.22845456419090973] [0:0.16447916511327346] [0:0.28110601879986447] [0:0.1835362768091417] [0:0.22330690182732008] [0:0.24983007767396698] [0:0.20708959191861775] [0:0.16996428096255625] none [0:0.35385302376552541] [0:0.27546485184442365] [0:0.15857915235236922] [0:0.22843001328375426] [0:0.13330975648208984] [0:0.18805265624254716] [0:0.2085586360272213] [0:0.24316364168137658] [0:0.48822448187917222] [0:0.16360276413036667] [0:0.17462936302556595] [0:0.16446630982847854] none [0:0.20909752495215053] [0:0.25846232355190718] [0:0.2129748427723957] [0:0.19552496904869596] [0:0.27347110609642217] [0:0.20910093737583044] [0:0.15434350651881909] [0:0.23762388769617276] [0:0.20093890660066313] [0:0.19159268454499565] [0:0.22685334065287149] [0:0.21826156627071719] [0:0.26387373547797061] [0:0.35317136809641475] [0:0.20333033554548585] [0:0.15471902597308682] [0:0.16819806726274114] [0:0.28328620289561351] [0:0.19119867427929707] [0:0.23121973933167256] [0:0.16797239967859104] [0:0.29701654569845132] [0:0.23063648707532947] [0:0.2267234749217619] [0:0.21770323650312215] [0:0.20054470858764545] [0:0.15692871467387931] [0:0.25786315937042931] 